{"learner":{"attributes":{},"feature_names":["has_dimensions","has_units","has_x_separator","is_heavy","is_large","is_long","is_small","is_strong","is_thick","is_thin","word_count"],"feature_types":["int","int","int","int","int","int","int","int","int","int","int"],"gradient_booster":{"model":{"cats":{"enc":[],"feature_segments":[],"sorted_idx":[]},"gbtree_model_param":{"num_parallel_tree":"1","num_trees":"100"},"iteration_indptr":[0,1,2,3,4,5,6,7,8,9,10,11,12,13,14,15,16,17,18,19,20,21,22,23,24,25,26,27,28,29,30,31,32,33,34,35,36,37,38,39,40,41,42,43,44,45,46,47,48,49,50,51,52,53,54,55,56,57,58,59,60,61,62,63,64,65,66,67,68,69,70,71,72,73,74,75,76,77,78,79,80,81,82,83,84,85,86,87,88,89,90,91,92,93,94,95,96,97,98,99,100],"tree_info":[0,0,0,0,0,0,0,0,0,0,0,0,0,0,0,0,0,0,0,0,0,0,0,0,0,0,0,0,0,0,0,0,0,0,0,0,0,0,0,0,0,0,0,0,0,0,0,0,0,0,0,0,0,0,0,0,0,0,0,0,0,0,0,0,0,0,0,0,0,0,0,0,0,0,0,0,0,0,0,0,0,0,0,0,0,0,0,0,0,0,0,0,0,0,0,0,0,0,0,0],"trees":[{"base_weights":[-6.87865E-7,-1.5820538E1,8.778847E0,-6.2108045E0,-5.6534586E0,-3.925111E-1,-1.2591586E0],"categories":[],"categories_nodes":[],"categories_segments":[],"categories_sizes":[],"default_left":[0,0,0,0,0,0,0],"id":0,"left_children":[1,3,-1,5,-1,-1,-1],"loss_changes":[1.3916385E6,3.3182106E5,0E0,9.984719E3,0E0,0E0,0E0],"parents":[2147483647,0,0,1,1,3,3],"right_children":[2,4,-1,6,-1,-1,-1],"split_conditions":[1E0,1E0,8.778847E0,1E0,-5.6534586E0,-3.925111E-1,-1.2591586E0],"split_indices":[4,6,0,2,0,0,0],"split_type":[0,0,0,0,0,0,0],"sum_hessian":[1E3,8.48E2,1.52E2,6.87E2,1.61E2,5.07E2,1.8E2],"tree_param":{"num_deleted":"0","num_feature":"11","num_nodes":"7","size_leaf_vector":"1"}},{"base_weights":[1.4707544E-3,-1.4247089E1,7.9067E0,-5.592126E0,-5.0916023E0,-3.5333744E-1,-1.1339384E0],"categories":[],"categories_nodes":[],"categories_segments":[],"categories_sizes":[],"default_left":[0,0,0,0,0,0,0],"id":1,"left_children":[1,3,-1,5,-1,-1,-1],"loss_changes":[1.1288229E6,2.6916094E5,0E0,8.1004688E3,0E0,0E0,0E0],"parents":[2147483647,0,0,1,1,3,3],"right_children":[2,4,-1,6,-1,-1,-1],"split_conditions":[1E0,1E0,7.9067E0,1E0,-5.0916023E0,-3.5333744E-1,-1.1339384E0],"split_indices":[4,6,0,2,0,0,0],"split_type":[0,0,0,0,0,0,0],"sum_hessian":[1E3,8.48E2,1.52E2,6.87E2,1.61E2,5.07E2,1.8E2],"tree_param":{"num_deleted":"0","num_feature":"11","num_nodes":"7","size_leaf_vector":"1"}},{"base_weights":[2.6494768E-3,-1.283013E1,7.1211977E0,-5.0350757E0,-4.585585E0,-3.1807336E-1,-1.0211711E0],"categories":[],"categories_nodes":[],"categories_segments":[],"categories_sizes":[],"default_left":[0,0,0,0,0,0,0],"id":2,"left_children":[1,3,-1,5,-1,-1,-1],"loss_changes":[9.15641E5,2.1833338E5,0E0,6.5718066E3,0E0,0E0,0E0],"parents":[2147483647,0,0,1,1,3,3],"right_children":[2,4,-1,6,-1,-1,-1],"split_conditions":[1E0,1E0,7.1211977E0,1E0,-4.585585E0,-3.1807336E-1,-1.0211711E0],"split_indices":[4,6,0,2,0,0,0],"split_type":[0,0,0,0,0,0,0],"sum_hessian":[1E3,8.48E2,1.52E2,6.87E2,1.61E2,5.07E2,1.8E2],"tree_param":{"num_deleted":"0","num_feature":"11","num_nodes":"7","size_leaf_vector":"1"}},{"base_weights":[3.579516E-3,-1.1554095E1,6.413732E0,-4.533515E0,-4.1298575E0,-2.8632864E-1,-9.196181E-1],"categories":[],"categories_nodes":[],"categories_segments":[],"categories_sizes":[],"default_left":[0,0,0,0,0,0,0],"id":3,"left_children":[1,3,-1,5,-1,-1,-1],"loss_changes":[7.427192E5,1.7710388E5,0E0,5.331619E3,0E0,0E0,0E0],"parents":[2147483647,0,0,1,1,3,3],"right_children":[2,4,-1,6,-1,-1,-1],"split_conditions":[1E0,1E0,6.413732E0,1E0,-4.1298575E0,-2.8632864E-1,-9.196181E-1],"split_indices":[4,6,0,2,0,0,0],"split_type":[0,0,0,0,0,0,0],"sum_hessian":[1E3,8.48E2,1.52E2,6.87E2,1.61E2,5.07E2,1.8E2],"tree_param":{"num_deleted":"0","num_feature":"11","num_nodes":"7","size_leaf_vector":"1"}},{"base_weights":[4.2969934E-3,-1.0404971E1,5.7765503E0,-4.0819173E0,-3.7194207E0,-6.893413E-1,-1.2667392E-1],"categories":[],"categories_nodes":[],"categories_segments":[],"categories_sizes":[],"default_left":[0,0,0,0,0,0,0],"id":4,"left_children":[1,3,-1,5,-1,-1,-1],"loss_changes":[6.0245425E5,1.436601E5,0E0,5.4366934E3,0E0,0E0,0E0],"parents":[2147483647,0,0,1,1,3,3],"right_children":[2,4,-1,6,-1,-1,-1],"split_conditions":[1E0,1E0,5.7765503E0,2E0,-3.7194207E0,-6.893413E-1,-1.2667392E-1],"split_indices":[4,6,0,10,0,0,0],"split_type":[0,0,0,0,0,0,0],"sum_hessian":[1E3,8.48E2,1.52E2,6.87E2,1.61E2,3.43E2,3.44E2],"tree_param":{"num_deleted":"0","num_feature":"11","num_nodes":"7","size_leaf_vector":"1"}},{"base_weights":[5.1079197E-3,-9.369816E0,5.202671E0,-3.6749108E0,-3.3497746E0,-2.107737E-1,-8.0530846E-1],"categories":[],"categories_nodes":[],"categories_segments":[],"categories_sizes":[],"default_left":[0,0,0,0,0,0,0],"id":5,"left_children":[1,3,-1,5,-1,-1,-1],"loss_changes":[4.886737E5,1.1653482E5,0E0,4.7036416E3,0E0,0E0,0E0],"parents":[2147483647,0,0,1,1,3,3],"right_children":[2,4,-1,6,-1,-1,-1],"split_conditions":[1E0,1E0,5.202671E0,1E0,-3.3497746E0,-2.107737E-1,-8.0530846E-1],"split_indices":[4,6,0,2,0,0,0],"split_type":[0,0,0,0,0,0,0],"sum_hessian":[1E3,8.48E2,1.52E2,6.87E2,1.61E2,5.07E2,1.8E2],"tree_param":{"num_deleted":"0","num_feature":"11","num_nodes":"7","size_leaf_vector":"1"}},{"base_weights":[5.4335217E-3,-8.437977E0,4.685805E0,-3.3088965E0,-3.016865E0,-5.93888E-1,-6.769453E-2],"categories":[],"categories_nodes":[],"categories_segments":[],"categories_sizes":[],"default_left":[0,0,0,0,0,0,0],"id":6,"left_children":[1,3,-1,5,-1,-1,-1],"loss_changes":[3.963868E5,9.452832E4,0E0,4.758307E3,0E0,0E0,0E0],"parents":[2147483647,0,0,1,1,3,3],"right_children":[2,4,-1,6,-1,-1,-1],"split_conditions":[1E0,1E0,4.685805E0,2E0,-3.016865E0,-5.93888E-1,-6.769453E-2],"split_indices":[4,6,0,10,0,0,0],"split_type":[0,0,0,0,0,0,0],"sum_hessian":[1E3,8.48E2,1.52E2,6.87E2,1.61E2,3.43E2,3.44E2],"tree_param":{"num_deleted":"0","num_feature":"11","num_nodes":"7","size_leaf_vector":"1"}},{"base_weights":[5.8963806E-3,-7.5985117E0,4.220287E0,-2.9789684E0,-2.7170408E0,-1.5087149E-1,-7.0889676E-1],"categories":[],"categories_nodes":[],"categories_segments":[],"categories_sizes":[],"default_left":[0,0,0,0,0,0,0],"id":7,"left_children":[1,3,-1,5,-1,-1,-1],"loss_changes":[3.2152453E5,7.6679875E4,0E0,4.14671E3,0E0,0E0,0E0],"parents":[2147483647,0,0,1,1,3,3],"right_children":[2,4,-1,6,-1,-1,-1],"split_conditions":[1E0,1E0,4.220287E0,1E0,-2.7170408E0,-1.5087149E-1,-7.0889676E-1],"split_indices":[4,6,0,2,0,0,0],"split_type":[0,0,0,0,0,0,0],"sum_hessian":[1E3,8.48E2,1.52E2,6.87E2,1.61E2,5.07E2,1.8E2],"tree_param":{"num_deleted":"0","num_feature":"11","num_nodes":"7","size_leaf_vector":"1"}},{"base_weights":[5.9499657E-3,-6.8428736E0,3.8010166E1,-2.6823213E0,-2.4470139E0,3.8607872E0,2.5602195E0,-5.142755E-1,-2.212446E-2],"categories":[],"categories_nodes":[],"categories_segments":[],"categories_sizes":[],"default_left":[0,0,0,0,0,0,0,0,0],"id":8,"left_children":[1,3,5,7,-1,-1,-1,-1,-1],"loss_changes":[2.6080455E5,6.21993E4,1.4625E2,4.1649194E3,0E0,0E0,0E0,0E0,0E0],"parents":[2147483647,0,0,1,1,2,2,3,3],"right_children":[2,4,6,8,-1,-1,-1,-1,-1],"split_conditions":[1E0,1E0,4E0,2E0,-2.4470139E0,3.8607872E0,2.5602195E0,-5.142755E-1,-2.212446E-2],"split_indices":[4,6,10,10,0,0,0,0,0],"split_type":[0,0,0,0,0,0,0,0,0],"sum_hessian":[1E3,8.48E2,1.52E2,6.87E2,1.61E2,1.43E2,9E0,3.43E2,3.44E2],"tree_param":{"num_deleted":"0","num_feature":"11","num_nodes":"9","size_leaf_vector":"1"}},{"base_weights":[8.789196E-3,-6.1621003E0,3.4251118E1,-2.4148688E0,-2.203823E0,3.4773895E1,2.3298001E0,-1.0357314E-1,-6.272256E-1,3.6468441E0,2.9790273E0],"categories":[],"categories_nodes":[],"categories_segments":[],"categories_sizes":[],"default_left":[0,0,0,0,0,0,0,0,0,0,0],"id":9,"left_children":[1,3,5,7,-1,9,-1,-1,-1,-1,-1],"loss_changes":[2.1172798E5,5.045509E4,6.5921875E1,3.6535713E3,0E0,1.2967188E2,0E0,0E0,0E0,0E0,0E0],"parents":[2147483647,0,0,1,1,2,2,3,3,5,5],"right_children":[2,4,6,8,-1,10,-1,-1,-1,-1,-1],"split_conditions":[1E0,1E0,4E0,1E0,-2.203823E0,1E0,2.3298001E0,-1.0357314E-1,-6.272256E-1,3.6468441E0,2.9790273E0],"split_indices":[4,6,10,2,0,2,0,0,0,0,0],"split_type":[0,0,0,0,0,0,0,0,0,0,0],"sum_hessian":[1E3,8.48E2,1.52E2,6.87E2,1.61E2,1.43E2,9E0,5.07E2,1.8E2,1.02E2,4.1E1],"tree_param":{"num_deleted":"0","num_feature":"11","num_nodes":"11","size_leaf_vector":"1"}},{"base_weights":[1.3925006E-2,-5.5493474E0,3.088454E1,-2.174445E0,-1.9848012E0,3.134252E1,2.1201177E0,-4.4764695E-1,1.272101E-2,3.2857006E0,2.6882174E0],"categories":[],"categories_nodes":[],"categories_segments":[],"categories_sizes":[],"default_left":[0,0,0,0,0,0,0,0,0,0,0],"id":10,"left_children":[1,3,5,7,-1,9,-1,-1,-1,-1,-1],"loss_changes":[1.7208478E5,4.0926688E4,1.403125E1,3.6459146E3,0E0,8.946875E1,0E0,0E0,0E0,0E0,0E0],"parents":[2147483647,0,0,1,1,2,2,3,3,5,5],"right_children":[2,4,6,8,-1,10,-1,-1,-1,-1,-1],"split_conditions":[1E0,1E0,4E0,2E0,-1.9848012E0,1E0,2.1201177E0,-4.4764695E-1,1.272101E-2,3.2857006E0,2.6882174E0],"split_indices":[4,6,10,10,0,2,0,0,0,0,0],"split_type":[0,0,0,0,0,0,0,0,0,0,0],"sum_hessian":[1E3,8.48E2,1.52E2,6.87E2,1.61E2,1.43E2,9E0,3.43E2,3.44E2,1.02E2,4.1E1],"tree_param":{"num_deleted":"0","num_feature":"11","num_nodes":"11","size_leaf_vector":"1"}},{"base_weights":[1.8201008E-2,-4.997263E0,2.7848992E0,-1.957633E0,-1.7875462E0,-6.641256E-2,-5.577214E-1],"categories":[],"categories_nodes":[],"categories_segments":[],"categories_sizes":[],"default_left":[0,0,0,0,0,0,0],"id":11,"left_children":[1,3,-1,5,-1,-1,-1],"loss_changes":[1.398631E5,3.319908E4,0E0,3.2174807E3,0E0,0E0,0E0],"parents":[2147483647,0,0,1,1,3,3],"right_children":[2,4,-1,6,-1,-1,-1],"split_conditions":[1E0,1E0,2.7848992E0,1E0,-1.7875462E0,-6.641256E-2,-5.577214E-1],"split_indices":[4,6,0,2,0,0,0],"split_type":[0,0,0,0,0,0,0],"sum_hessian":[1E3,8.48E2,1.52E2,6.87E2,1.61E2,5.07E2,1.8E2],"tree_param":{"num_deleted":"0","num_feature":"11","num_nodes":"7","size_leaf_vector":"1"}},{"base_weights":[1.6754529E-2,-4.5003767E0,2.5082296E1,-1.7627761E0,-1.609895E0,2.54842E1,1.6786663E1,-3.916772E-1,3.9008554E-2,2.6845348E0,2.1539373E0,9.8435813E-1,2.176103E0],"categories":[],"categories_nodes":[],"categories_segments":[],"categories_sizes":[],"default_left":[0,0,0,0,0,0,0,0,0,0,0,0,0],"id":12,"left_children":[1,3,5,7,-1,9,11,-1,-1,-1,-1,-1,-1],"loss_changes":[1.1345045E5,2.6929297E4,8.23125E1,3.191959E3,0E0,1.9497656E2,1.3116797E2,0E0,0E0,0E0,0E0,0E0,0E0],"parents":[2147483647,0,0,1,1,2,2,3,3,5,5,6,6],"right_children":[2,4,6,8,-1,10,12,-1,-1,-1,-1,-1,-1],"split_conditions":[1E0,1E0,4E0,2E0,-1.609895E0,1E0,1E0,-3.916772E-1,3.9008554E-2,2.6845348E0,2.1539373E0,9.8435813E-1,2.176103E0],"split_indices":[4,6,10,10,0,2,2,0,0,0,0,0,0],"split_type":[0,0,0,0,0,0,0,0,0,0,0,0,0],"sum_hessian":[1E3,8.48E2,1.52E2,6.87E2,1.61E2,1.43E2,9E0,3.43E2,3.44E2,1.02E2,4.1E1,5E0,4E0],"tree_param":{"num_deleted":"0","num_feature":"11","num_nodes":"13","size_leaf_vector":"1"}},{"base_weights":[2.1109818E-2,-4.0526505E0,2.2626348E1,-1.5870111E0,-1.4498992E0,2.2969381E1,1.5424044E1,-3.73954E-2,-4.9828455E-1,2.418688E0,1.9436718E0,9.0232813E-1,2.0020149E0],"categories":[],"categories_nodes":[],"categories_segments":[],"categories_sizes":[],"default_left":[0,0,0,0,0,0,0,0,0,0,0,0,0],"id":13,"left_children":[1,3,5,7,-1,9,11,-1,-1,-1,-1,-1,-1],"loss_changes":[9.227211E4,2.184461E4,2.371875E1,2.8322434E3,0E0,1.4923438E2,1.1353833E2,0E0,0E0,0E0,0E0,0E0,0E0],"parents":[2147483647,0,0,1,1,2,2,3,3,5,5,6,6],"right_children":[2,4,6,8,-1,10,12,-1,-1,-1,-1,-1,-1],"split_conditions":[1E0,1E0,4E0,1E0,-1.4498992E0,1E0,1E0,-3.73954E-2,-4.9828455E-1,2.418688E0,1.9436718E0,9.0232813E-1,2.0020149E0],"split_indices":[4,6,10,2,0,2,2,0,0,0,0,0,0],"split_type":[0,0,0,0,0,0,0,0,0,0,0,0,0],"sum_hessian":[1E3,8.48E2,1.52E2,6.87E2,1.61E2,1.43E2,9E0,5.07E2,1.8E2,1.02E2,4.1E1,5E0,4E0],"tree_param":{"num_deleted":"0","num_feature":"11","num_nodes":"13","size_leaf_vector":"1"}},{"base_weights":[2.4274051E-2,-3.6497242E0,2.0411205E0,-1.4290888E0,-1.3058043E0,-3.4447327E-1,5.848549E-2],"categories":[],"categories_nodes":[],"categories_segments":[],"categories_sizes":[],"default_left":[0,0,0,0,0,0,0],"id":14,"left_children":[1,3,-1,5,-1,-1,-1],"loss_changes":[7.505095E4,1.7719027E4,0E0,2.7948774E3,0E0,0E0,0E0],"parents":[2147483647,0,0,1,1,3,3],"right_children":[2,4,-1,6,-1,-1,-1],"split_conditions":[1E0,1E0,2.0411205E0,2E0,-1.3058043E0,-3.4447327E-1,5.848549E-2],"split_indices":[4,6,0,10,0,0,0],"split_type":[0,0,0,0,0,0,0],"sum_hessian":[1E3,8.48E2,1.52E2,6.87E2,1.61E2,3.43E2,3.44E2],"tree_param":{"num_deleted":"0","num_feature":"11","num_nodes":"7","size_leaf_vector":"1"}},{"base_weights":[2.2295557E-2,-3.2866268E0,1.8383425E1,-1.2865956E0,-1.1760299E0,1.8675787E1,1.2335063E1,-1.4910202E-2,-4.4720107E-1,1.9770364E0,1.5546807E0,6.5704054E-1,1.6785641E0],"categories":[],"categories_nodes":[],"categories_segments":[],"categories_sizes":[],"default_left":[0,0,0,0,0,0,0,0,0,0,0,0,0],"id":15,"left_children":[1,3,5,7,-1,9,11,-1,-1,-1,-1,-1,-1],"loss_changes":[6.0876723E4,1.4373389E4,4.0191406E1,2.4922246E3,0E0,1.8582031E2,1.462721E2,0E0,0E0,0E0,0E0,0E0,0E0],"parents":[2147483647,0,0,1,1,2,2,3,3,5,5,6,6],"right_children":[2,4,6,8,-1,10,12,-1,-1,-1,-1,-1,-1],"split_conditions":[1E0,1E0,4E0,1E0,-1.1760299E0,1E0,1E0,-1.4910202E-2,-4.4720107E-1,1.9770364E0,1.5546807E0,6.5704054E-1,1.6785641E0],"split_indices":[4,6,10,2,0,2,2,0,0,0,0,0,0],"split_type":[0,0,0,0,0,0,0,0,0,0,0,0,0],"sum_hessian":[1E3,8.48E2,1.52E2,6.87E2,1.61E2,1.43E2,9E0,5.07E2,1.8E2,1.02E2,4.1E1,5E0,4E0],"tree_param":{"num_deleted":"0","num_feature":"11","num_nodes":"13","size_leaf_vector":"1"}},{"base_weights":[2.4291469E-2,-2.9598927E0,1.658343E1,-1.1586068E0,-1.0591528E0,1.6832733E1,1.1335118E1,-3.0449215E-1,7.255987E-2,1.7812523E0,1.4029137E0,6.0228693E-1,1.5442793E0],"categories":[],"categories_nodes":[],"categories_segments":[],"categories_sizes":[],"default_left":[0,0,0,0,0,0,0,0,0,0,0,0,0],"id":16,"left_children":[1,3,5,7,-1,9,11,-1,-1,-1,-1,-1,-1],"loss_changes":[4.951402E4,1.1658728E4,9.386719E0,2.447502E3,0E0,1.4566406E2,1.2520007E2,0E0,0E0,0E0,0E0,0E0,0E0],"parents":[2147483647,0,0,1,1,2,2,3,3,5,5,6,6],"right_children":[2,4,6,8,-1,10,12,-1,-1,-1,-1,-1,-1],"split_conditions":[1E0,1E0,4E0,2E0,-1.0591528E0,1E0,1E0,-3.0449215E-1,7.255987E-2,1.7812523E0,1.4029137E0,6.0228693E-1,1.5442793E0],"split_indices":[4,6,10,10,0,2,2,0,0,0,0,0,0],"split_type":[0,0,0,0,0,0,0,0,0,0,0,0,0],"sum_hessian":[1E3,8.48E2,1.52E2,6.87E2,1.61E2,1.43E2,9E0,3.43E2,3.44E2,1.02E2,4.1E1,5E0,4E0],"tree_param":{"num_deleted":"0","num_feature":"11","num_nodes":"13","size_leaf_vector":"1"}},{"base_weights":[2.5898833E-2,-2.6654236E0,1.4959931E0,-1.0430825E0,-9.538914E-1,2.3454733E-3,-4.0306947E-1],"categories":[],"categories_nodes":[],"categories_segments":[],"categories_sizes":[],"default_left":[0,0,0,0,0,0,0],"id":17,"left_children":[1,3,-1,5,-1,-1,-1],"loss_changes":[4.0272363E4,9.457374E3,0E0,2.1923376E3,0E0,0E0,0E0],"parents":[2147483647,0,0,1,1,3,3],"right_children":[2,4,-1,6,-1,-1,-1],"split_conditions":[1E0,1E0,1.4959931E0,1E0,-9.538914E-1,2.3454733E-3,-4.0306947E-1],"split_indices":[4,6,0,2,0,0,0],"split_type":[0,0,0,0,0,0,0],"sum_hessian":[1E3,8.48E2,1.52E2,6.87E2,1.61E2,5.07E2,1.8E2],"tree_param":{"num_deleted":"0","num_feature":"11","num_nodes":"7","size_leaf_vector":"1"}},{"base_weights":[2.345066E-2,-2.4004774E0,1.34737215E1,-9.3935734E-1,-8.59091E-1,1.4130161E1,1.1639607E0,-2.7047613E-1,8.236523E-2,1.4567103E0,4.2743012E-1],"categories":[],"categories_nodes":[],"categories_segments":[],"categories_sizes":[],"default_left":[0,0,0,0,0,0,0,0,0,0,0],"id":18,"left_children":[1,3,5,7,-1,9,-1,-1,-1,-1,-1],"loss_changes":[3.2667432E4,7.6711045E3,1.9742188E1,2.1435757E3,0E0,4.0283008E2,0E0,0E0,0E0,0E0,0E0],"parents":[2147483647,0,0,1,1,2,2,3,3,5,5],"right_children":[2,4,6,8,-1,10,-1,-1,-1,-1,-1],"split_conditions":[1E0,1E0,1E0,2E0,-8.59091E-1,4E0,1.1639607E0,-2.7047613E-1,8.236523E-2,1.4567103E0,4.2743012E-1],"split_indices":[4,6,2,10,0,10,0,0,0,0,0],"split_type":[0,0,0,0,0,0,0,0,0,0,0],"sum_hessian":[1E3,8.48E2,1.52E2,6.87E2,1.61E2,1.07E2,4.5E1,3.43E2,3.44E2,1.02E2,5E0],"tree_param":{"num_deleted":"0","num_feature":"11","num_nodes":"11","size_leaf_vector":"1"}},{"base_weights":[2.310445E-2,-2.1616633E0,1.2146273E1,-8.456953E-1,-7.737122E-1,1.2734591E1,1.0500954E0,1.5422677E-2,-3.6474344E-1,1.3124536E0,3.9181098E-1],"categories":[],"categories_nodes":[],"categories_segments":[],"categories_sizes":[],"default_left":[0,0,0,0,0,0,0,0,0,0,0],"id":19,"left_children":[1,3,5,7,-1,9,-1,-1,-1,-1,-1],"loss_changes":[2.6539049E4,6.222676E3,1.4375E1,1.9280087E3,0E0,3.1987305E2,0E0,0E0,0E0,0E0,0E0],"parents":[2147483647,0,0,1,1,2,2,3,3,5,5],"right_children":[2,4,6,8,-1,10,-1,-1,-1,-1,-1],"split_conditions":[1E0,1E0,1E0,1E0,-7.737122E-1,4E0,1.0500954E0,1.5422677E-2,-3.6474344E-1,1.3124536E0,3.9181098E-1],"split_indices":[4,6,2,2,0,10,0,0,0,0,0],"split_type":[0,0,0,0,0,0,0,0,0,0,0],"sum_hessian":[1E3,8.48E2,1.52E2,6.87E2,1.61E2,1.07E2,4.5E1,5.07E2,1.8E2,1.02E2,5E0],"tree_param":{"num_deleted":"0","num_feature":"11","num_nodes":"11","size_leaf_vector":"1"}},{"base_weights":[2.2423439E-2,-1.94682E0,1.0949648E1,-7.616339E-1,-6.968186E-1,1.1476912E1,9.473688E-1,-2.4139789E-1,8.881294E-2,1.1824824E0,3.5916036E-1],"categories":[],"categories_nodes":[],"categories_segments":[],"categories_sizes":[],"default_left":[0,0,0,0,0,0,0,0,0,0,0],"id":20,"left_children":[1,3,5,7,-1,9,-1,-1,-1,-1,-1],"loss_changes":[2.1561201E4,5.0473076E3,1.0339844E1,1.877617E3,0E0,2.538164E2,0E0,0E0,0E0,0E0,0E0],"parents":[2147483647,0,0,1,1,2,2,3,3,5,5],"right_children":[2,4,6,8,-1,10,-1,-1,-1,-1,-1],"split_conditions":[1E0,1E0,1E0,2E0,-6.968186E-1,4E0,9.473688E-1,-2.4139789E-1,8.881294E-2,1.1824824E0,3.5916036E-1],"split_indices":[4,6,2,10,0,10,0,0,0,0,0],"split_type":[0,0,0,0,0,0,0,0,0,0,0],"sum_hessian":[1E3,8.48E2,1.52E2,6.87E2,1.61E2,1.07E2,4.5E1,3.43E2,3.44E2,1.02E2,5E0],"tree_param":{"num_deleted":"0","num_feature":"11","num_nodes":"11","size_leaf_vector":"1"}},{"base_weights":[2.181882E-2,-1.753139E0,9.870952E0,-6.856927E-1,-6.2756693E-1,1.0343497E1,8.54691E-1,2.517025E-2,-3.312826E-1,1.0653824E0,3.2923087E-1],"categories":[],"categories_nodes":[],"categories_segments":[],"categories_sizes":[],"default_left":[0,0,0,0,0,0,0,0,0,0,0],"id":21,"left_children":[1,3,5,7,-1,9,-1,-1,-1,-1,-1],"loss_changes":[1.7516582E4,4.094293E3,7.323242E0,1.6951454E3,0E0,2.0124707E2,0E0,0E0,0E0,0E0,0E0],"parents":[2147483647,0,0,1,1,2,2,3,3,5,5],"right_children":[2,4,6,8,-1,10,-1,-1,-1,-1,-1],"split_conditions":[1E0,1E0,1E0,1E0,-6.2756693E-1,4E0,8.54691E-1,2.517025E-2,-3.312826E-1,1.0653824E0,3.2923087E-1],"split_indices":[4,6,2,2,0,10,0,0,0,0,0],"split_type":[0,0,0,0,0,0,0,0,0,0,0],"sum_hessian":[1E3,8.48E2,1.52E2,6.87E2,1.61E2,1.07E2,4.5E1,5.07E2,1.8E2,1.02E2,5E0],"tree_param":{"num_deleted":"0","num_feature":"11","num_nodes":"11","size_leaf_vector":"1"}},{"base_weights":[2.0951841E-2,-1.5789241E0,8.898558E0,-6.175675E-1,-5.651976E-1,9.32206E0,7.7108E0,-2.1641843E-1,9.2635654E-2,9.598784E-1,3.0179557E-1,6.764828E-1,9.389821E-1],"categories":[],"categories_nodes":[],"categories_segments":[],"categories_sizes":[],"default_left":[0,0,0,0,0,0,0,0,0,0,0,0,0],"id":22,"left_children":[1,3,5,7,-1,9,11,-1,-1,-1,-1,-1,-1],"loss_changes":[1.4231319E4,3.3209001E3,5.0810547E0,1.6448518E3,0E0,1.5943652E2,9.541748E0,0E0,0E0,0E0,0E0,0E0,0E0],"parents":[2147483647,0,0,1,1,2,2,3,3,5,5,6,6],"right_children":[2,4,6,8,-1,10,12,-1,-1,-1,-1,-1,-1],"split_conditions":[1E0,1E0,1E0,2E0,-5.651976E-1,4E0,3E0,-2.1641843E-1,9.2635654E-2,9.598784E-1,3.0179557E-1,6.764828E-1,9.389821E-1],"split_indices":[4,6,2,10,0,10,10,0,0,0,0,0,0],"split_type":[0,0,0,0,0,0,0,0,0,0,0,0,0],"sum_hessian":[1E3,8.48E2,1.52E2,6.87E2,1.61E2,1.07E2,4.5E1,3.43E2,3.44E2,1.02E2,5E0,3.2E1,1.3E1],"tree_param":{"num_deleted":"0","num_feature":"11","num_nodes":"13","size_leaf_vector":"1"}},{"base_weights":[2.1042239E-2,-1.4218429E0,8.027503E0,-5.5599046E-1,-5.090267E-1,8.40153E0,6.974839E0,3.2272574E-2,-3.01915E-1,8.6482185E-1,2.7664655E-1,6.108844E-1,8.517911E-1],"categories":[],"categories_nodes":[],"categories_segments":[],"categories_sizes":[],"default_left":[0,0,0,0,0,0,0,0,0,0,0,0,0],"id":23,"left_children":[1,3,5,7,-1,9,11,-1,-1,-1,-1,-1,-1],"loss_changes":[1.1575369E4,2.6938599E3,1.6396484E0,1.4900939E3,0E0,1.26206055E2,9.434814E0,0E0,0E0,0E0,0E0,0E0,0E0],"parents":[2147483647,0,0,1,1,2,2,3,3,5,5,6,6],"right_children":[2,4,6,8,-1,10,12,-1,-1,-1,-1,-1,-1],"split_conditions":[1E0,1E0,1E0,1E0,-5.090267E-1,4E0,3E0,3.2272574E-2,-3.01915E-1,8.6482185E-1,2.7664655E-1,6.108844E-1,8.517911E-1],"split_indices":[4,6,2,2,0,10,10,0,0,0,0,0,0],"split_type":[0,0,0,0,0,0,0,0,0,0,0,0,0],"sum_hessian":[1E3,8.48E2,1.52E2,6.87E2,1.61E2,1.07E2,4.5E1,5.07E2,1.8E2,1.02E2,5E0,3.2E1,1.3E1],"tree_param":{"num_deleted":"0","num_feature":"11","num_nodes":"13","size_leaf_vector":"1"}},{"base_weights":[2.0761553E-2,-1.2805758E0,7.2417724E-1,-5.007834E-1,-4.5843822E-1,-1.9485143E-1,9.442027E-2],"categories":[],"categories_nodes":[],"categories_segments":[],"categories_sizes":[],"default_left":[0,0,0,0,0,0,0],"id":24,"left_children":[1,3,-1,5,-1,-1,-1],"loss_changes":[9.415643E3,2.1849683E3,0E0,1.441102E3,0E0,0E0,0E0],"parents":[2147483647,0,0,1,1,3,3],"right_children":[2,4,-1,6,-1,-1,-1],"split_conditions":[1E0,1E0,7.2417724E-1,2E0,-4.5843822E-1,-1.9485143E-1,9.442027E-2],"split_indices":[4,6,0,10,0,0,0],"split_type":[0,0,0,0,0,0,0],"sum_hessian":[1E3,8.48E2,1.52E2,6.87E2,1.61E2,3.43E2,3.44E2],"tree_param":{"num_deleted":"0","num_feature":"11","num_nodes":"7","size_leaf_vector":"1"}},{"base_weights":[1.8849244E-2,-1.1531771E0,6.5223236E0,-4.5085186E-1,-4.1287738E-1,6.8544693E0,5.600713E0,3.728058E-2,-2.760063E-1,7.561634E-1,4.8540407E-1,4.814233E-1,7.054507E-1],"categories":[],"categories_nodes":[],"categories_segments":[],"categories_sizes":[],"default_left":[0,0,0,0,0,0,0,0,0,0,0,0,0],"id":25,"left_children":[1,3,5,7,-1,9,11,-1,-1,-1,-1,-1,-1],"loss_changes":[7.637387E3,1.7724097E3,8.4453125E0,1.3096045E3,0E0,1.16075195E2,1.86333E1,0E0,0E0,0E0,0E0,0E0,0E0],"parents":[2147483647,0,0,1,1,2,2,3,3,5,5,6,6],"right_children":[2,4,6,8,-1,10,12,-1,-1,-1,-1,-1,-1],"split_conditions":[1E0,1E0,1E0,1E0,-4.1287738E-1,3E0,3E0,3.728058E-2,-2.760063E-1,7.561634E-1,4.8540407E-1,4.814233E-1,7.054507E-1],"split_indices":[4,6,2,2,0,10,10,0,0,0,0,0,0],"split_type":[0,0,0,0,0,0,0,0,0,0,0,0,0],"sum_hessian":[1E3,8.48E2,1.52E2,6.87E2,1.61E2,1.07E2,4.5E1,5.07E2,1.8E2,7.7E1,3E1,3.2E1,1.3E1],"tree_param":{"num_deleted":"0","num_feature":"11","num_nodes":"13","size_leaf_vector":"1"}},{"base_weights":[1.8738909E-2,-1.0386275E0,5.885963E0,-1.3933471E0,3.8230379E0,6.1805196E0,5.06644E0,-7.9420425E-2,-3.7184447E-1,5.5766255E-1,-2.1244552E0,6.3915384E-1,1.5279478E-1,4.3473917E-1,6.399452E-1],"categories":[],"categories_nodes":[],"categories_segments":[],"categories_sizes":[],"default_left":[0,0,0,0,0,0,0,0,0,0,0,0,0,0,0],"id":26,"left_children":[1,3,5,7,9,11,13,-1,-1,-1,-1,-1,-1,-1,-1],"loss_changes":[6.216123E3,1.4694514E3,5.620117E0,1.1003546E3,2.6680496E3,9.626611E1,1.6270142E1,0E0,0E0,0E0,0E0,0E0,0E0,0E0,0E0],"parents":[2147483647,0,0,1,1,2,2,3,3,4,4,5,5,6,6],"right_children":[2,4,6,8,10,12,14,-1,-1,-1,-1,-1,-1,-1,-1],"split_conditions":[1E0,1E0,1E0,1E0,4E0,4E0,3E0,-7.9420425E-2,-3.7184447E-1,5.5766255E-1,-2.1244552E0,6.3915384E-1,1.5279478E-1,4.3473917E-1,6.399452E-1],"split_indices":[4,9,2,6,10,10,10,0,0,0,0,0,0,0,0],"split_type":[0,0,0,0,0,0,0,0,0,0,0,0,0,0,0],"sum_hessian":[1E3,8.48E2,1.52E2,7.91E2,5.7E1,1.07E2,4.5E1,6.3E2,1.61E2,5.4E1,3E0,1.02E2,5E0,3.2E1,1.3E1],"tree_param":{"num_deleted":"0","num_feature":"11","num_nodes":"15","size_leaf_vector":"1"}},{"base_weights":[1.6714122E-2,-9.371406E-1,5.309563E0,-1.254581E0,3.41372E0,5.5629067E0,4.555533E0,-7.149082E-2,-3.348896E-1,5.029102E-1,-1.9651212E0,6.184198E-1,3.9258274E-1,3.8442042E-1,5.805223E-1],"categories":[],"categories_nodes":[],"categories_segments":[],"categories_sizes":[],"default_left":[0,0,0,0,0,0,0,0,0,0,0,0,0,0,0],"id":27,"left_children":[1,3,5,7,9,11,13,-1,-1,-1,-1,-1,-1,-1,-1],"loss_changes":[5.0586333E3,1.1768696E3,3.885254E0,8.9275977E2,2.2598308E3,8.760327E1,1.6796936E1,0E0,0E0,0E0,0E0,0E0,0E0,0E0,0E0],"parents":[2147483647,0,0,1,1,2,2,3,3,4,4,5,5,6,6],"right_children":[2,4,6,8,10,12,14,-1,-1,-1,-1,-1,-1,-1,-1],"split_conditions":[1E0,1E0,3E0,1E0,4E0,1E0,1E0,-7.149082E-2,-3.348896E-1,5.029102E-1,-1.9651212E0,6.184198E-1,3.9258274E-1,3.8442042E-1,5.805223E-1],"split_indices":[4,9,10,6,10,2,2,0,0,0,0,0,0,0,0],"split_type":[0,0,0,0,0,0,0,0,0,0,0,0,0,0,0],"sum_hessian":[1E3,8.48E2,1.52E2,7.91E2,5.7E1,1.09E2,4.3E1,6.3E2,1.61E2,5.4E1,3E0,7.7E1,3.2E1,3E1,1.3E1],"tree_param":{"num_deleted":"0","num_feature":"11","num_nodes":"15","size_leaf_vector":"1"}},{"base_weights":[1.5150227E-2,-8.456272E-1,4.791522E0,-3.333337E-1,-3.0160734E-1,5.0158057E0,4.1219144E0,-1.6108744E-1,9.4147004E-2,5.573703E-1,3.5451457E-1,3.47219E-1,5.266168E-1],"categories":[],"categories_nodes":[],"categories_segments":[],"categories_sizes":[],"default_left":[0,0,0,0,0,0,0,0,0,0,0,0,0],"id":28,"left_children":[1,3,5,7,-1,9,11,-1,-1,-1,-1,-1,-1],"loss_changes":[4.119556E3,9.430024E2,2.3032227E0,1.1220027E3,0E0,7.049292E1,1.4426636E1,0E0,0E0,0E0,0E0,0E0,0E0],"parents":[2147483647,0,0,1,1,2,2,3,3,5,5,6,6],"right_children":[2,4,6,8,-1,10,12,-1,-1,-1,-1,-1,-1],"split_conditions":[1E0,1E0,3E0,2E0,-3.0160734E-1,1E0,1E0,-1.6108744E-1,9.4147004E-2,5.573703E-1,3.5451457E-1,3.47219E-1,5.266168E-1],"split_indices":[4,6,10,10,0,2,2,0,0,0,0,0,0],"split_type":[0,0,0,0,0,0,0,0,0,0,0,0,0],"sum_hessian":[1E3,8.48E2,1.52E2,6.87E2,1.61E2,1.09E2,4.3E1,3.43E2,3.44E2,7.7E1,3.2E1,3E1,1.3E1],"tree_param":{"num_deleted":"0","num_feature":"11","num_nodes":"13","size_leaf_vector":"1"}},{"base_weights":[1.5051129E-2,-7.614987E-1,4.324043E0,-1.0479929E-1,-2.4568372E0,4.5225153E0,3.7295883E0,1.1826207E-1,-1.4258645E-1,-2.5490675E0,1.394179E-1,5.023476E-1,3.201381E-1,3.1361768E-1,4.7771722E-1],"categories":[],"categories_nodes":[],"categories_segments":[],"categories_sizes":[],"default_left":[0,0,0,0,0,0,0,0,0,0,0,0,0,0,0],"id":29,"left_children":[1,3,5,7,9,11,13,-1,-1,-1,-1,-1,-1,-1,-1],"loss_changes":[3.3527856E3,9.449579E2,1.1843262E0,1.0442557E3,2.105831E4,5.671997E1,1.2370483E1,0E0,0E0,0E0,0E0,0E0,0E0,0E0,0E0],"parents":[2147483647,0,0,1,1,2,2,3,3,4,4,5,5,6,6],"right_children":[2,4,6,8,10,12,14,-1,-1,-1,-1,-1,-1,-1,-1],"split_conditions":[1E0,1E0,3E0,2E0,2E0,1E0,1E0,1.1826207E-1,-1.4258645E-1,-2.5490675E0,1.394179E-1,5.023476E-1,3.201381E-1,3.1361768E-1,4.7771722E-1],"split_indices":[4,2,10,10,10,2,2,0,0,0,0,0,0,0,0],"split_type":[0,0,0,0,0,0,0,0,0,0,0,0,0,0,0],"sum_hessian":[1E3,8.48E2,1.52E2,6.12E2,2.36E2,1.09E2,4.3E1,3.1E2,3.02E2,3.3E1,2.03E2,7.7E1,3.2E1,3E1,1.3E1],"tree_param":{"num_deleted":"0","num_feature":"11","num_nodes":"15","size_leaf_vector":"1"}},{"base_weights":[1.27255935E-2,-6.8821657E-1,3.9021842E0,-9.643824E-1,3.094741E0,4.0777373E0,3.3746154E0,-5.244213E-2,-2.672105E-1,4.5828936E-1,-1.8141041E0,4.5275664E-1,2.8909376E-1,2.8326795E-1,4.333573E-1],"categories":[],"categories_nodes":[],"categories_segments":[],"categories_sizes":[],"default_left":[0,0,0,0,0,0,0,0,0,0,0,0,0,0,0],"id":30,"left_children":[1,3,5,7,9,11,13,-1,-1,-1,-1,-1,-1,-1,-1],"loss_changes":[2.7316973E3,8.8995483E2,4.0966797E-1,5.936533E2,1.9160591E3,4.5635376E1,1.0590912E1,0E0,0E0,0E0,0E0,0E0,0E0,0E0,0E0],"parents":[2147483647,0,0,1,1,2,2,3,3,4,4,5,5,6,6],"right_children":[2,4,6,8,10,12,14,-1,-1,-1,-1,-1,-1,-1,-1],"split_conditions":[1E0,1E0,3E0,1E0,4E0,1E0,1E0,-5.244213E-2,-2.672105E-1,4.5828936E-1,-1.8141041E0,4.5275664E-1,2.8909376E-1,2.8326795E-1,4.333573E-1],"split_indices":[4,9,10,6,10,2,2,0,0,0,0,0,0,0,0],"split_type":[0,0,0,0,0,0,0,0,0,0,0,0,0,0,0],"sum_hessian":[1E3,8.48E2,1.52E2,7.91E2,5.7E1,1.09E2,4.3E1,6.3E2,1.61E2,5.4E1,3E0,7.7E1,3.2E1,3E1,1.3E1],"tree_param":{"num_deleted":"0","num_feature":"11","num_nodes":"15","size_leaf_vector":"1"}},{"base_weights":[1.1235181E-2,-6.213695E-1,3.5214975E-1,-4.158655E-2,-2.118355E0,1.11700974E-1,-1.23063564E-1,-2.296568E0,1.3665833E-1],"categories":[],"categories_nodes":[],"categories_segments":[],"categories_sizes":[],"default_left":[0,0,0,0,0,0,0,0,0],"id":31,"left_children":[1,3,-1,5,7,-1,-1,-1,-1],"loss_changes":[2.225017E3,7.367816E2,0E0,8.4586053E2,1.7249824E4,0E0,0E0,0E0,0E0],"parents":[2147483647,0,0,1,1,3,3,4,4],"right_children":[2,4,-1,6,8,-1,-1,-1,-1],"split_conditions":[1E0,1E0,3.5214975E-1,2E0,2E0,1.11700974E-1,-1.23063564E-1,-2.296568E0,1.3665833E-1],"split_indices":[4,2,0,10,10,0,0,0,0],"split_type":[0,0,0,0,0,0,0,0,0],"sum_hessian":[1E3,8.48E2,1.52E2,6.12E2,2.36E2,3.1E2,3.02E2,3.3E1,2.03E2],"tree_param":{"num_deleted":"0","num_feature":"11","num_nodes":"9","size_leaf_vector":"1"}},{"base_weights":[8.295054E-3,-5.617905E-1,3.1716568E0,-8.1333876E-1,2.8828306E0,3.3277655E0,2.709302E0,-4.1136768E-2,-2.3740207E-1,4.2537603E-1,-1.6688164E0,3.7329844E-1,2.2691336E-1,2.2177699E-1,3.6041734E-1],"categories":[],"categories_nodes":[],"categories_segments":[],"categories_sizes":[],"default_left":[0,0,0,0,0,0,0,0,0,0,0,0,0,0,0],"id":32,"left_children":[1,3,5,7,9,11,13,-1,-1,-1,-1,-1,-1,-1,-1],"loss_changes":[1.8069719E3,7.3799347E2,2.0273438E0,4.958838E2,1.6271543E3,3.8716797E1,1.1360565E1,0E0,0E0,0E0,0E0,0E0,0E0,0E0,0E0],"parents":[2147483647,0,0,1,1,2,2,3,3,4,4,5,5,6,6],"right_children":[2,4,6,8,10,12,14,-1,-1,-1,-1,-1,-1,-1,-1],"split_conditions":[1E0,1E0,3E0,1E0,4E0,1E0,1E0,-4.1136768E-2,-2.3740207E-1,4.2537603E-1,-1.6688164E0,3.7329844E-1,2.2691336E-1,2.2177699E-1,3.6041734E-1],"split_indices":[4,9,10,6,10,2,2,0,0,0,0,0,0,0,0],"split_type":[0,0,0,0,0,0,0,0,0,0,0,0,0,0,0],"sum_hessian":[1E3,8.48E2,1.52E2,7.91E2,5.7E1,1.09E2,4.3E1,6.3E2,1.61E2,5.4E1,3E0,7.7E1,3.2E1,3E1,1.3E1],"tree_param":{"num_deleted":"0","num_feature":"11","num_nodes":"15","size_leaf_vector":"1"}},{"base_weights":[7.12764E-3,-5.074035E-1,2.8622243E0,-7.323559E-1,2.5731082E0,3.0004504E0,2.451609E0,-8.565978E-2,3.6550483E-1,3.8361177E-1,-1.5436553E0,3.3644792E-1,2.0490964E-1,2.0031524E-1,3.2695046E-1],"categories":[],"categories_nodes":[],"categories_segments":[],"categories_sizes":[],"default_left":[0,0,0,0,0,0,0,0,0,0,0,0,0,0,0],"id":33,"left_children":[1,3,5,7,9,11,13,-1,-1,-1,-1,-1,-1,-1,-1],"loss_changes":[1.4719575E3,5.9021454E2,1.328125E0,4.3484982E2,1.3785062E3,3.120105E1,9.589447E0,0E0,0E0,0E0,0E0,0E0,0E0,0E0,0E0],"parents":[2147483647,0,0,1,1,2,2,3,3,4,4,5,5,6,6],"right_children":[2,4,6,8,10,12,14,-1,-1,-1,-1,-1,-1,-1,-1],"split_conditions":[1E0,1E0,3E0,4E0,4E0,1E0,1E0,-8.565978E-2,3.6550483E-1,3.8361177E-1,-1.5436553E0,3.3644792E-1,2.0490964E-1,2.0031524E-1,3.2695046E-1],"split_indices":[4,9,10,10,10,2,2,0,0,0,0,0,0,0,0],"split_type":[0,0,0,0,0,0,0,0,0,0,0,0,0,0,0],"sum_hessian":[1E3,8.48E2,1.52E2,7.91E2,5.7E1,1.09E2,4.3E1,7.7E2,2.1E1,5.4E1,3E0,7.7E1,3.2E1,3E1,1.3E1],"tree_param":{"num_deleted":"0","num_feature":"11","num_nodes":"15","size_leaf_vector":"1"}},{"base_weights":[6.6030025E-3,-4.5770055E-1,2.5829895E0,5.0274923E-2,-1.7696469E0,2.7053316E0,2.2184298E0,1.1320559E-1,-1.06023386E-1,-2.061359E0,1.379685E-1,3.0323514E-1,1.8503955E-1,1.8092969E-1,2.965908E-1],"categories":[],"categories_nodes":[],"categories_segments":[],"categories_sizes":[],"default_left":[0,0,0,0,0,0,0,0,0,0,0,0,0,0,0],"id":34,"left_children":[1,3,5,7,9,11,13,-1,-1,-1,-1,-1,-1,-1,-1],"loss_changes":[1.1986038E3,5.6589355E2,8.2232666E-1,7.3761383E2,1.4093401E4,2.5142883E1,8.089783E0,0E0,0E0,0E0,0E0,0E0,0E0,0E0,0E0],"parents":[2147483647,0,0,1,1,2,2,3,3,4,4,5,5,6,6],"right_children":[2,4,6,8,10,12,14,-1,-1,-1,-1,-1,-1,-1,-1],"split_conditions":[1E0,1E0,3E0,2E0,2E0,1E0,1E0,1.1320559E-1,-1.06023386E-1,-2.061359E0,1.379685E-1,3.0323514E-1,1.8503955E-1,1.8092969E-1,2.965908E-1],"split_indices":[4,2,10,10,10,2,2,0,0,0,0,0,0,0,0],"split_type":[0,0,0,0,0,0,0,0,0,0,0,0,0,0,0],"sum_hessian":[1E3,8.48E2,1.52E2,6.12E2,2.36E2,1.09E2,4.3E1,3.1E2,3.02E2,3.3E1,2.03E2,7.7E1,3.2E1,3E1,1.3E1],"tree_param":{"num_deleted":"0","num_feature":"11","num_nodes":"15","size_leaf_vector":"1"}},{"base_weights":[4.9928436E-3,-4.141879E-1,2.3310025E0,-2.6107185E-2,-2.0597765E0,2.4392343E0,2.0074456E0,-9.182015E-2,8.634771E-2,-1.8035705E-1,-2.5000933E-1,2.7330014E-1,1.6709594E-1,1.6342096E-1,2.6905078E-1],"categories":[],"categories_nodes":[],"categories_segments":[],"categories_sizes":[],"default_left":[0,0,0,0,0,0,0,0,0,0,0,0,0,0,0],"id":35,"left_children":[1,3,5,7,9,11,13,-1,-1,-1,-1,-1,-1,-1,-1],"loss_changes":[9.769589E2,5.4213556E2,4.6124268E-1,5.4678485E2,1.3766418E1,2.0259583E1,6.820648E0,0E0,0E0,0E0,0E0,0E0,0E0,0E0,0E0],"parents":[2147483647,0,0,1,1,2,2,3,3,4,4,5,5,6,6],"right_children":[2,4,6,8,10,12,14,-1,-1,-1,-1,-1,-1,-1,-1],"split_conditions":[1E0,1E0,3E0,2E0,1E0,1E0,1E0,-9.182015E-2,8.634771E-2,-1.8035705E-1,-2.5000933E-1,2.7330014E-1,1.6709594E-1,1.6342096E-1,2.6905078E-1],"split_indices":[4,6,10,10,2,2,2,0,0,0,0,0,0,0,0],"split_type":[0,0,0,0,0,0,0,0,0,0,0,0,0,0,0],"sum_hessian":[1E3,8.48E2,1.52E2,6.87E2,1.61E2,1.09E2,4.3E1,3.43E2,3.44E2,1.05E2,5.6E1,7.7E1,3.2E1,3E1,1.3E1],"tree_param":{"num_deleted":"0","num_feature":"11","num_nodes":"15","size_leaf_vector":"1"}},{"base_weights":[4.9291924E-3,-3.7328333E-1,2.1036057E0,9.483605E-2,-1.5824981E0,2.1993134E0,1.8165272E0,1.1107395E-1,-9.482029E-2,-1.852374E0,1.24879934E-1,2.4632049E-1,1.5089242E-1,1.4760597E-1,2.4406679E-1],"categories":[],"categories_nodes":[],"categories_segments":[],"categories_sizes":[],"default_left":[0,0,0,0,0,0,0,0,0,0,0,0,0,0,0],"id":36,"left_children":[1,3,5,7,9,11,13,-1,-1,-1,-1,-1,-1,-1,-1],"loss_changes":[7.9532477E2,4.8073236E2,2.086792E-1,6.5060443E2,1.1391001E4,1.6323853E1,5.747406E0,0E0,0E0,0E0,0E0,0E0,0E0,0E0,0E0],"parents":[2147483647,0,0,1,1,2,2,3,3,4,4,5,5,6,6],"right_children":[2,4,6,8,10,12,14,-1,-1,-1,-1,-1,-1,-1,-1],"split_conditions":[1E0,1E0,3E0,2E0,2E0,1E0,1E0,1.1107395E-1,-9.482029E-2,-1.852374E0,1.24879934E-1,2.4632049E-1,1.5089242E-1,1.4760597E-1,2.4406679E-1],"split_indices":[4,2,10,10,10,2,2,0,0,0,0,0,0,0,0],"split_type":[0,0,0,0,0,0,0,0,0,0,0,0,0,0,0],"sum_hessian":[1E3,8.48E2,1.52E2,6.12E2,2.36E2,1.09E2,4.3E1,3.1E2,3.02E2,3.3E1,2.03E2,7.7E1,3.2E1,3E1,1.3E1],"tree_param":{"num_deleted":"0","num_feature":"11","num_nodes":"15","size_leaf_vector":"1"}},{"base_weights":[3.5150202E-3,3.5869217E-1,-1.838166E0,-7.4904424E-1,1.1246935E0,-1.5309891E-1,-2.3771589E-1,1.0000242E-1,-1.6725845E0,3.8723942E-2,2.2842728E-1],"categories":[],"categories_nodes":[],"categories_segments":[],"categories_sizes":[],"default_left":[0,0,0,0,0,0,0,0,0,0,0],"id":37,"left_children":[1,3,5,7,9,-1,-1,-1,-1,-1,-1],"loss_changes":[6.5543646E2,7.136055E2,2.3182312E1,9.629641E3,4.241183E2,0E0,0E0,0E0,0E0,0E0,0E0],"parents":[2147483647,0,0,1,1,2,2,3,3,4,4],"right_children":[2,4,6,8,10,-1,-1,-1,-1,-1,-1],"split_conditions":[1E0,2E0,1E0,1E0,1E0,-1.5309891E-1,-2.3771589E-1,1.0000242E-1,-1.6725845E0,3.8723942E-2,2.2842728E-1],"split_indices":[6,10,2,2,2,0,0,0,0,0,0],"split_type":[0,0,0,0,0,0,0,0,0,0,0],"sum_hessian":[1E3,8.39E2,1.61E2,3.43E2,4.96E2,1.05E2,5.6E1,3.1E2,3.3E1,3.04E2,1.92E2],"tree_param":{"num_deleted":"0","num_feature":"11","num_nodes":"11","size_leaf_vector":"1"}},{"base_weights":[1.4689097E-3,-3.233943E-1,1.8041315E0,-5.202485E-1,2.3702598E0,1.9476743E0,1.427898E0,-6.262427E-2,3.2180125E-1,3.5338727E-1,-1.4221982E0,2.0884685E-1,-7.939059E-2,1.1552294E-1,3.432735E-1],"categories":[],"categories_nodes":[],"categories_segments":[],"categories_sizes":[],"default_left":[0,0,0,0,0,0,0,0,0,0,0,0,0,0,0],"id":38,"left_children":[1,3,5,7,9,11,13,-1,-1,-1,-1,-1,-1,-1,-1],"loss_changes":[5.8678784E2,4.5142145E2,5.481781E0,3.158324E2,1.1700615E3,4.3345886E1,2.118058E1,0E0,0E0,0E0,0E0,0E0,0E0,0E0,0E0],"parents":[2147483647,0,0,1,1,2,2,3,3,4,4,5,5,6,6],"right_children":[2,4,6,8,10,12,14,-1,-1,-1,-1,-1,-1,-1,-1],"split_conditions":[1E0,1E0,1E0,4E0,4E0,4E0,4E0,-6.262427E-2,3.2180125E-1,3.5338727E-1,-1.4221982E0,2.0884685E-1,-7.939059E-2,1.1552294E-1,3.432735E-1],"split_indices":[4,9,2,10,10,10,10,0,0,0,0,0,0,0,0],"split_type":[0,0,0,0,0,0,0,0,0,0,0,0,0,0,0],"sum_hessian":[1E3,8.48E2,1.52E2,7.91E2,5.7E1,1.07E2,4.5E1,7.7E2,2.1E1,5.4E1,3E0,1.02E2,5E0,4.1E1,4E0],"tree_param":{"num_deleted":"0","num_feature":"11","num_nodes":"15","size_leaf_vector":"1"}},{"base_weights":[1.1019228E-3,3.1340495E-1,-1.6182538E0,-6.162673E-1,9.562497E-1,-1.3426873E-1,-2.1023206E-1,9.62768E-2,-1.5041671E0,2.602681E-2,2.0511626E-1],"categories":[],"categories_nodes":[],"categories_segments":[],"categories_sizes":[],"default_left":[0,0,0,0,0,0,0,0,0,0,0],"id":39,"left_children":[1,3,5,7,9,-1,-1,-1,-1,-1,-1],"loss_changes":[5.067426E2,5.0260272E2,1.8786835E1,7.85019E3,3.7819955E2,0E0,0E0,0E0,0E0,0E0,0E0],"parents":[2147483647,0,0,1,1,2,2,3,3,4,4],"right_children":[2,4,6,8,10,-1,-1,-1,-1,-1,-1],"split_conditions":[1E0,2E0,1E0,1E0,1E0,-1.3426873E-1,-2.1023206E-1,9.62768E-2,-1.5041671E0,2.602681E-2,2.0511626E-1],"split_indices":[6,10,2,2,2,0,0,0,0,0,0],"split_type":[0,0,0,0,0,0,0,0,0,0,0],"sum_hessian":[1E3,8.39E2,1.61E2,3.43E2,4.96E2,1.05E2,5.6E1,3.1E2,3.3E1,3.04E2,1.92E2],"tree_param":{"num_deleted":"0","num_feature":"11","num_nodes":"11","size_leaf_vector":"1"}},{"base_weights":[-5.279104E-4,-2.797765E-1,1.5490315E0,-4.52911E-1,2.0892284E0,1.7283149E0,1.0944308E0,-5.474167E-2,2.8796706E-1,3.1613573E-1,-1.3174853E0,1.8558703E-1,-7.494392E-2,8.422307E-2,2.9940262E-1],"categories":[],"categories_nodes":[],"categories_segments":[],"categories_sizes":[],"default_left":[0,0,0,0,0,0,0,0,0,0,0,0,0,0,0],"id":40,"left_children":[1,3,5,7,9,11,13,-1,-1,-1,-1,-1,-1,-1,-1],"loss_changes":[4.335784E2,3.4916907E2,1.0578339E1,2.5101514E2,9.908243E2,3.5524414E1,1.9515934E1,0E0,0E0,0E0,0E0,0E0,0E0,0E0,0E0],"parents":[2147483647,0,0,1,1,2,2,3,3,4,4,5,5,6,6],"right_children":[2,4,6,8,10,12,14,-1,-1,-1,-1,-1,-1,-1,-1],"split_conditions":[1E0,1E0,1E0,4E0,4E0,4E0,4E0,-5.474167E-2,2.8796706E-1,3.1613573E-1,-1.3174853E0,1.8558703E-1,-7.494392E-2,8.422307E-2,2.9940262E-1],"split_indices":[4,9,2,10,10,10,10,0,0,0,0,0,0,0,0],"split_type":[0,0,0,0,0,0,0,0,0,0,0,0,0,0,0],"sum_hessian":[1E3,8.48E2,1.52E2,7.91E2,5.7E1,1.07E2,4.5E1,7.7E2,2.1E1,5.4E1,3E0,1.02E2,5E0,4.1E1,4E0],"tree_param":{"num_deleted":"0","num_feature":"11","num_nodes":"15","size_leaf_vector":"1"}},{"base_weights":[-7.499174E-4,2.7398676E-1,-1.4253058E0,-5.0415033E-1,8.1202537E-1,-1.1780914E-1,-1.8600325E-1,9.21367E-2,-1.3528614E0,1.5560038E-2,1.8451735E-1],"categories":[],"categories_nodes":[],"categories_segments":[],"categories_sizes":[],"default_left":[0,0,0,0,0,0,0,0,0,0,0],"id":41,"left_children":[1,3,5,7,9,-1,-1,-1,-1,-1,-1],"loss_changes":[3.9215967E2,3.5209036E2,1.5218964E1,6.399375E3,3.3677048E2,0E0,0E0,0E0,0E0,0E0,0E0],"parents":[2147483647,0,0,1,1,2,2,3,3,4,4],"right_children":[2,4,6,8,10,-1,-1,-1,-1,-1,-1],"split_conditions":[1E0,2E0,1E0,1E0,1E0,-1.1780914E-1,-1.8600325E-1,9.21367E-2,-1.3528614E0,1.5560038E-2,1.8451735E-1],"split_indices":[6,10,2,2,2,0,0,0,0,0,0],"split_type":[0,0,0,0,0,0,0,0,0,0,0],"sum_hessian":[1E3,8.39E2,1.61E2,3.43E2,4.96E2,1.05E2,5.6E1,3.1E2,3.3E1,3.04E2,1.92E2],"tree_param":{"num_deleted":"0","num_feature":"11","num_nodes":"11","size_leaf_vector":"1"}},{"base_weights":[-2.0386905E-3,-2.4248163E-1,1.3321973E0,-3.9524794E-1,1.8477494E0,1.541083E0,8.12809E-1,-4.795004E-2,2.575383E-1,2.8356928E-1,-1.2198409E0,1.6566667E-1,-6.999499E-2,5.798765E-2,2.6068804E-1],"categories":[],"categories_nodes":[],"categories_segments":[],"categories_sizes":[],"default_left":[0,0,0,0,0,0,0,0,0,0,0,0,0,0,0],"id":42,"left_children":[1,3,5,7,9,11,13,-1,-1,-1,-1,-1,-1,-1,-1],"loss_changes":[3.2145148E2,2.7183035E2,1.5346802E1,1.9945898E2,8.394458E2,2.913446E1,1.7711618E1,0E0,0E0,0E0,0E0,0E0,0E0,0E0,0E0],"parents":[2147483647,0,0,1,1,2,2,3,3,4,4,5,5,6,6],"right_children":[2,4,6,8,10,12,14,-1,-1,-1,-1,-1,-1,-1,-1],"split_conditions":[1E0,1E0,1E0,4E0,4E0,4E0,4E0,-4.795004E-2,2.575383E-1,2.8356928E-1,-1.2198409E0,1.6566667E-1,-6.999499E-2,5.798765E-2,2.6068804E-1],"split_indices":[4,9,2,10,10,10,10,0,0,0,0,0,0,0,0],"split_type":[0,0,0,0,0,0,0,0,0,0,0,0,0,0,0],"sum_hessian":[1E3,8.48E2,1.52E2,7.91E2,5.7E1,1.07E2,4.5E1,7.7E2,2.1E1,5.4E1,3E0,1.02E2,5E0,4.1E1,4E0],"tree_param":{"num_deleted":"0","num_feature":"11","num_nodes":"15","size_leaf_vector":"1"}},{"base_weights":[-2.1459828E-3,2.3964304E-1,-1.2558537E0,-4.0958884E-1,6.885286E-1,-1.0340694E0,-1.6462618E-1,8.7732345E-2,-1.2169005E0,6.963763E-3,1.6630012E-1,-9.767078E-2,-1.6146615E-1],"categories":[],"categories_nodes":[],"categories_segments":[],"categories_sizes":[],"default_left":[0,0,0,0,0,0,0,0,0,0,0,0,0],"id":43,"left_children":[1,3,5,7,9,11,-1,-1,-1,-1,-1,-1,-1],"loss_changes":[3.0373685E2,2.4508388E2,1.23246155E1,5.216544E3,2.996211E2,1.9531479E0,0E0,0E0,0E0,0E0,0E0,0E0,0E0],"parents":[2147483647,0,0,1,1,2,2,3,3,4,4,5,5],"right_children":[2,4,6,8,10,12,-1,-1,-1,-1,-1,-1,-1],"split_conditions":[1E0,2E0,1E0,1E0,1E0,4E0,-1.6462618E-1,8.7732345E-2,-1.2169005E0,6.963763E-3,1.6630012E-1,-9.767078E-2,-1.6146615E-1],"split_indices":[6,10,2,2,2,10,0,0,0,0,0,0,0],"split_type":[0,0,0,0,0,0,0,0,0,0,0,0,0],"sum_hessian":[1E3,8.39E2,1.61E2,3.43E2,4.96E2,1.05E2,5.6E1,3.1E2,3.3E1,3.04E2,1.92E2,9.8E1,7E0],"tree_param":{"num_deleted":"0","num_feature":"11","num_nodes":"13","size_leaf_vector":"1"}},{"base_weights":[-3.3105053E-3,2.145398E-1,-1.1328843E0,-3.719141E-1,6.200239E-1,-9.331074E-1,-1.4845239E-1,7.8987144E-2,-1.0987896E0,6.2697507E-3,1.4975603E-1,-8.8002376E-2,-1.4733787E-1],"categories":[],"categories_nodes":[],"categories_segments":[],"categories_sizes":[],"default_left":[0,0,0,0,0,0,0,0,0,0,0,0,0],"id":44,"left_children":[1,3,5,7,9,11,-1,-1,-1,-1,-1,-1,-1],"loss_changes":[2.4656711E2,1.9998068E2,9.995178E0,4.2514004E3,2.4297598E2,1.7434235E0,0E0,0E0,0E0,0E0,0E0,0E0,0E0],"parents":[2147483647,0,0,1,1,2,2,3,3,4,4,5,5],"right_children":[2,4,6,8,10,12,-1,-1,-1,-1,-1,-1,-1],"split_conditions":[1E0,2E0,1E0,1E0,1E0,4E0,-1.4845239E-1,7.8987144E-2,-1.0987896E0,6.2697507E-3,1.4975603E-1,-8.8002376E-2,-1.4733787E-1],"split_indices":[6,10,2,2,2,10,0,0,0,0,0,0,0],"split_type":[0,0,0,0,0,0,0,0,0,0,0,0,0],"sum_hessian":[1E3,8.39E2,1.61E2,3.43E2,4.96E2,1.05E2,5.6E1,3.1E2,3.3E1,3.04E2,1.92E2,9.8E1,7E0],"tree_param":{"num_deleted":"0","num_feature":"11","num_nodes":"13","size_leaf_vector":"1"}},{"base_weights":[-4.226213E-3,-2.0312215E-1,1.0994788E0,-3.3738944E-1,1.633823E0,1.3747554E0,4.292757E-1,-4.1256394E-2,2.31247E-1,2.544283E-1,-1.1293457E0,1.4795095E-1,-6.526477E-2,2.1474348E-2,2.1454911E-1],"categories":[],"categories_nodes":[],"categories_segments":[],"categories_sizes":[],"default_left":[0,0,0,0,0,0,0,0,0,0,0,0,0,0,0],"id":45,"left_children":[1,3,5,7,9,11,13,-1,-1,-1,-1,-1,-1,-1,-1],"loss_changes":[2.199653E2,2.0995001E2,2.7637009E1,1.5872185E2,7.113803E2,2.3902481E1,1.6475708E1,0E0,0E0,0E0,0E0,0E0,0E0,0E0,0E0],"parents":[2147483647,0,0,1,1,2,2,3,3,4,4,5,5,6,6],"right_children":[2,4,6,8,10,12,14,-1,-1,-1,-1,-1,-1,-1,-1],"split_conditions":[1E0,1E0,1E0,4E0,4E0,4E0,4E0,-4.1256394E-2,2.31247E-1,2.544283E-1,-1.1293457E0,1.4795095E-1,-6.526477E-2,2.1474348E-2,2.1454911E-1],"split_indices":[4,9,2,10,10,10,10,0,0,0,0,0,0,0,0],"split_type":[0,0,0,0,0,0,0,0,0,0,0,0,0,0,0],"sum_hessian":[1E3,8.48E2,1.52E2,7.91E2,5.7E1,1.07E2,4.5E1,7.7E2,2.1E1,5.4E1,3E0,1.02E2,5E0,4.1E1,4E0],"tree_param":{"num_deleted":"0","num_feature":"11","num_nodes":"15","size_leaf_vector":"1"}},{"base_weights":[-4.1694194E-3,1.874613E-1,-9.977845E-1,-2.965513E-1,5.2209485E-1,-8.191453E-1,-1.3124858E-1,7.522615E-2,-9.8813814E-1,-6.962504E-4,1.3554649E-1,-7.520708E-2,-1.5467991E-1],"categories":[],"categories_nodes":[],"categories_segments":[],"categories_sizes":[],"default_left":[0,0,0,0,0,0,0,0,0,0,0,0,0],"id":46,"left_children":[1,3,5,7,9,11,-1,-1,-1,-1,-1,-1,-1],"loss_changes":[1.9078462E2,1.3620699E2,8.032196E0,3.4655596E3,2.1913698E2,4.0102463E0,0E0,0E0,0E0,0E0,0E0,0E0,0E0],"parents":[2147483647,0,0,1,1,2,2,3,3,4,4,5,5],"right_children":[2,4,6,8,10,12,-1,-1,-1,-1,-1,-1,-1],"split_conditions":[1E0,2E0,1E0,1E0,1E0,4E0,-1.3124858E-1,7.522615E-2,-9.8813814E-1,-6.962504E-4,1.3554649E-1,-7.520708E-2,-1.5467991E-1],"split_indices":[6,10,2,2,2,10,0,0,0,0,0,0,0],"split_type":[0,0,0,0,0,0,0,0,0,0,0,0,0],"sum_hessian":[1E3,8.39E2,1.61E2,3.43E2,4.96E2,1.05E2,5.6E1,3.1E2,3.3E1,3.04E2,1.92E2,9.8E1,7E0],"tree_param":{"num_deleted":"0","num_feature":"11","num_nodes":"13","size_leaf_vector":"1"}},{"base_weights":[-4.889502E-3,-1.7737024E-1,9.522414E-1,-2.9676482E-1,1.4560415E0,1.2387424E0,2.588861E-1,-3.645154E-2,2.0910743E-1,2.2951654E-1,-1.0445924E0,1.3336918E-1,-5.976779E-2,6.1468943E-3,1.865413E-1],"categories":[],"categories_nodes":[],"categories_segments":[],"categories_sizes":[],"default_left":[0,0,0,0,0,0,0,0,0,0,0,0,0,0,0],"id":47,"left_children":[1,3,5,7,9,11,13,-1,-1,-1,-1,-1,-1,-1,-1],"loss_changes":[1.6542065E2,1.6600449E2,3.007228E1,1.2889E2,6.0323413E2,1.9628723E1,1.4474507E1,0E0,0E0,0E0,0E0,0E0,0E0,0E0,0E0],"parents":[2147483647,0,0,1,1,2,2,3,3,4,4,5,5,6,6],"right_children":[2,4,6,8,10,12,14,-1,-1,-1,-1,-1,-1,-1,-1],"split_conditions":[1E0,1E0,1E0,4E0,4E0,4E0,4E0,-3.645154E-2,2.0910743E-1,2.2951654E-1,-1.0445924E0,1.3336918E-1,-5.976779E-2,6.1468943E-3,1.865413E-1],"split_indices":[4,9,2,10,10,10,10,0,0,0,0,0,0,0,0],"split_type":[0,0,0,0,0,0,0,0,0,0,0,0,0,0,0],"sum_hessian":[1E3,8.48E2,1.52E2,7.91E2,5.7E1,1.07E2,4.5E1,7.7E2,2.1E1,5.4E1,3E0,1.02E2,5E0,4.1E1,4E0],"tree_param":{"num_deleted":"0","num_feature":"11","num_nodes":"15","size_leaf_vector":"1"}},{"base_weights":[-4.774585E-3,1.6386388E-1,-8.7916684E-1,-2.3320259E-1,4.383649E-1,-8.040151E-1,-1.8377028E-1,7.1361355E-2,-8.886927E-1,-6.351334E-3,1.2292172E-1,-6.4154014E-2,-1.0869968E-1],"categories":[],"categories_nodes":[],"categories_segments":[],"categories_sizes":[],"default_left":[0,0,0,0,0,0,0,0,0,0,0,0,0],"id":48,"left_children":[1,3,5,7,9,11,-1,-1,-1,-1,-1,-1,-1],"loss_changes":[1.4774771E2,9.165815E1,1.019223E1,2.8249006E3,1.9734311E2,6.2912216E0,0E0,0E0,0E0,0E0,0E0,0E0,0E0],"parents":[2147483647,0,0,1,1,2,2,3,3,4,4,5,5],"right_children":[2,4,6,8,10,12,-1,-1,-1,-1,-1,-1,-1],"split_conditions":[1E0,2E0,4E0,1E0,1E0,1E0,-1.8377028E-1,7.1361355E-2,-8.886927E-1,-6.351334E-3,1.2292172E-1,-6.4154014E-2,-1.0869968E-1],"split_indices":[6,10,10,2,2,2,0,0,0,0,0,0,0],"split_type":[0,0,0,0,0,0,0,0,0,0,0,0,0],"sum_hessian":[1E3,8.39E2,1.61E2,3.43E2,4.96E2,1.51E2,1E1,3.1E2,3.3E1,3.04E2,1.92E2,9.8E1,5.3E1],"tree_param":{"num_deleted":"0","num_feature":"11","num_nodes":"13","size_leaf_vector":"1"}},{"base_weights":[-5.353887E-3,-1.5535621E-1,8.27047E-1,-2.619316E-1,1.3026276E0,1.1218455E0,1.16931915E-1,-3.2366768E-2,1.9135438E-1,2.0760594E-1,-9.657715E-1,1.2079107E-1,-5.425809E-2,-6.453196E-3,1.6178422E-1],"categories":[],"categories_nodes":[],"categories_segments":[],"categories_sizes":[],"default_left":[0,0,0,0,0,0,0,0,0,0,0,0,0,0,0],"id":49,"left_children":[1,3,5,7,9,11,13,-1,-1,-1,-1,-1,-1,-1,-1],"loss_changes":[1.2511541E2,1.3226321E2,3.1897987E1,1.0698918E2,5.117204E2,1.6126282E1,1.2633007E1,0E0,0E0,0E0,0E0,0E0,0E0,0E0,0E0],"parents":[2147483647,0,0,1,1,2,2,3,3,4,4,5,5,6,6],"right_children":[2,4,6,8,10,12,14,-1,-1,-1,-1,-1,-1,-1,-1],"split_conditions":[1E0,1E0,1E0,4E0,4E0,4E0,4E0,-3.2366768E-2,1.9135438E-1,2.0760594E-1,-9.657715E-1,1.2079107E-1,-5.425809E-2,-6.453196E-3,1.6178422E-1],"split_indices":[4,9,2,10,10,10,10,0,0,0,0,0,0,0,0],"split_type":[0,0,0,0,0,0,0,0,0,0,0,0,0,0,0],"sum_hessian":[1E3,8.48E2,1.52E2,7.91E2,5.7E1,1.07E2,4.5E1,7.7E2,2.1E1,5.4E1,3E0,1.02E2,5E0,4.1E1,4E0],"tree_param":{"num_deleted":"0","num_feature":"11","num_nodes":"15","size_leaf_vector":"1"}},{"base_weights":[-5.1946375E-3,1.4329225E-1,-7.750945E-1,9.097315E-3,7.457943E-1,-6.92597E-1,-1.8445976E-1,-9.6640205E-3,1.1592918E-1,1.0102796E-1,1.0861621E-2,-5.459944E-2,-9.485426E-2],"categories":[],"categories_nodes":[],"categories_segments":[],"categories_sizes":[],"default_left":[0,0,0,0,0,0,0,0,0,0,0,0,0],"id":50,"left_children":[1,3,5,7,9,11,-1,-1,-1,-1,-1,-1,-1],"loss_changes":[1.14545425E2,6.79095E1,1.3015923E1,8.378571E1,2.5674469E1,5.185478E0,0E0,0E0,0E0,0E0,0E0,0E0,0E0],"parents":[2147483647,0,0,1,1,2,2,3,3,4,4,5,5],"right_children":[2,4,6,8,10,12,-1,-1,-1,-1,-1,-1,-1],"split_conditions":[1E0,1E0,4E0,1E0,1E0,1E0,-1.8445976E-1,-9.6640205E-3,1.1592918E-1,1.0102796E-1,1.0861621E-2,-5.459944E-2,-9.485426E-2],"split_indices":[6,4,10,9,2,2,0,0,0,0,0,0,0],"split_type":[0,0,0,0,0,0,0,0,0,0,0,0,0],"sum_hessian":[1E3,8.39E2,1.61E2,6.87E2,1.52E2,1.51E2,1E1,6.3E2,5.7E1,1.07E2,4.5E1,9.8E1,5.3E1],"tree_param":{"num_deleted":"0","num_feature":"11","num_nodes":"13","size_leaf_vector":"1"}},{"base_weights":[-4.791734E-3,1.2922162E-1,-6.996462E-1,8.340935E-3,6.7194504E-1,-6.2432045E-1,-1.676907E-1,-8.699275E-3,1.0453619E-1,9.101865E-2,9.798813E-3,-4.9194638E-2,-8.554448E-2],"categories":[],"categories_nodes":[],"categories_segments":[],"categories_sizes":[],"default_left":[0,0,0,0,0,0,0,0,0,0,0,0,0],"id":51,"left_children":[1,3,5,7,9,11,-1,-1,-1,-1,-1,-1,-1],"loss_changes":[9.33033E1,5.510241E1,1.0878365E1,6.81087E1,2.0832085E1,4.2295876E0,0E0,0E0,0E0,0E0,0E0,0E0,0E0],"parents":[2147483647,0,0,1,1,2,2,3,3,4,4,5,5],"right_children":[2,4,6,8,10,12,-1,-1,-1,-1,-1,-1,-1],"split_conditions":[1E0,1E0,4E0,1E0,1E0,1E0,-1.676907E-1,-8.699275E-3,1.0453619E-1,9.101865E-2,9.798813E-3,-4.9194638E-2,-8.554448E-2],"split_indices":[6,4,10,9,2,2,0,0,0,0,0,0,0],"split_type":[0,0,0,0,0,0,0,0,0,0,0,0,0],"sum_hessian":[1E3,8.39E2,1.61E2,6.87E2,1.52E2,1.51E2,1E1,6.3E2,5.7E1,1.07E2,4.5E1,9.8E1,5.3E1],"tree_param":{"num_deleted":"0","num_feature":"11","num_nodes":"13","size_leaf_vector":"1"}},{"base_weights":[-4.41926E-3,1.1653234E-1,-6.315484E-1,-1.6167761E-1,3.088617E-1,-5.6277484E-1,-1.5244608E-1,6.930463E-2,-7.975132E-1,-2.0923767E-2,1.1260195E-1,-4.432487E-2,-7.714843E-2],"categories":[],"categories_nodes":[],"categories_segments":[],"categories_sizes":[],"default_left":[0,0,0,0,0,0,0,0,0,0,0,0,0],"id":52,"left_children":[1,3,5,7,9,11,-1,-1,-1,-1,-1,-1,-1],"loss_changes":[7.6001724E1,4.4996605E1,9.090294E0,2.3028784E3,2.1064993E2,3.449871E0,0E0,0E0,0E0,0E0,0E0,0E0,0E0],"parents":[2147483647,0,0,1,1,2,2,3,3,4,4,5,5],"right_children":[2,4,6,8,10,12,-1,-1,-1,-1,-1,-1,-1],"split_conditions":[1E0,2E0,4E0,1E0,1E0,1E0,-1.5244608E-1,6.930463E-2,-7.975132E-1,-2.0923767E-2,1.1260195E-1,-4.432487E-2,-7.714843E-2],"split_indices":[6,10,10,2,2,2,0,0,0,0,0,0,0],"split_type":[0,0,0,0,0,0,0,0,0,0,0,0,0],"sum_hessian":[1E3,8.39E2,1.61E2,3.43E2,4.96E2,1.51E2,1E1,3.1E2,3.3E1,3.04E2,1.92E2,9.8E1,5.3E1],"tree_param":{"num_deleted":"0","num_feature":"11","num_nodes":"13","size_leaf_vector":"1"}},{"base_weights":[-4.8872647E-3,-1.11533076E-1,5.869244E-1,-1.9009666E-1,9.6318907E-1,8.407367E-1,-2.174195E-2,-2.4986433E-2,1.9131291E-1,1.6763118E-1,-9.083044E-1,9.18829E-2,-6.3997015E-2,-1.8831344E-2,1.381807E-1],"categories":[],"categories_nodes":[],"categories_segments":[],"categories_sizes":[],"default_left":[0,0,0,0,0,0,0,0,0,0,0,0,0,0,0],"id":53,"left_children":[1,3,5,7,9,11,13,-1,-1,-1,-1,-1,-1,-1,-1],"loss_changes":[6.3242813E1,7.186758E1,2.3654789E1,1.00036285E2,4.3074936E2,1.3076241E1,1.1014609E1,0E0,0E0,0E0,0E0,0E0,0E0,0E0,0E0],"parents":[2147483647,0,0,1,1,2,2,3,3,4,4,5,5,6,6],"right_children":[2,4,6,8,10,12,14,-1,-1,-1,-1,-1,-1,-1,-1],"split_conditions":[1E0,1E0,1E0,4E0,4E0,4E0,4E0,-2.4986433E-2,1.9131291E-1,1.6763118E-1,-9.083044E-1,9.18829E-2,-6.3997015E-2,-1.8831344E-2,1.381807E-1],"split_indices":[4,9,2,10,10,10,10,0,0,0,0,0,0,0,0],"split_type":[0,0,0,0,0,0,0,0,0,0,0,0,0,0,0],"sum_hessian":[1E3,8.48E2,1.52E2,7.91E2,5.7E1,1.07E2,4.5E1,7.7E2,2.1E1,5.4E1,3E0,1.02E2,5E0,4.1E1,4E0],"tree_param":{"num_deleted":"0","num_feature":"11","num_nodes":"15","size_leaf_vector":"1"}},{"base_weights":[-4.826107E-3,1.01979665E-1,-5.5860406E-1,4.6136938E-2,8.5409826E-1,-4.8247448E-1,-1.559794E-1,-2.8755204E-3,2.765021E-1,1.5117265E-1,-8.4018147E-1,-3.7463747E-2,-6.71241E-2],"categories":[],"categories_nodes":[],"categories_segments":[],"categories_sizes":[],"default_left":[0,0,0,0,0,0,0,0,0,0,0,0,0],"id":54,"left_children":[1,3,5,7,9,11,-1,-1,-1,-1,-1,-1,-1],"loss_changes":[5.9262794E1,3.52409E1,1.15951E1,1.5951636E2,3.6574432E2,2.8426437E0,0E0,0E0,0E0,0E0,0E0,0E0,0E0],"parents":[2147483647,0,0,1,1,2,2,3,3,4,4,5,5],"right_children":[2,4,6,8,10,12,-1,-1,-1,-1,-1,-1,-1],"split_conditions":[1E0,1E0,4E0,4E0,4E0,1E0,-1.559794E-1,-2.8755204E-3,2.765021E-1,1.5117265E-1,-8.4018147E-1,-3.7463747E-2,-6.71241E-2],"split_indices":[6,9,10,10,10,2,0,0,0,0,0,0,0],"split_type":[0,0,0,0,0,0,0,0,0,0,0,0,0],"sum_hessian":[1E3,8.39E2,1.61E2,7.82E2,5.7E1,1.51E2,1E1,7.62E2,2E1,5.4E1,3E0,9.8E1,5.3E1],"tree_param":{"num_deleted":"0","num_feature":"11","num_nodes":"13","size_leaf_vector":"1"}},{"base_weights":[-5.019294E-3,-9.883633E-2,5.156061E-1,-1.6137245E-1,7.568092E-1,7.46824E-1,-3.8462266E-2,-2.1322506E-2,1.6631609E-1,1.3633026E-1,-7.7716774E-1,8.306735E-2,-8.1706114E-2,-1.6713208E-2,1.05005644E-1],"categories":[],"categories_nodes":[],"categories_segments":[],"categories_sizes":[],"default_left":[0,0,0,0,0,0,0,0,0,0,0,0,0,0,0],"id":55,"left_children":[1,3,5,7,9,11,13,-1,-1,-1,-1,-1,-1,-1,-1],"loss_changes":[4.8943336E1,4.5551052E1,1.9629642E1,7.528322E1,3.1059842E2,1.4840836E1,6.618234E0,0E0,0E0,0E0,0E0,0E0,0E0,0E0,0E0],"parents":[2147483647,0,0,1,1,2,2,3,3,4,4,5,5,6,6],"right_children":[2,4,6,8,10,12,14,-1,-1,-1,-1,-1,-1,-1,-1],"split_conditions":[1E0,1E0,1E0,4E0,4E0,4E0,4E0,-2.1322506E-2,1.6631609E-1,1.3633026E-1,-7.7716774E-1,8.306735E-2,-8.1706114E-2,-1.6713208E-2,1.05005644E-1],"split_indices":[4,9,2,10,10,10,10,0,0,0,0,0,0,0,0],"split_type":[0,0,0,0,0,0,0,0,0,0,0,0,0,0,0],"sum_hessian":[1E3,8.48E2,1.52E2,7.91E2,5.7E1,1.07E2,4.5E1,7.7E2,2.1E1,5.4E1,3E0,1.02E2,5E0,4.1E1,4E0],"tree_param":{"num_deleted":"0","num_feature":"11","num_nodes":"15","size_leaf_vector":"1"}},{"base_weights":[-4.922502E-3,8.954891E-2,-4.9474385E-1,2.0084918E-1,-2.1372198E-1,-4.1373295E-1,-1.5691908E-1,6.7299224E-2,-2.8124047E-2,-7.1533364E-1,1.0099081E-1,-3.164451E-2,-5.844323E-2],"categories":[],"categories_nodes":[],"categories_segments":[],"categories_sizes":[],"default_left":[0,0,0,0,0,0,0,0,0,0,0,0,0],"id":56,"left_children":[1,3,5,7,9,11,-1,-1,-1,-1,-1,-1,-1],"loss_changes":[4.6364693E1,2.8396397E1,1.3451565E1,1.4017268E2,1.926308E3,2.3393173E0,0E0,0E0,0E0,0E0,0E0,0E0,0E0],"parents":[2147483647,0,0,1,1,2,2,3,3,4,4,5,5],"right_children":[2,4,6,8,10,12,-1,-1,-1,-1,-1,-1,-1],"split_conditions":[1E0,1E0,4E0,2E0,2E0,1E0,-1.5691908E-1,6.7299224E-2,-2.8124047E-2,-7.1533364E-1,1.0099081E-1,-3.164451E-2,-5.844323E-2],"split_indices":[6,2,10,10,10,2,0,0,0,0,0,0,0],"split_type":[0,0,0,0,0,0,0,0,0,0,0,0,0],"sum_hessian":[1E3,8.39E2,1.61E2,6.14E2,2.25E2,1.51E2,1E1,3.1E2,3.04E2,3.3E1,1.92E2,9.8E1,5.3E1],"tree_param":{"num_deleted":"0","num_feature":"11","num_nodes":"13","size_leaf_vector":"1"}},{"base_weights":[-5.2516162E-3,-8.8114575E-2,4.545909E-1,-1.4555186E-1,6.977207E-1,7.000146E-1,-1.3150373E-1,-1.9303797E-2,1.5252359E-1,1.257066E-1,-7.1677065E-1,7.7626005E-2,-7.255338E-2,-2.4941472E-2,8.852493E-2],"categories":[],"categories_nodes":[],"categories_segments":[],"categories_sizes":[],"default_left":[0,0,0,0,0,0,0,0,0,0,0,0,0,0,0],"id":57,"left_children":[1,3,5,7,9,11,13,-1,-1,-1,-1,-1,-1,-1,-1],"loss_changes":[3.818207E1,3.8422226E1,2.2099812E1,6.3131058E1,2.6418063E2,1.23018875E1,5.735567E0,0E0,0E0,0E0,0E0,0E0,0E0,0E0,0E0],"parents":[2147483647,0,0,1,1,2,2,3,3,4,4,5,5,6,6],"right_children":[2,4,6,8,10,12,14,-1,-1,-1,-1,-1,-1,-1,-1],"split_conditions":[1E0,1E0,1E0,4E0,4E0,4E0,4E0,-1.9303797E-2,1.5252359E-1,1.257066E-1,-7.1677065E-1,7.7626005E-2,-7.255338E-2,-2.4941472E-2,8.852493E-2],"split_indices":[4,9,2,10,10,10,10,0,0,0,0,0,0,0,0],"split_type":[0,0,0,0,0,0,0,0,0,0,0,0,0,0,0],"sum_hessian":[1E3,8.48E2,1.52E2,7.91E2,5.7E1,1.07E2,4.5E1,7.7E2,2.1E1,5.4E1,3E0,1.02E2,5E0,4.1E1,4E0],"tree_param":{"num_deleted":"0","num_feature":"11","num_nodes":"15","size_leaf_vector":"1"}},{"base_weights":[-5.1152967E-3,7.841738E-2,-4.3821612E-1,1.7512694E-1,-1.8509942E-1,-3.5377547E-1,-1.5651949E-1,6.251501E-2,-2.8432328E-2,-6.440305E-1,9.1781296E-2,-2.6601134E-2,-5.0812494E-2],"categories":[],"categories_nodes":[],"categories_segments":[],"categories_sizes":[],"default_left":[0,0,0,0,0,0,0,0,0,0,0,0,0],"id":58,"left_children":[1,3,5,7,9,11,-1,-1,-1,-1,-1,-1,-1],"loss_changes":[3.6248615E1,2.1439476E1,1.4862652E1,1.2733713E2,1.5650723E3,1.9238777E0,0E0,0E0,0E0,0E0,0E0,0E0,0E0],"parents":[2147483647,0,0,1,1,2,2,3,3,4,4,5,5],"right_children":[2,4,6,8,10,12,-1,-1,-1,-1,-1,-1,-1],"split_conditions":[1E0,1E0,4E0,2E0,2E0,1E0,-1.5651949E-1,6.251501E-2,-2.8432328E-2,-6.440305E-1,9.1781296E-2,-2.6601134E-2,-5.0812494E-2],"split_indices":[6,2,10,10,10,2,0,0,0,0,0,0,0],"split_type":[0,0,0,0,0,0,0,0,0,0,0,0,0],"sum_hessian":[1E3,8.39E2,1.61E2,6.14E2,2.25E2,1.51E2,1E1,3.1E2,3.04E2,3.3E1,1.92E2,9.8E1,5.3E1],"tree_param":{"num_deleted":"0","num_feature":"11","num_nodes":"13","size_leaf_vector":"1"}},{"base_weights":[-5.356124E-3,-7.884517E-2,4.0247107E-1,-1.318057E-1,6.456994E-1,6.582284E-1,-2.067521E-1,-1.7548367E-2,1.4048998E-1,1.1615598E-1,-6.6088057E-1,7.275433E-2,-6.413816E-2,-3.1465694E-2,7.409989E-2],"categories":[],"categories_nodes":[],"categories_segments":[],"categories_sizes":[],"default_left":[0,0,0,0,0,0,0,0,0,0,0,0,0,0,0],"id":59,"left_children":[1,3,5,7,9,11,13,-1,-1,-1,-1,-1,-1,-1,-1],"loss_changes":[3.0032536E1,3.2663162E1,2.3975523E1,5.340572E1,2.247306E2,1.0195526E1,4.937438E0,0E0,0E0,0E0,0E0,0E0,0E0,0E0,0E0],"parents":[2147483647,0,0,1,1,2,2,3,3,4,4,5,5,6,6],"right_children":[2,4,6,8,10,12,14,-1,-1,-1,-1,-1,-1,-1,-1],"split_conditions":[1E0,1E0,1E0,4E0,4E0,4E0,4E0,-1.7548367E-2,1.4048998E-1,1.1615598E-1,-6.6088057E-1,7.275433E-2,-6.413816E-2,-3.1465694E-2,7.409989E-2],"split_indices":[4,9,2,10,10,10,10,0,0,0,0,0,0,0,0],"split_type":[0,0,0,0,0,0,0,0,0,0,0,0,0,0,0],"sum_hessian":[1E3,8.48E2,1.52E2,7.91E2,5.7E1,1.07E2,4.5E1,7.7E2,2.1E1,5.4E1,3E0,1.02E2,5E0,4.1E1,4E0],"tree_param":{"num_deleted":"0","num_feature":"11","num_nodes":"15","size_leaf_vector":"1"}},{"base_weights":[-5.191307E-3,6.867197E-2,-3.8815403E-1,3.2165674E-3,3.6255854E-1,-3.014744E-1,-1.5506227E-1,-2.7223683E-3,1.370784E-1,5.9248548E-2,-1.8515164E-2,-2.2230789E-2,-4.4103008E-2],"categories":[],"categories_nodes":[],"categories_segments":[],"categories_sizes":[],"default_left":[0,0,0,0,0,0,0,0,0,0,0,0,0],"id":60,"left_children":[1,3,5,7,9,11,-1,-1,-1,-1,-1,-1,-1],"loss_changes":[2.8341825E1,1.6157465E1,1.5856033E1,2.8678135E1,1.9377499E1,1.5812721E0,0E0,0E0,0E0,0E0,0E0,0E0,0E0],"parents":[2147483647,0,0,1,1,2,2,3,3,4,4,5,5],"right_children":[2,4,6,8,10,12,-1,-1,-1,-1,-1,-1,-1],"split_conditions":[1E0,1E0,4E0,4E0,1E0,1E0,-1.5506227E-1,-2.7223683E-3,1.370784E-1,5.9248548E-2,-1.8515164E-2,-2.2230789E-2,-4.4103008E-2],"split_indices":[6,4,10,10,2,2,0,0,0,0,0,0,0],"split_type":[0,0,0,0,0,0,0,0,0,0,0,0,0],"sum_hessian":[1E3,8.39E2,1.61E2,6.87E2,1.52E2,1.51E2,1E1,6.73E2,1.4E1,1.07E2,4.5E1,9.8E1,5.3E1],"tree_param":{"num_deleted":"0","num_feature":"11","num_nodes":"13","size_leaf_vector":"1"}},{"base_weights":[-4.7180154E-3,6.2013716E-2,-3.5070527E-1,2.451465E-2,5.671819E-1,-2.7176332E-1,-1.409657E-1,-3.1415839E-3,2.0554884E-1,1.0501885E-1,-6.215953E-1,-2.003016E-2,-3.977439E-2],"categories":[],"categories_nodes":[],"categories_segments":[],"categories_sizes":[],"default_left":[0,0,0,0,0,0,0,0,0,0,0,0,0],"id":61,"left_children":[1,3,5,7,9,11,-1,-1,-1,-1,-1,-1,-1],"loss_changes":[2.3133167E1,1.5898497E1,1.3159409E1,8.900817E1,1.965532E2,1.2887554E0,0E0,0E0,0E0,0E0,0E0,0E0,0E0],"parents":[2147483647,0,0,1,1,2,2,3,3,4,4,5,5],"right_children":[2,4,6,8,10,12,-1,-1,-1,-1,-1,-1,-1],"split_conditions":[1E0,1E0,4E0,4E0,4E0,1E0,-1.409657E-1,-3.1415839E-3,2.0554884E-1,1.0501885E-1,-6.215953E-1,-2.003016E-2,-3.977439E-2],"split_indices":[6,9,10,10,10,2,0,0,0,0,0,0,0],"split_type":[0,0,0,0,0,0,0,0,0,0,0,0,0],"sum_hessian":[1E3,8.39E2,1.61E2,7.82E2,5.7E1,1.51E2,1E1,7.62E2,2E1,5.4E1,3E0,9.8E1,5.3E1],"tree_param":{"num_deleted":"0","num_feature":"11","num_nodes":"13","size_leaf_vector":"1"}},{"base_weights":[-4.759371E-3,6.641196E-2,-3.1289077E-1,-3.240663E-3,1.2567699E-1,-1.791951E-1,-1.9617373E0,-7.2780713E-3,4.1466128E-2,-3.883921E-2,8.050873E-2,-4.0593546E-2,-5.749758E-1],"categories":[],"categories_nodes":[],"categories_segments":[],"categories_sizes":[],"default_left":[0,0,0,0,0,0,0,0,0,0,0,0,0],"id":62,"left_children":[1,3,5,7,-1,9,11,-1,-1,-1,-1,-1,-1],"loss_changes":[2.1972834E1,6.749408E1,4.1091866E1,2.2407087E1,0E0,3.6346752E1,8.0173706E1,0E0,0E0,0E0,0E0,0E0,0E0],"parents":[2147483647,0,0,1,1,2,2,3,3,5,5,6,6],"right_children":[2,4,6,8,-1,10,12,-1,-1,-1,-1,-1,-1],"split_conditions":[3E0,1E0,1E0,1E0,1.2567699E-1,4E0,4E0,-7.2780713E-3,4.1466128E-2,-3.883921E-2,8.050873E-2,-4.0593546E-2,-5.749758E-1],"split_indices":[10,9,9,4,0,10,10,0,0,0,0,0,0],"split_type":[0,0,0,0,0,0,0,0,0,0,0,0,0],"sum_hessian":[1E3,8.13E2,1.87E2,7.69E2,4.4E1,1.74E2,1.3E1,6.6E2,1.09E2,1.44E2,3E1,1E1,3E0],"tree_param":{"num_deleted":"0","num_feature":"11","num_nodes":"13","size_leaf_vector":"1"}},{"base_weights":[-4.6979096E-3,8.074933E-2,-2.2284442E-1,5.9343018E-2,-3.083348E-1,-5.785431E-1,5.3760046E-1,-5.9648078E-2,5.029298E-2,8.210355E-2,-4.3153208E-2],"categories":[],"categories_nodes":[],"categories_segments":[],"categories_sizes":[],"default_left":[0,0,0,0,0,0,0,0,0,0,0],"id":63,"left_children":[1,3,5,-1,7,-1,9,-1,-1,-1,-1],"loss_changes":[1.8676653E1,1.4380568E2,1.1959817E3,0E0,9.614268E1,0E0,6.875113E1,0E0,0E0,0E0,0E0],"parents":[2147483647,0,0,1,1,2,2,4,4,6,6],"right_children":[2,4,6,-1,8,-1,10,-1,-1,-1,-1],"split_conditions":[1E0,2E0,2E0,5.9343018E-2,1E0,-5.785431E-1,1E0,-5.9648078E-2,5.029298E-2,8.210355E-2,-4.3153208E-2],"split_indices":[2,10,10,0,4,0,6,0,0,0,0],"split_type":[0,0,0,0,0,0,0,0,0,0,0],"sum_hessian":[1E3,7.19E2,2.81E2,3.1E2,4.09E2,3.3E1,2.48E2,3.02E2,1.07E2,1.92E2,5.6E1],"tree_param":{"num_deleted":"0","num_feature":"11","num_nodes":"11","size_leaf_vector":"1"}},{"base_weights":[-4.717235E-3,6.096329E-2,-2.8907484E-1,-5.227627E-3,1.1922087E-1,-1.7021714E-1,-1.7541479E0,-5.8422717E-3,3.1447403E-2,-3.5444435E-2,6.969817E-2,-3.148093E-2,-5.273792E-1],"categories":[],"categories_nodes":[],"categories_segments":[],"categories_sizes":[],"default_left":[0,0,0,0,0,0,0,0,0,0,0,0,0],"id":64,"left_children":[1,3,5,7,-1,9,11,-1,-1,-1,-1,-1,-1],"loss_changes":[1.8713057E1,6.095706E1,3.2438835E1,1.31134205E1,0E0,2.8205322E1,6.926321E1,0E0,0E0,0E0,0E0,0E0,0E0],"parents":[2147483647,0,0,1,1,2,2,3,3,5,5,6,6],"right_children":[2,4,6,8,-1,10,12,-1,-1,-1,-1,-1,-1],"split_conditions":[3E0,1E0,1E0,1E0,1.1922087E-1,4E0,4E0,-5.8422717E-3,3.1447403E-2,-3.5444435E-2,6.969817E-2,-3.148093E-2,-5.273792E-1],"split_indices":[10,9,9,4,0,10,10,0,0,0,0,0,0],"split_type":[0,0,0,0,0,0,0,0,0,0,0,0,0],"sum_hessian":[1E3,8.13E2,1.87E2,7.69E2,4.4E1,1.74E2,1.3E1,6.6E2,1.09E2,1.44E2,3E1,1E1,3E0],"tree_param":{"num_deleted":"0","num_feature":"11","num_nodes":"13","size_leaf_vector":"1"}},{"base_weights":[-4.6239183E-3,5.504589E-2,-2.629569E-1,-4.6705455E-3,1.0756373E-1,-1.5299879E-1,-1.6186507E0,-5.258788E-3,2.8331155E-2,-3.19243E-2,6.2953055E-2,-2.8618863E-2,-4.8782587E-1],"categories":[],"categories_nodes":[],"categories_segments":[],"categories_sizes":[],"default_left":[0,0,0,0,0,0,0,0,0,0,0,0,0],"id":65,"left_children":[1,3,5,7,-1,9,11,-1,-1,-1,-1,-1,-1],"loss_changes":[1.5444569E1,4.961513E1,2.777742E1,1.0640385E1,0E0,2.2966894E1,5.941015E1,0E0,0E0,0E0,0E0,0E0,0E0],"parents":[2147483647,0,0,1,1,2,2,3,3,5,5,6,6],"right_children":[2,4,6,8,-1,10,12,-1,-1,-1,-1,-1,-1],"split_conditions":[3E0,1E0,1E0,1E0,1.0756373E-1,4E0,4E0,-5.258788E-3,2.8331155E-2,-3.19243E-2,6.2953055E-2,-2.8618863E-2,-4.8782587E-1],"split_indices":[10,9,9,4,0,10,10,0,0,0,0,0,0],"split_type":[0,0,0,0,0,0,0,0,0,0,0,0,0],"sum_hessian":[1E3,8.13E2,1.87E2,7.69E2,4.4E1,1.74E2,1.3E1,6.6E2,1.09E2,1.44E2,3E1,1E1,3E0],"tree_param":{"num_deleted":"0","num_feature":"11","num_nodes":"13","size_leaf_vector":"1"}},{"base_weights":[-4.5156823E-3,7.1293645E-2,-1.9805539E-1,5.4534834E-2,-2.884681E-1,-5.21313E-1,4.8752928E-1,-5.400149E-2,4.199315E-2,8.090749E-2,-3.141741E-2],"categories":[],"categories_nodes":[],"categories_segments":[],"categories_sizes":[],"default_left":[0,0,0,0,0,0,0,0,0,0,0],"id":66,"left_children":[1,3,5,-1,7,-1,9,-1,-1,-1,-1],"loss_changes":[1.4700908E1,1.2295096E2,9.721304E2,0E0,7.328699E1,0E0,6.444246E1,0E0,0E0,0E0,0E0],"parents":[2147483647,0,0,1,1,2,2,4,4,6,6],"right_children":[2,4,6,-1,8,-1,10,-1,-1,-1,-1],"split_conditions":[1E0,2E0,2E0,5.4534834E-2,1E0,-5.21313E-1,3E0,-5.400149E-2,4.199315E-2,8.090749E-2,-3.141741E-2],"split_indices":[2,10,10,0,4,0,10,0,0,0,0],"split_type":[0,0,0,0,0,0,0,0,0,0,0],"sum_hessian":[1E3,7.19E2,2.81E2,3.1E2,4.09E2,3.3E1,2.48E2,3.02E2,1.07E2,1.77E2,7.1E1],"tree_param":{"num_deleted":"0","num_feature":"11","num_nodes":"11","size_leaf_vector":"1"}},{"base_weights":[-4.4926717E-3,-3.2134183E-2,4.4547424E-1,-5.327685E-2,5.922701E-1,7.9500103E-1,-4.4718876E-1,5.522487E-3,-3.2063045E-2,-1.1960099E-1,1.784658E-1,1.02326535E-1,-2.1108074E-2],"categories":[],"categories_nodes":[],"categories_segments":[],"categories_sizes":[],"default_left":[0,0,0,0,0,0,0,0,0,0,0,0,0],"id":67,"left_children":[1,3,5,7,9,11,-1,-1,-1,-1,-1,-1,-1],"loss_changes":[1.2464518E1,1.2493836E1,1.0324264E2,2.6531315E1,6.823649E1,1.2846886E1,0E0,0E0,0E0,0E0,0E0,0E0,0E0],"parents":[2147483647,0,0,1,1,2,2,3,3,4,4,5,5],"right_children":[2,4,6,8,10,12,-1,-1,-1,-1,-1,-1,-1],"split_conditions":[1E0,4E0,4E0,1E0,1E0,3E0,-4.4718876E-1,5.522487E-3,-3.2063045E-2,-1.1960099E-1,1.784658E-1,1.02326535E-1,-2.1108074E-2],"split_indices":[9,10,10,2,2,10,0,0,0,0,0,0,0],"split_type":[0,0,0,0,0,0,0,0,0,0,0,0,0],"sum_hessian":[1E3,9.43E2,5.7E1,9.13E2,3E1,5.4E1,3E0,6.5E2,2.63E2,1.2E1,1.8E1,4.4E1,1E1],"tree_param":{"num_deleted":"0","num_feature":"11","num_nodes":"13","size_leaf_vector":"1"}},{"base_weights":[-4.3776347E-3,-2.8887536E-2,3.9461762E-1,-4.7979217E-2,5.3494096E-1,7.1697825E-1,-4.1364956E-1,4.9709855E-3,-2.8868986E-2,1.4995368E-1,-1.3551912E-1,9.232139E-2,-1.9189281E-2],"categories":[],"categories_nodes":[],"categories_segments":[],"categories_sizes":[],"default_left":[0,0,0,0,0,0,0,0,0,0,0,0,0],"id":68,"left_children":[1,3,5,7,9,11,-1,-1,-1,-1,-1,-1,-1],"loss_changes":[9.800512E0,1.0187291E1,8.7683624E1,2.1506874E1,5.8551773E1,1.0486444E1,0E0,0E0,0E0,0E0,0E0,0E0,0E0],"parents":[2147483647,0,0,1,1,2,2,3,3,4,4,5,5],"right_children":[2,4,6,8,10,12,-1,-1,-1,-1,-1,-1,-1],"split_conditions":[1E0,4E0,4E0,1E0,1E0,3E0,-4.1364956E-1,4.9709855E-3,-2.8868986E-2,1.4995368E-1,-1.3551912E-1,9.232139E-2,-1.9189281E-2],"split_indices":[9,10,10,2,6,10,0,0,0,0,0,0,0],"split_type":[0,0,0,0,0,0,0,0,0,0,0,0,0],"sum_hessian":[1E3,9.43E2,5.7E1,9.13E2,3E1,5.4E1,3E0,6.5E2,2.63E2,2E1,1E1,4.4E1,1E1],"tree_param":{"num_deleted":"0","num_feature":"11","num_nodes":"13","size_leaf_vector":"1"}},{"base_weights":[-4.2893603E-3,4.0823597E-2,-1.9959605E-1,-5.52228E-3,8.3294585E-2,-1.1600048E-1,-1.2302837E0,-4.182593E-3,2.1267986E-2,-2.4303062E-2,4.819147E-2,-1.7444922E-2,-3.826258E-1],"categories":[],"categories_nodes":[],"categories_segments":[],"categories_sizes":[],"default_left":[0,0,0,0,0,0,0,0,0,0,0,0,0],"id":69,"left_children":[1,3,5,7,-1,9,11,-1,-1,-1,-1,-1,-1],"loss_changes":[8.827821E0,2.9887842E1,1.605554E1,6.108476E0,0E0,1.3408937E1,3.770538E1,0E0,0E0,0E0,0E0,0E0,0E0],"parents":[2147483647,0,0,1,1,2,2,3,3,5,5,6,6],"right_children":[2,4,6,8,-1,10,12,-1,-1,-1,-1,-1,-1],"split_conditions":[3E0,1E0,1E0,1E0,8.3294585E-2,4E0,4E0,-4.182593E-3,2.1267986E-2,-2.4303062E-2,4.819147E-2,-1.7444922E-2,-3.826258E-1],"split_indices":[10,9,9,4,0,10,10,0,0,0,0,0,0],"split_type":[0,0,0,0,0,0,0,0,0,0,0,0,0],"sum_hessian":[1E3,8.13E2,1.87E2,7.69E2,4.4E1,1.74E2,1.3E1,6.6E2,1.09E2,1.44E2,3E1,1E1,3E0],"tree_param":{"num_deleted":"0","num_feature":"11","num_nodes":"13","size_leaf_vector":"1"}},{"base_weights":[-4.136868E-3,3.350037E-2,-1.9926737E-1,1.8078314E-2,5.5709696E-1,-1.2004925E-1,-1.2758026E-1,1.10141495E-2,-2.4685264E-2,-2.3254137E-1,2.1436906E-1,-3.0946764E-3,-2.8118068E-2],"categories":[],"categories_nodes":[],"categories_segments":[],"categories_sizes":[],"default_left":[0,0,0,0,0,0,0,0,0,0,0,0,0],"id":70,"left_children":[1,3,5,7,9,11,-1,-1,-1,-1,-1,-1,-1],"loss_changes":[7.358193E0,6.772874E0,1.3662378E1,1.9954136E1,1.1474592E2,2.1735945E0,0E0,0E0,0E0,0E0,0E0,0E0,0E0],"parents":[2147483647,0,0,1,1,2,2,3,3,4,4,5,5],"right_children":[2,4,6,8,10,12,-1,-1,-1,-1,-1,-1,-1],"split_conditions":[1E0,4E0,4E0,1E0,1E0,1E0,-1.2758026E-1,1.10141495E-2,-2.4685264E-2,-2.3254137E-1,2.1436906E-1,-3.0946764E-3,-2.8118068E-2],"split_indices":[6,10,10,2,2,2,0,0,0,0,0,0,0],"split_type":[0,0,0,0,0,0,0,0,0,0,0,0,0],"sum_hessian":[1E3,8.39E2,1.61E2,8.16E2,2.3E1,1.51E2,1E1,6.06E2,2.1E2,8E0,1.5E1,9.8E1,5.3E1],"tree_param":{"num_deleted":"0","num_feature":"11","num_nodes":"13","size_leaf_vector":"1"}},{"base_weights":[-3.91345E-3,3.6562428E-2,-1.7914458E-1,-4.637762E-3,7.40731E-2,-1.0494298E-1,-1.0938685E0,-3.7199834E-3,1.9107286E-2,-2.143561E-2,4.1021336E-2,-1.6860234E-2,-3.3648834E-1],"categories":[],"categories_nodes":[],"categories_segments":[],"categories_sizes":[],"default_left":[0,0,0,0,0,0,0,0,0,0,0,0,0],"id":71,"left_children":[1,3,5,7,-1,9,11,-1,-1,-1,-1,-1,-1],"loss_changes":[7.1062765E0,2.3619102E1,1.26455145E1,4.9141197E0,0E0,9.951782E0,2.8850779E1,0E0,0E0,0E0,0E0,0E0,0E0],"parents":[2147483647,0,0,1,1,2,2,3,3,5,5,6,6],"right_children":[2,4,6,8,-1,10,12,-1,-1,-1,-1,-1,-1],"split_conditions":[3E0,1E0,1E0,1E0,7.40731E-2,4E0,4E0,-3.7199834E-3,1.9107286E-2,-2.143561E-2,4.1021336E-2,-1.6860234E-2,-3.3648834E-1],"split_indices":[10,9,9,4,0,10,10,0,0,0,0,0,0],"split_type":[0,0,0,0,0,0,0,0,0,0,0,0,0],"sum_hessian":[1E3,8.13E2,1.87E2,7.69E2,4.4E1,1.74E2,1.3E1,6.6E2,1.09E2,1.44E2,3E1,1E1,3E0],"tree_param":{"num_deleted":"0","num_feature":"11","num_nodes":"13","size_leaf_vector":"1"}},{"base_weights":[-3.7660627E-3,3.301609E-2,-1.6300492E-1,-4.153962E-3,6.683033E-2,-9.4336204E-2,-1.0097207E0,-3.348597E-3,1.7214252E-2,-1.9306814E-2,3.7051763E-2,-1.5327419E-2,-3.1125185E-1],"categories":[],"categories_nodes":[],"categories_segments":[],"categories_sizes":[],"default_left":[0,0,0,0,0,0,0,0,0,0,0,0,0],"id":72,"left_children":[1,3,5,7,-1,9,11,-1,-1,-1,-1,-1,-1],"loss_changes":[5.8683867E0,1.9224293E1,1.08356085E1,3.9875345E0,0E0,8.103321E0,2.4736E1,0E0,0E0,0E0,0E0,0E0,0E0],"parents":[2147483647,0,0,1,1,2,2,3,3,5,5,6,6],"right_children":[2,4,6,8,-1,10,12,-1,-1,-1,-1,-1,-1],"split_conditions":[3E0,1E0,1E0,1E0,6.683033E-2,4E0,4E0,-3.348597E-3,1.7214252E-2,-1.9306814E-2,3.7051763E-2,-1.5327419E-2,-3.1125185E-1],"split_indices":[10,9,9,4,0,10,10,0,0,0,0,0,0],"split_type":[0,0,0,0,0,0,0,0,0,0,0,0,0],"sum_hessian":[1E3,8.13E2,1.87E2,7.69E2,4.4E1,1.74E2,1.3E1,6.6E2,1.09E2,1.44E2,3E1,1E1,3E0],"tree_param":{"num_deleted":"0","num_feature":"11","num_nodes":"13","size_leaf_vector":"1"}},{"base_weights":[-3.617032E-3,4.3015946E-2,-1.2266713E-1,4.8076417E-2,-2.8913698E-1,-4.6131307E-1,4.9098113E-1,-5.108344E-2,3.3552468E-2,8.134394E-2,-3.130266E-2],"categories":[],"categories_nodes":[],"categories_segments":[],"categories_sizes":[],"default_left":[0,0,0,0,0,0,0,0,0,0,0],"id":73,"left_children":[1,3,5,-1,7,-1,9,-1,-1,-1,-1],"loss_changes":[5.562489E0,1.0482653E2,7.793342E2,0E0,5.695061E1,0E0,6.481012E1,0E0,0E0,0E0,0E0],"parents":[2147483647,0,0,1,1,2,2,4,4,6,6],"right_children":[2,4,6,-1,8,-1,10,-1,-1,-1,-1],"split_conditions":[1E0,2E0,2E0,4.8076417E-2,1E0,-4.6131307E-1,3E0,-5.108344E-2,3.3552468E-2,8.134394E-2,-3.130266E-2],"split_indices":[2,10,10,0,4,0,10,0,0,0,0],"split_type":[0,0,0,0,0,0,0,0,0,0,0],"sum_hessian":[1E3,7.19E2,2.81E2,3.1E2,4.09E2,3.3E1,2.48E2,3.02E2,1.07E2,1.77E2,7.1E1],"tree_param":{"num_deleted":"0","num_feature":"11","num_nodes":"11","size_leaf_vector":"1"}},{"base_weights":[-3.6360796E-3,-2.1859648E-2,2.9303092E-1,-3.4751937E-2,3.589601E-1,5.1561564E-1,-2.840767E-1,3.7008242E-3,-2.1157438E-2,-1.0141194E-1,1.2795429E-1,6.5290615E-2,-9.29014E-3],"categories":[],"categories_nodes":[],"categories_segments":[],"categories_sizes":[],"default_left":[0,0,0,0,0,0,0,0,0,0,0,0,0],"id":74,"left_children":[1,3,5,7,9,11,-1,-1,-1,-1,-1,-1,-1],"loss_changes":[5.4181433E0,4.647173E0,4.1921806E1,1.1605402E1,4.048264E1,4.655555E0,0E0,0E0,0E0,0E0,0E0,0E0,0E0],"parents":[2147483647,0,0,1,1,2,2,3,3,4,4,5,5],"right_children":[2,4,6,8,10,12,-1,-1,-1,-1,-1,-1,-1],"split_conditions":[1E0,4E0,4E0,1E0,1E0,3E0,-2.840767E-1,3.7008242E-3,-2.1157438E-2,-1.0141194E-1,1.2795429E-1,6.5290615E-2,-9.29014E-3],"split_indices":[9,10,10,2,2,10,0,0,0,0,0,0,0],"split_type":[0,0,0,0,0,0,0,0,0,0,0,0,0],"sum_hessian":[1E3,9.43E2,5.7E1,9.13E2,3E1,5.4E1,3E0,6.5E2,2.63E2,1.2E1,1.8E1,4.4E1,1E1],"tree_param":{"num_deleted":"0","num_feature":"11","num_nodes":"13","size_leaf_vector":"1"}},{"base_weights":[-3.491663E-3,2.530238E-2,-1.5277255E-1,1.0969497E-2,5.1216334E-1,-7.8867815E-2,-1.1601132E0,-2.177825E-3,4.6507064E-2,-1.7967474E-1,1.7789154E-1,3.3841063E-3,-2.8404025E-2,-7.883413E-2,-1.6136287E-1],"categories":[],"categories_nodes":[],"categories_segments":[],"categories_sizes":[],"default_left":[0,0,0,0,0,0,0,0,0,0,0,0,0,0,0],"id":75,"left_children":[1,3,5,7,9,11,13,-1,-1,-1,-1,-1,-1,-1,-1],"loss_changes":[4.306564E0,5.8560038E0,1.1968958E1,1.2159563E1,7.339188E1,3.524575E0,5.825558E-1,0E0,0E0,0E0,0E0,0E0,0E0,0E0,0E0],"parents":[2147483647,0,0,1,1,2,2,3,3,4,4,5,5,6,6],"right_children":[2,4,6,8,10,12,14,-1,-1,-1,-1,-1,-1,-1,-1],"split_conditions":[1E0,4E0,4E0,1E0,1E0,1E0,1E0,-2.177825E-3,4.6507064E-2,-1.7967474E-1,1.7789154E-1,3.3841063E-3,-2.8404025E-2,-7.883413E-2,-1.6136287E-1],"split_indices":[6,10,10,9,2,2,2,0,0,0,0,0,0,0,0],"split_type":[0,0,0,0,0,0,0,0,0,0,0,0,0,0,0],"sum_hessian":[1E3,8.39E2,1.61E2,8.16E2,2.3E1,1.51E2,1E1,7.62E2,5.4E1,8E0,1.5E1,9.8E1,5.3E1,7E0,3E0],"tree_param":{"num_deleted":"0","num_feature":"11","num_nodes":"15","size_leaf_vector":"1"}},{"base_weights":[-3.3641723E-3,3.491207E-2,-1.01078816E-1,4.3132495E-2,-2.6586673E-1,-4.142735E-1,4.5119986E-1,-4.7162216E-2,3.1385325E-2,7.6238796E-2,-3.2439284E-2],"categories":[],"categories_nodes":[],"categories_segments":[],"categories_sizes":[],"default_left":[0,0,0,0,0,0,0,0,0,0,0],"id":76,"left_children":[1,3,5,-1,7,-1,9,-1,-1,-1,-1],"loss_changes":[3.7474182E0,8.5962135E1,6.313273E2,0E0,4.905303E1,0E0,6.0344757E1,0E0,0E0,0E0,0E0],"parents":[2147483647,0,0,1,1,2,2,4,4,6,6],"right_children":[2,4,6,-1,8,-1,10,-1,-1,-1,-1],"split_conditions":[1E0,2E0,2E0,4.3132495E-2,1E0,-4.142735E-1,3E0,-4.7162216E-2,3.1385325E-2,7.6238796E-2,-3.2439284E-2],"split_indices":[2,10,10,0,4,0,10,0,0,0,0],"split_type":[0,0,0,0,0,0,0,0,0,0,0],"sum_hessian":[1E3,7.19E2,2.81E2,3.1E2,4.09E2,3.3E1,2.48E2,3.02E2,1.07E2,1.77E2,7.1E1],"tree_param":{"num_deleted":"0","num_feature":"11","num_nodes":"11","size_leaf_vector":"1"}},{"base_weights":[-3.3708194E-3,-2.029464E-2,2.7213708E-1,-3.1972334E-2,3.246636E-1,4.6571413E-1,-2.4575816E-1,2.6435133E-3,-1.7587874E-2,1.017259E-1,-1.0270788E-1,5.8970626E-2,-8.386404E-3],"categories":[],"categories_nodes":[],"categories_segments":[],"categories_sizes":[],"default_left":[0,0,0,0,0,0,0,0,0,0,0,0,0],"id":77,"left_children":[1,3,5,7,9,11,-1,-1,-1,-1,-1,-1,-1],"loss_changes":[4.672832E0,3.813111E0,3.1792358E1,7.687009E0,3.006733E1,3.7973404E0,0E0,0E0,0E0,0E0,0E0,0E0,0E0],"parents":[2147483647,0,0,1,1,2,2,3,3,4,4,5,5],"right_children":[2,4,6,8,10,12,-1,-1,-1,-1,-1,-1,-1],"split_conditions":[1E0,4E0,4E0,1E0,1E0,3E0,-2.4575816E-1,2.6435133E-3,-1.7587874E-2,1.017259E-1,-1.0270788E-1,5.8970626E-2,-8.386404E-3],"split_indices":[9,10,10,2,6,10,0,0,0,0,0,0,0],"split_type":[0,0,0,0,0,0,0,0,0,0,0,0,0],"sum_hessian":[1E3,9.43E2,5.7E1,9.13E2,3E1,5.4E1,3E0,6.5E2,2.63E2,2E1,1E1,4.4E1,1E1],"tree_param":{"num_deleted":"0","num_feature":"11","num_nodes":"13","size_leaf_vector":"1"}},{"base_weights":[-3.2437383E-3,-1.8281229E-2,2.4156031E-1,-2.8790552E-2,2.9216403E-1,4.2006454E-1,-2.273263E-1,2.3796249E-3,-1.5835578E-2,9.203749E-2,-9.33708E-2,5.3204905E-2,-7.624158E-3],"categories":[],"categories_nodes":[],"categories_segments":[],"categories_sizes":[],"default_left":[0,0,0,0,0,0,0,0,0,0,0,0,0],"id":78,"left_children":[1,3,5,7,9,11,-1,-1,-1,-1,-1,-1,-1],"loss_changes":[3.6893356E0,3.0882778E0,2.69915E1,6.231234E0,2.473265E1,3.0973873E0,0E0,0E0,0E0,0E0,0E0,0E0,0E0],"parents":[2147483647,0,0,1,1,2,2,3,3,4,4,5,5],"right_children":[2,4,6,8,10,12,-1,-1,-1,-1,-1,-1,-1],"split_conditions":[1E0,4E0,4E0,1E0,1E0,3E0,-2.273263E-1,2.3796249E-3,-1.5835578E-2,9.203749E-2,-9.33708E-2,5.3204905E-2,-7.624158E-3],"split_indices":[9,10,10,2,6,10,0,0,0,0,0,0,0],"split_type":[0,0,0,0,0,0,0,0,0,0,0,0,0],"sum_hessian":[1E3,9.43E2,5.7E1,9.13E2,3E1,5.4E1,3E0,6.5E2,2.63E2,2E1,1E1,4.4E1,1E1],"tree_param":{"num_deleted":"0","num_feature":"11","num_nodes":"13","size_leaf_vector":"1"}},{"base_weights":[-3.1162507E-3,-1.646925E-2,2.1426904E-1,-2.5926683E-2,2.6290375E-1,3.788851E-1,-2.1027689E-1,2.1419642E-3,-1.425802E-2,-7.645791E-2,9.520813E-2,4.8002403E-2,-6.9309236E-3],"categories":[],"categories_nodes":[],"categories_segments":[],"categories_sizes":[],"default_left":[0,0,0,0,0,0,0,0,0,0,0,0,0],"id":79,"left_children":[1,3,5,7,9,11,-1,-1,-1,-1,-1,-1,-1],"loss_changes":[2.9091773E0,2.5010068E0,2.2919163E1,5.0511813E0,2.26796E1,2.526414E0,0E0,0E0,0E0,0E0,0E0,0E0,0E0],"parents":[2147483647,0,0,1,1,2,2,3,3,4,4,5,5],"right_children":[2,4,6,8,10,12,-1,-1,-1,-1,-1,-1,-1],"split_conditions":[1E0,4E0,4E0,1E0,1E0,3E0,-2.1027689E-1,2.1419642E-3,-1.425802E-2,-7.645791E-2,9.520813E-2,4.8002403E-2,-6.9309236E-3],"split_indices":[9,10,10,2,2,10,0,0,0,0,0,0,0],"split_type":[0,0,0,0,0,0,0,0,0,0,0,0,0],"sum_hessian":[1E3,9.43E2,5.7E1,9.13E2,3E1,5.4E1,3E0,6.5E2,2.63E2,1.2E1,1.8E1,4.4E1,1E1],"tree_param":{"num_deleted":"0","num_feature":"11","num_nodes":"13","size_leaf_vector":"1"}},{"base_weights":[-2.967474E-3,-1.4815688E-2,1.8992358E-1,-2.3347678E-2,2.372183E-1,3.41742E-1,-1.9450608E-1,1.9280557E-3,-1.2837659E-2,7.829174E-2,-8.261361E-2,4.3308668E-2,-6.3008047E-3],"categories":[],"categories_nodes":[],"categories_segments":[],"categories_sizes":[],"default_left":[0,0,0,0,0,0,0,0,0,0,0,0,0],"id":80,"left_children":[1,3,5,7,9,11,-1,-1,-1,-1,-1,-1,-1],"loss_changes":[2.2905138E0,2.0354702E0,1.9464249E1,4.094633E0,1.8635214E1,2.0607333E0,0E0,0E0,0E0,0E0,0E0,0E0,0E0],"parents":[2147483647,0,0,1,1,2,2,3,3,4,4,5,5],"right_children":[2,4,6,8,10,12,-1,-1,-1,-1,-1,-1,-1],"split_conditions":[1E0,4E0,4E0,1E0,1E0,3E0,-1.9450608E-1,1.9280557E-3,-1.2837659E-2,7.829174E-2,-8.261361E-2,4.3308668E-2,-6.3008047E-3],"split_indices":[9,10,10,2,6,10,0,0,0,0,0,0,0],"split_type":[0,0,0,0,0,0,0,0,0,0,0,0,0],"sum_hessian":[1E3,9.43E2,5.7E1,9.13E2,3E1,5.4E1,3E0,6.5E2,2.63E2,2E1,1E1,4.4E1,1E1],"tree_param":{"num_deleted":"0","num_feature":"11","num_nodes":"13","size_leaf_vector":"1"}},{"base_weights":[-2.8425287E-3,-1.33493105E-2,1.6821341E-1,-2.1023845E-2,2.133563E-1,3.0823815E-1,-1.79918E-1,1.73574E-3,-1.1558887E-2,7.2814606E-2,-9.405167E-2,3.9073706E-2,-5.7279067E-3],"categories":[],"categories_nodes":[],"categories_segments":[],"categories_sizes":[],"default_left":[0,0,0,0,0,0,0,0,0,0,0,0,0],"id":81,"left_children":[1,3,5,7,9,11,-1,-1,-1,-1,-1,-1,-1],"loss_changes":[1.8012904E0,1.6469135E0,1.6532633E1,3.3193908E0,1.9098892E1,1.6808934E0,0E0,0E0,0E0,0E0,0E0,0E0,0E0],"parents":[2147483647,0,0,1,1,2,2,3,3,4,4,5,5],"right_children":[2,4,6,8,10,12,-1,-1,-1,-1,-1,-1,-1],"split_conditions":[1E0,4E0,4E0,1E0,1E0,3E0,-1.79918E-1,1.73574E-3,-1.1558887E-2,7.2814606E-2,-9.405167E-2,3.9073706E-2,-5.7279067E-3],"split_indices":[9,10,10,2,4,10,0,0,0,0,0,0,0],"split_type":[0,0,0,0,0,0,0,0,0,0,0,0,0],"sum_hessian":[1E3,9.43E2,5.7E1,9.13E2,3E1,5.4E1,3E0,6.5E2,2.63E2,2.1E1,9E0,4.4E1,1E1],"tree_param":{"num_deleted":"0","num_feature":"11","num_nodes":"13","size_leaf_vector":"1"}},{"base_weights":[-2.7356273E-3,1.5304444E-2,-9.6259855E-2,5.6202738E-3,3.4433207E-1,-4.345124E-2,-8.1722796E-1,-1.4022996E-3,2.7802382E-2,-1.3425747E-1,1.2716964E-1,6.645745E-3,-2.4414586E-2,-4.3105092E-2,-1.3852751E-1],"categories":[],"categories_nodes":[],"categories_segments":[],"categories_sizes":[],"default_left":[0,0,0,0,0,0,0,0,0,0,0,0,0,0,0],"id":82,"left_children":[1,3,5,7,9,11,13,-1,-1,-1,-1,-1,-1,-1,-1],"loss_changes":[1.6903441E0,2.6746066E0,6.132369E0,4.375581E0,3.9252396E1,3.3690538E0,1.8159103E0,0E0,0E0,0E0,0E0,0E0,0E0,0E0,0E0],"parents":[2147483647,0,0,1,1,2,2,3,3,4,4,5,5,6,6],"right_children":[2,4,6,8,10,12,14,-1,-1,-1,-1,-1,-1,-1,-1],"split_conditions":[1E0,4E0,4E0,1E0,1E0,1E0,1E0,-1.4022996E-3,2.7802382E-2,-1.3425747E-1,1.2716964E-1,6.645745E-3,-2.4414586E-2,-4.3105092E-2,-1.3852751E-1],"split_indices":[6,10,10,9,2,2,2,0,0,0,0,0,0,0,0],"split_type":[0,0,0,0,0,0,0,0,0,0,0,0,0,0,0],"sum_hessian":[1E3,8.39E2,1.61E2,8.16E2,2.3E1,1.51E2,1E1,7.62E2,5.4E1,8E0,1.5E1,9.8E1,5.3E1,7E0,3E0],"tree_param":{"num_deleted":"0","num_feature":"11","num_nodes":"15","size_leaf_vector":"1"}},{"base_weights":[-2.6408106E-3,1.3798372E-2,-8.786471E-2,5.0919475E-3,3.0960464E-1,-3.922299E-2,-7.520172E-1,3.3080229E-3,-1.5159319E-2,-1.2232318E-1,1.1524749E-1,5.98789E-3,-2.2018343E-2,-3.9333392E-2,-1.2813795E-1],"categories":[],"categories_nodes":[],"categories_segments":[],"categories_sizes":[],"default_left":[0,0,0,0,0,0,0,0,0,0,0,0,0,0,0],"id":83,"left_children":[1,3,5,7,9,11,13,-1,-1,-1,-1,-1,-1,-1,-1],"loss_changes":[1.4036248E0,2.161772E0,5.203998E0,3.5878437E0,3.2417316E1,2.7390797E0,1.5845976E0,0E0,0E0,0E0,0E0,0E0,0E0,0E0,0E0],"parents":[2147483647,0,0,1,1,2,2,3,3,4,4,5,5,6,6],"right_children":[2,4,6,8,10,12,14,-1,-1,-1,-1,-1,-1,-1,-1],"split_conditions":[1E0,4E0,4E0,3E0,1E0,1E0,1E0,3.3080229E-3,-1.5159319E-2,-1.2232318E-1,1.1524749E-1,5.98789E-3,-2.2018343E-2,-3.9333392E-2,-1.2813795E-1],"split_indices":[6,10,10,10,2,2,2,0,0,0,0,0,0,0,0],"split_type":[0,0,0,0,0,0,0,0,0,0,0,0,0,0,0],"sum_hessian":[1E3,8.39E2,1.61E2,8.16E2,2.3E1,1.51E2,1E1,6.93E2,1.23E2,8E0,1.5E1,9.8E1,5.3E1,7E0,3E0],"tree_param":{"num_deleted":"0","num_feature":"11","num_nodes":"15","size_leaf_vector":"1"}},{"base_weights":[-2.5792667E-3,-1.111287E-2,1.3635695E-1,-1.6899081E-2,1.5984555E-1,2.5083515E-1,-1.4718075E-1,-4.2613917E-3,1.2089978E-2,6.0002673E-2,-8.2453765E-2,3.221139E-2,-6.3562915E-3],"categories":[],"categories_nodes":[],"categories_segments":[],"categories_sizes":[],"default_left":[0,0,0,0,0,0,0,0,0,0,0,0,0],"id":84,"left_children":[1,3,5,7,9,11,-1,-1,-1,-1,-1,-1,-1],"loss_changes":[1.1883274E0,9.365076E-1,1.10469675E1,3.2438881E0,1.3927261E1,1.2530186E0,0E0,0E0,0E0,0E0,0E0,0E0,0E0],"parents":[2147483647,0,0,1,1,2,2,3,3,4,4,5,5],"right_children":[2,4,6,8,10,12,-1,-1,-1,-1,-1,-1,-1],"split_conditions":[1E0,4E0,4E0,1E0,1E0,3E0,-1.4718075E-1,-4.2613917E-3,1.2089978E-2,6.0002673E-2,-8.2453765E-2,3.221139E-2,-6.3562915E-3],"split_indices":[9,10,10,4,4,10,0,0,0,0,0,0,0],"split_type":[0,0,0,0,0,0,0,0,0,0,0,0,0],"sum_hessian":[1E3,9.43E2,5.7E1,9.13E2,3E1,5.4E1,3E0,7.7E2,1.43E2,2.1E1,9E0,4.4E1,1E1],"tree_param":{"num_deleted":"0","num_feature":"11","num_nodes":"13","size_leaf_vector":"1"}},{"base_weights":[-2.456586E-3,1.2490085E-2,-7.994268E-2,4.0239766E-3,3.001701E-1,-3.1172661E-2,-7.465882E-1,-1.1998165E-3,2.262216E-2,-1.0196258E-1,1.0237946E-1,5.816995E-3,-1.9439017E-2,-4.114197E-2,-1.230278E-1],"categories":[],"categories_nodes":[],"categories_segments":[],"categories_sizes":[],"default_left":[0,0,0,0,0,0,0,0,0,0,0,0,0,0,0],"id":85,"left_children":[1,3,5,7,9,11,13,-1,-1,-1,-1,-1,-1,-1,-1],"loss_changes":[1.160316E0,2.0446374E0,5.2437215E0,2.9113011E0,2.396477E1,2.227814E0,1.277133E0,0E0,0E0,0E0,0E0,0E0,0E0,0E0,0E0],"parents":[2147483647,0,0,1,1,2,2,3,3,4,4,5,5,6,6],"right_children":[2,4,6,8,10,12,14,-1,-1,-1,-1,-1,-1,-1,-1],"split_conditions":[1E0,4E0,4E0,1E0,1E0,1E0,1E0,-1.1998165E-3,2.262216E-2,-1.0196258E-1,1.0237946E-1,5.816995E-3,-1.9439017E-2,-4.114197E-2,-1.230278E-1],"split_indices":[6,10,10,9,2,2,2,0,0,0,0,0,0,0,0],"split_type":[0,0,0,0,0,0,0,0,0,0,0,0,0,0,0],"sum_hessian":[1E3,8.39E2,1.61E2,8.16E2,2.3E1,1.51E2,1E1,7.62E2,5.4E1,8E0,1.5E1,9.8E1,5.3E1,7E0,3E0],"tree_param":{"num_deleted":"0","num_feature":"11","num_nodes":"15","size_leaf_vector":"1"}},{"base_weights":[-2.3648518E-3,1.2726149E-2,-6.769309E-2,-2.2381973E-3,2.684999E-2,1.1295951E-1,-3.603134E-1,-2.6980122E-3,6.343818E-3,2.4098601E-2,-7.102694E-2,-6.710284E-2,5.417354E-2],"categories":[],"categories_nodes":[],"categories_segments":[],"categories_sizes":[],"default_left":[0,0,0,0,0,0,0,0,0,0,0,0,0],"id":86,"left_children":[1,3,5,7,-1,9,11,-1,-1,-1,-1,-1,-1],"loss_changes":[9.877159E-1,3.1161757E0,9.978874E0,1.2529306E0,0E0,1.2502394E1,2.054369E1,0E0,0E0,0E0,0E0,0E0,0E0],"parents":[2147483647,0,0,1,1,2,2,3,3,5,5,6,6],"right_children":[2,4,6,8,-1,10,12,-1,-1,-1,-1,-1,-1],"split_conditions":[3E0,1E0,1E0,1E0,2.684999E-2,4E0,4E0,-2.6980122E-3,6.343818E-3,2.4098601E-2,-7.102694E-2,-6.710284E-2,5.417354E-2],"split_indices":[10,9,2,2,0,10,10,0,0,0,0,0,0],"split_type":[0,0,0,0,0,0,0,0,0,0,0,0,0],"sum_hessian":[1E3,8.13E2,1.87E2,7.69E2,4.4E1,1.16E2,7.1E1,5.59E2,2.1E2,1.01E2,1.5E1,5.3E1,1.8E1],"tree_param":{"num_deleted":"0","num_feature":"11","num_nodes":"13","size_leaf_vector":"1"}},{"base_weights":[-2.1575983E-3,1.1237595E-2,-7.160084E-2,3.916612E-3,2.5998783E-1,-2.880665E-2,-6.564296E-1,2.7512757E-3,-1.2817726E-2,-8.658578E-2,8.7702684E-2,4.8856996E-3,-1.7065655E-2,-3.13272E-2,-1.1786373E-1],"categories":[],"categories_nodes":[],"categories_segments":[],"categories_sizes":[],"default_left":[0,0,0,0,0,0,0,0,0,0,0,0,0,0,0],"id":87,"left_children":[1,3,5,7,9,11,13,-1,-1,-1,-1,-1,-1,-1,-1],"loss_changes":[9.3194044E-1,1.5287027E0,4.0355086E0,2.5500388E0,1.7431957E1,1.6828579E0,1.6019607E0,0E0,0E0,0E0,0E0,0E0,0E0,0E0,0E0],"parents":[2147483647,0,0,1,1,2,2,3,3,4,4,5,5,6,6],"right_children":[2,4,6,8,10,12,14,-1,-1,-1,-1,-1,-1,-1,-1],"split_conditions":[1E0,4E0,4E0,3E0,1E0,1E0,1E0,2.7512757E-3,-1.2817726E-2,-8.658578E-2,8.7702684E-2,4.8856996E-3,-1.7065655E-2,-3.13272E-2,-1.1786373E-1],"split_indices":[6,10,10,10,2,2,2,0,0,0,0,0,0,0,0],"split_type":[0,0,0,0,0,0,0,0,0,0,0,0,0,0,0],"sum_hessian":[1E3,8.39E2,1.61E2,8.16E2,2.3E1,1.51E2,1E1,6.93E2,1.23E2,8E0,1.5E1,9.8E1,5.3E1,7E0,3E0],"tree_param":{"num_deleted":"0","num_feature":"11","num_nodes":"15","size_leaf_vector":"1"}},{"base_weights":[-2.1112524E-3,1.0104049E-2,-6.543682E-2,3.5136035E-3,2.340328E-1,-2.600606E-2,-6.0434943E-1,2.4766652E-3,-1.1546324E-2,8.532835E-2,-7.182465E-2,-7.71807E-3,1.6831074E-2,-2.8586065E-2,-1.0902395E-1],"categories":[],"categories_nodes":[],"categories_segments":[],"categories_sizes":[],"default_left":[0,0,0,0,0,0,0,0,0,0,0,0,0,0,0],"id":88,"left_children":[1,3,5,7,9,11,13,-1,-1,-1,-1,-1,-1,-1,-1],"loss_changes":[7.749756E-1,1.2388414E0,3.4267402E0,2.0687425E0,1.4765657E1,1.5244924E0,1.3905993E0,0E0,0E0,0E0,0E0,0E0,0E0,0E0,0E0],"parents":[2147483647,0,0,1,1,2,2,3,3,4,4,5,5,6,6],"right_children":[2,4,6,8,10,12,14,-1,-1,-1,-1,-1,-1,-1,-1],"split_conditions":[1E0,4E0,4E0,3E0,1E0,3E0,1E0,2.4766652E-3,-1.1546324E-2,8.532835E-2,-7.182465E-2,-7.71807E-3,1.6831074E-2,-2.8586065E-2,-1.0902395E-1],"split_indices":[6,10,10,10,4,10,2,0,0,0,0,0,0,0,0],"split_type":[0,0,0,0,0,0,0,0,0,0,0,0,0,0,0],"sum_hessian":[1E3,8.39E2,1.61E2,8.16E2,2.3E1,1.51E2,1E1,6.93E2,1.23E2,1.4E1,9E0,1.2E2,3.1E1,7E0,3E0],"tree_param":{"num_deleted":"0","num_feature":"11","num_nodes":"15","size_leaf_vector":"1"}},{"base_weights":[-2.0229255E-3,-1.3673574E-2,6.2639974E-2,-2.0718625E-2,2.1936005E-1,2.8934267E-1,-4.7098026E-1,-3.4895707E-3,1.7839503E-2,-6.3724756E-2,8.329149E-2,3.2352433E-2,-3.4566626E-2,-5.80461E-2,-1.7927716E-2],"categories":[],"categories_nodes":[],"categories_segments":[],"categories_sizes":[],"default_left":[0,0,0,0,0,0,0,0,0,0,0,0,0,0,0],"id":89,"left_children":[1,3,5,7,9,11,13,-1,-1,-1,-1,-1,-1,-1,-1],"loss_changes":[7.5497454E-1,1.3983768E0,1.8645166E1,2.3350768E0,1.3670168E1,2.4560432E0,1.3649864E0,0E0,0E0,0E0,0E0,0E0,0E0,0E0,0E0],"parents":[2147483647,0,0,1,1,2,2,3,3,4,4,5,5,6,6],"right_children":[2,4,6,8,10,12,14,-1,-1,-1,-1,-1,-1,-1,-1],"split_conditions":[1E0,4E0,1E0,1E0,1E0,4E0,3E0,-3.4895707E-3,1.7839503E-2,-6.3724756E-2,8.329149E-2,3.2352433E-2,-3.4566626E-2,-5.80461E-2,-1.7927716E-2],"split_indices":[4,10,2,9,2,10,10,0,0,0,0,0,0,0,0],"split_type":[0,0,0,0,0,0,0,0,0,0,0,0,0,0,0],"sum_hessian":[1E3,8.48E2,1.52E2,8.24E2,2.4E1,1.07E2,4.5E1,7.7E2,5.4E1,1E1,1.4E1,1.02E2,5E0,3.2E1,1.3E1],"tree_param":{"num_deleted":"0","num_feature":"11","num_nodes":"15","size_leaf_vector":"1"}},{"base_weights":[-1.86395E-3,-1.2265577E-2,5.5867065E-2,-1.8628674E-2,1.9820723E-1,2.6039124E-1,-4.2553464E-1,2.0093574E-4,-1.3872109E-2,-5.793162E-2,7.551773E-2,2.9148975E-2,-3.168653E-2,-5.2417547E-2,-1.6262872E-2],"categories":[],"categories_nodes":[],"categories_segments":[],"categories_sizes":[],"default_left":[0,0,0,0,0,0,0,0,0,0,0,0,0,0,0],"id":90,"left_children":[1,3,5,7,9,11,13,-1,-1,-1,-1,-1,-1,-1,-1],"loss_changes":[6.017822E-1,1.1407231E0,1.5174923E1,2.0450175E0,1.1263918E1,2.0311604E0,1.1076841E0,0E0,0E0,0E0,0E0,0E0,0E0,0E0,0E0],"parents":[2147483647,0,0,1,1,2,2,3,3,4,4,5,5,6,6],"right_children":[2,4,6,8,10,12,14,-1,-1,-1,-1,-1,-1,-1,-1],"split_conditions":[1E0,4E0,1E0,3E0,1E0,4E0,3E0,2.0093574E-4,-1.3872109E-2,-5.793162E-2,7.551773E-2,2.9148975E-2,-3.168653E-2,-5.2417547E-2,-1.6262872E-2],"split_indices":[4,10,2,10,2,10,10,0,0,0,0,0,0,0,0],"split_type":[0,0,0,0,0,0,0,0,0,0,0,0,0,0,0],"sum_hessian":[1E3,8.48E2,1.52E2,8.24E2,2.4E1,1.07E2,4.5E1,7.04E2,1.2E2,1E1,1.4E1,1.02E2,5E0,3.2E1,1.3E1],"tree_param":{"num_deleted":"0","num_feature":"11","num_nodes":"15","size_leaf_vector":"1"}},{"base_weights":[-1.7450327E-3,8.889957E-3,-4.7782995E-2,-3.429743E-3,2.1949617E-2,1.3316865E-1,-3.4116575E-1,-3.4048713E-3,7.7850134E-3,2.2663362E-2,-4.709936E-2,-5.6498237E-2,3.129006E-2],"categories":[],"categories_nodes":[],"categories_segments":[],"categories_sizes":[],"default_left":[0,0,0,0,0,0,0,0,0,0,0,0,0],"id":91,"left_children":[1,3,5,7,-1,9,11,-1,-1,-1,-1,-1,-1],"loss_changes":[4.9052763E-1,2.1127613E0,1.0025995E1,1.9189545E0,0E0,6.713499E0,1.0716929E1,0E0,0E0,0E0,0E0,0E0,0E0],"parents":[2147483647,0,0,1,1,2,2,3,3,5,5,6,6],"right_children":[2,4,6,8,-1,10,12,-1,-1,-1,-1,-1,-1],"split_conditions":[3E0,1E0,1E0,1E0,2.1949617E-2,4E0,4E0,-3.4048713E-3,7.7850134E-3,2.2663362E-2,-4.709936E-2,-5.6498237E-2,3.129006E-2],"split_indices":[10,9,2,2,0,10,10,0,0,0,0,0,0],"split_type":[0,0,0,0,0,0,0,0,0,0,0,0,0],"sum_hessian":[1E3,8.13E2,1.87E2,7.69E2,4.4E1,1.16E2,7.1E1,5.59E2,2.1E2,1.01E2,1.5E1,5.3E1,1.8E1],"tree_param":{"num_deleted":"0","num_feature":"11","num_nodes":"13","size_leaf_vector":"1"}},{"base_weights":[-1.5931563E-3,-1.0933129E-2,5.024495E-2,-3.179873E-2,4.3081835E-2,2.3369485E-1,-3.815558E-1,3.852356E-2,-4.597389E-2,-3.682831E-1,6.638561E-2,2.5967238E-2,-2.5120163E-2,-3.1193107E-2,-8.900925E-2],"categories":[],"categories_nodes":[],"categories_segments":[],"categories_sizes":[],"default_left":[0,0,0,0,0,0,0,0,0,0,0,0,0,0,0],"id":92,"left_children":[1,3,5,7,9,11,13,-1,-1,-1,-1,-1,-1,-1,-1],"loss_changes":[4.8520002E-1,9.582394E-1,1.2208879E1,1.0957659E2,5.506142E2,1.425642E0,1.3510628E0,0E0,0E0,0E0,0E0,0E0,0E0,0E0,0E0],"parents":[2147483647,0,0,1,1,2,2,3,3,4,4,5,5,6,6],"right_children":[2,4,6,8,10,12,14,-1,-1,-1,-1,-1,-1,-1,-1],"split_conditions":[1E0,1E0,1E0,2E0,2E0,4E0,4E0,3.852356E-2,-4.597389E-2,-3.682831E-1,6.638561E-2,2.5967238E-2,-2.5120163E-2,-3.1193107E-2,-8.900925E-2],"split_indices":[4,2,2,10,10,10,10,0,0,0,0,0,0,0,0],"split_type":[0,0,0,0,0,0,0,0,0,0,0,0,0,0,0],"sum_hessian":[1E3,8.48E2,1.52E2,6.12E2,2.36E2,1.07E2,4.5E1,3.1E2,3.02E2,3.3E1,2.03E2,1.02E2,5E0,4.1E1,4E0],"tree_param":{"num_deleted":"0","num_feature":"11","num_nodes":"15","size_leaf_vector":"1"}},{"base_weights":[-1.8630697E-3,-8.320796E-3,1.03274114E-1,-1.8502105E-2,4.4436835E-2,1.8670273E-1,-1.0696878E-1,-2.9796215E-3,3.781461E-2,2.1032998E-2,-3.4601744E-2,2.4298724E-2,-6.052503E-3],"categories":[],"categories_nodes":[],"categories_segments":[],"categories_sizes":[],"default_left":[0,0,0,0,0,0,0,0,0,0,0,0,0],"id":93,"left_children":[1,3,5,7,9,11,-1,-1,-1,-1,-1,-1,-1],"loss_changes":[6.804855E-1,5.0788397E-1,5.8755116E0,3.5592594E0,9.983152E0,7.800368E-1,0E0,0E0,0E0,0E0,0E0,0E0,0E0],"parents":[2147483647,0,0,1,1,2,2,3,3,4,4,5,5],"right_children":[2,4,6,8,10,12,-1,-1,-1,-1,-1,-1,-1],"split_conditions":[1E0,1E0,4E0,4E0,1E0,3E0,-1.0696878E-1,-2.9796215E-3,3.781461E-2,2.1032998E-2,-3.4601744E-2,2.4298724E-2,-6.052503E-3],"split_indices":[9,4,10,10,2,10,0,0,0,0,0,0,0],"split_type":[0,0,0,0,0,0,0,0,0,0,0,0,0],"sum_hessian":[1E3,9.43E2,5.7E1,7.91E2,1.52E2,5.4E1,3E0,7.7E2,2.1E1,1.07E2,4.5E1,4.4E1,1E1],"tree_param":{"num_deleted":"0","num_feature":"11","num_nodes":"13","size_leaf_vector":"1"}},{"base_weights":[-1.7435082E-3,-7.4654766E-3,9.141652E-2,-1.660822E-2,3.9910458E-2,1.6836375E-1,-9.894619E-2,-2.6820768E-3,3.420501E-2,1.8949805E-2,-3.1216282E-2,2.192276E-2,-5.502146E-3],"categories":[],"categories_nodes":[],"categories_segments":[],"categories_sizes":[],"default_left":[0,0,0,0,0,0,0,0,0,0,0,0,0],"id":94,"left_children":[1,3,5,7,9,11,-1,-1,-1,-1,-1,-1,-1],"loss_changes":[5.342743E-1,4.095527E-1,4.9904838E0,2.9101238E0,8.117021E0,6.3698494E-1,0E0,0E0,0E0,0E0,0E0,0E0,0E0],"parents":[2147483647,0,0,1,1,2,2,3,3,4,4,5,5],"right_children":[2,4,6,8,10,12,-1,-1,-1,-1,-1,-1,-1],"split_conditions":[1E0,1E0,4E0,4E0,1E0,3E0,-9.894619E-2,-2.6820768E-3,3.420501E-2,1.8949805E-2,-3.1216282E-2,2.192276E-2,-5.502146E-3],"split_indices":[9,4,10,10,2,10,0,0,0,0,0,0,0],"split_type":[0,0,0,0,0,0,0,0,0,0,0,0,0],"sum_hessian":[1E3,9.43E2,5.7E1,7.91E2,1.52E2,5.4E1,3E0,7.7E2,2.1E1,1.07E2,4.5E1,4.4E1,1E1],"tree_param":{"num_deleted":"0","num_feature":"11","num_nodes":"13","size_leaf_vector":"1"}},{"base_weights":[-1.6324848E-3,8.333956E-3,-4.477637E-2,-2.4250165E-2,1.0156844E-1,1.4386263E-1,-3.5069287E-1,3.524777E-2,-4.2267915E-2,-3.319886E-1,7.545341E-2,2.2708114E-2,-3.9564665E-2,-5.4283973E-2,2.1386629E-2],"categories":[],"categories_nodes":[],"categories_segments":[],"categories_sizes":[],"default_left":[0,0,0,0,0,0,0,0,0,0,0,0,0,0,0],"id":95,"left_children":[1,3,5,7,9,11,13,-1,-1,-1,-1,-1,-1,-1,-1],"loss_changes":[4.3079412E-1,2.4753654E0,1.0899515E1,9.080896E1,4.7389838E2,5.3428106E0,7.926532E0,0E0,0E0,0E0,0E0,0E0,0E0,0E0,0E0],"parents":[2147483647,0,0,1,1,2,2,3,3,4,4,5,5,6,6],"right_children":[2,4,6,8,10,12,14,-1,-1,-1,-1,-1,-1,-1,-1],"split_conditions":[3E0,1E0,1E0,2E0,2E0,4E0,4E0,3.524777E-2,-4.2267915E-2,-3.319886E-1,7.545341E-2,2.2708114E-2,-3.9564665E-2,-5.4283973E-2,2.1386629E-2],"split_indices":[10,2,2,10,10,10,10,0,0,0,0,0,0,0,0],"split_type":[0,0,0,0,0,0,0,0,0,0,0,0,0,0,0],"sum_hessian":[1E3,8.13E2,1.87E2,6.03E2,2.1E2,1.16E2,7.1E1,3.1E2,2.93E2,3.3E1,1.77E2,1.01E2,1.5E1,5.3E1,1.8E1],"tree_param":{"num_deleted":"0","num_feature":"11","num_nodes":"15","size_leaf_vector":"1"}},{"base_weights":[-1.782579E-3,-8.713202E-3,1.1105002E-1,-1.8411469E-2,4.1546542E-2,1.8151307E-1,-8.855796E-2,-2.7712348E-3,3.0837897E-2,1.9743277E-2,-3.253504E-2,2.3912303E-2,-7.066519E-3],"categories":[],"categories_nodes":[],"categories_segments":[],"categories_sizes":[],"default_left":[0,0,0,0,0,0,0,0,0,0,0,0,0],"id":96,"left_children":[1,3,5,7,9,11,-1,-1,-1,-1,-1,-1,-1],"loss_changes":[7.8374976E-1,4.6090114E-1,4.2338276E0,2.4157813E0,8.814944E0,8.1593645E-1,0E0,0E0,0E0,0E0,0E0,0E0,0E0],"parents":[2147483647,0,0,1,1,2,2,3,3,4,4,5,5],"right_children":[2,4,6,8,10,12,-1,-1,-1,-1,-1,-1,-1],"split_conditions":[1E0,1E0,4E0,4E0,1E0,3E0,-8.855796E-2,-2.7712348E-3,3.0837897E-2,1.9743277E-2,-3.253504E-2,2.3912303E-2,-7.066519E-3],"split_indices":[9,4,10,10,2,10,0,0,0,0,0,0,0],"split_type":[0,0,0,0,0,0,0,0,0,0,0,0,0],"sum_hessian":[1E3,9.43E2,5.7E1,7.91E2,1.52E2,5.4E1,3E0,7.7E2,2.1E1,1.07E2,4.5E1,4.4E1,1E1],"tree_param":{"num_deleted":"0","num_feature":"11","num_nodes":"13","size_leaf_vector":"1"}},{"base_weights":[-1.6620043E-3,-7.827147E-3,9.8709665E-2,-1.6536206E-2,3.7306193E-2,1.6366917E-1,-8.1916094E-2,-2.4946062E-3,2.7894268E-2,1.7787073E-2,-2.9352589E-2,2.1574385E-2,-6.4242627E-3],"categories":[],"categories_nodes":[],"categories_segments":[],"categories_sizes":[],"default_left":[0,0,0,0,0,0,0,0,0,0,0,0,0],"id":97,"left_children":[1,3,5,7,9,11,-1,-1,-1,-1,-1,-1,-1],"loss_changes":[6.201971E-1,3.7167394E-1,3.5922875E0,1.975027E0,7.167207E0,6.6662395E-1,0E0,0E0,0E0,0E0,0E0,0E0,0E0],"parents":[2147483647,0,0,1,1,2,2,3,3,4,4,5,5],"right_children":[2,4,6,8,10,12,-1,-1,-1,-1,-1,-1,-1],"split_conditions":[1E0,1E0,4E0,4E0,1E0,3E0,-8.1916094E-2,-2.4946062E-3,2.7894268E-2,1.7787073E-2,-2.9352589E-2,2.1574385E-2,-6.4242627E-3],"split_indices":[9,4,10,10,2,10,0,0,0,0,0,0,0],"split_type":[0,0,0,0,0,0,0,0,0,0,0,0,0],"sum_hessian":[1E3,9.43E2,5.7E1,7.91E2,1.52E2,5.4E1,3E0,7.7E2,2.1E1,1.07E2,4.5E1,4.4E1,1E1],"tree_param":{"num_deleted":"0","num_feature":"11","num_nodes":"13","size_leaf_vector":"1"}},{"base_weights":[-1.5488788E-3,-7.0299124E-3,8.7686375E-2,-1.4850345E-2,3.3498276E-2,1.4757642E-1,-7.577234E-2,-2.2454532E-3,2.5231684E-2,1.6024372E-2,-2.6480619E-2,1.9464739E-2,-5.840267E-3],"categories":[],"categories_nodes":[],"categories_segments":[],"categories_sizes":[],"default_left":[0,0,0,0,0,0,0,0,0,0,0,0,0],"id":98,"left_children":[1,3,5,7,9,11,-1,-1,-1,-1,-1,-1,-1],"loss_changes":[4.9020696E-1,2.996964E-1,3.0484562E0,1.614684E0,5.827168E0,5.446278E-1,0E0,0E0,0E0,0E0,0E0,0E0,0E0],"parents":[2147483647,0,0,1,1,2,2,3,3,4,4,5,5],"right_children":[2,4,6,8,10,12,-1,-1,-1,-1,-1,-1,-1],"split_conditions":[1E0,1E0,4E0,4E0,1E0,3E0,-7.577234E-2,-2.2454532E-3,2.5231684E-2,1.6024372E-2,-2.6480619E-2,1.9464739E-2,-5.840267E-3],"split_indices":[9,4,10,10,2,10,0,0,0,0,0,0,0],"split_type":[0,0,0,0,0,0,0,0,0,0,0,0,0],"sum_hessian":[1E3,9.43E2,5.7E1,7.91E2,1.52E2,5.4E1,3E0,7.7E2,2.1E1,1.07E2,4.5E1,4.4E1,1E1],"tree_param":{"num_deleted":"0","num_feature":"11","num_nodes":"13","size_leaf_vector":"1"}},{"base_weights":[-1.4426747E-3,8.163039E-3,-4.3025695E-2,-2.7402433E-2,1.09932624E-1,1.2277938E-1,-3.1186137E-1,3.2483015E-2,-3.99909E-2,-2.9903707E-1,7.0150785E-2,1.982241E-2,-3.658543E-2,-4.6871286E-2,1.5034084E-2],"categories":[],"categories_nodes":[],"categories_segments":[],"categories_sizes":[],"default_left":[0,0,0,0,0,0,0,0,0,0,0,0,0,0,0],"id":99,"left_children":[1,3,5,7,9,11,13,-1,-1,-1,-1,-1,-1,-1,-1],"loss_changes":[4.0018526E-1,2.949272E0,8.418262E0,7.938011E1,3.8908496E2,4.3857055E0,5.290259E0,0E0,0E0,0E0,0E0,0E0,0E0,0E0,0E0],"parents":[2147483647,0,0,1,1,2,2,3,3,4,4,5,5,6,6],"right_children":[2,4,6,8,10,12,14,-1,-1,-1,-1,-1,-1,-1,-1],"split_conditions":[3E0,1E0,1E0,2E0,2E0,4E0,4E0,3.2483015E-2,-3.99909E-2,-2.9903707E-1,7.0150785E-2,1.982241E-2,-3.658543E-2,-4.6871286E-2,1.5034084E-2],"split_indices":[10,2,2,10,10,10,10,0,0,0,0,0,0,0,0],"split_type":[0,0,0,0,0,0,0,0,0,0,0,0,0,0,0],"sum_hessian":[1E3,8.13E2,1.87E2,6.03E2,2.1E2,1.16E2,7.1E1,3.1E2,2.93E2,3.3E1,1.77E2,1.01E2,1.5E1,5.3E1,1.8E1],"tree_param":{"num_deleted":"0","num_feature":"11","num_nodes":"15","size_leaf_vector":"1"}}]},"name":"gbtree"},"learner_model_param":{"base_score":"[6.0330406E1]","boost_from_average":"1","num_class":"0","num_feature":"11","num_target":"1"},"objective":{"name":"reg:squarederror","reg_loss_param":{"scale_pos_weight":"1"}}},"version":[3,1,2]}