{"learner":{"attributes":{},"feature_names":["has_dimensions","has_units","has_x_separator","is_heavy","is_large","is_long","is_small","is_strong","is_thick","is_thin","word_count"],"feature_types":["int","int","int","int","int","int","int","int","int","int","int"],"gradient_booster":{"model":{"cats":{"enc":[],"feature_segments":[],"sorted_idx":[]},"gbtree_model_param":{"num_parallel_tree":"1","num_trees":"100"},"iteration_indptr":[0,1,2,3,4,5,6,7,8,9,10,11,12,13,14,15,16,17,18,19,20,21,22,23,24,25,26,27,28,29,30,31,32,33,34,35,36,37,38,39,40,41,42,43,44,45,46,47,48,49,50,51,52,53,54,55,56,57,58,59,60,61,62,63,64,65,66,67,68,69,70,71,72,73,74,75,76,77,78,79,80,81,82,83,84,85,86,87,88,89,90,91,92,93,94,95,96,97,98,99,100],"tree_info":[0,0,0,0,0,0,0,0,0,0,0,0,0,0,0,0,0,0,0,0,0,0,0,0,0,0,0,0,0,0,0,0,0,0,0,0,0,0,0,0,0,0,0,0,0,0,0,0,0,0,0,0,0,0,0,0,0,0,0,0,0,0,0,0,0,0,0,0,0,0,0,0,0,0,0,0,0,0,0,0,0,0,0,0,0,0,0,0,0,0,0,0,0,0,0,0,0,0,0,0],"trees":[{"base_weights":[7.39312E-7,-1.9715912E1,1.0940399E1,-2.6182198E1,-2.9076922E0,-2.4097314E0,-3.5926907E0,7.3959845E-1,-3.557537E0],"categories":[],"categories_nodes":[],"categories_segments":[],"categories_sizes":[],"default_left":[0,0,0,0,0,0,0,0,0],"id":0,"left_children":[1,3,-1,5,7,-1,-1,-1,-1],"loss_changes":[2.1613135E6,9.219891E4,0E0,1.15883125E4,8.003665E4,0E0,0E0,0E0,0E0],"parents":[2147483647,0,0,1,1,3,3,4,4],"right_children":[2,4,-1,6,8,-1,-1,-1,-1],"split_conditions":[1E0,1E0,1.0940399E1,1E0,1E0,-2.4097314E0,-3.5926907E0,7.3959845E-1,-3.557537E0],"split_indices":[4,2,0,6,6,0,0,0,0],"split_type":[0,0,0,0,0,0,0,0,0],"sum_hessian":[1E3,8.48E2,1.52E2,6.12E2,2.36E2,5.07E2,1.05E2,1.8E2,5.6E1],"tree_param":{"num_deleted":"0","num_feature":"11","num_nodes":"9","size_leaf_vector":"1"}},{"base_weights":[2.1194397E-3,-1.775471E1,9.85351E0,-2.3573769E1,-2.6288123E0,-2.1692324E0,-3.2368112E0,6.6604733E-1,-3.208025E0],"categories":[],"categories_nodes":[],"categories_segments":[],"categories_sizes":[],"default_left":[0,0,0,0,0,0,0,0,0],"id":1,"left_children":[1,3,-1,5,7,-1,-1,-1,-1],"loss_changes":[1.7531324E6,7.466569E4,0E0,9.440594E3,6.5052793E4,0E0,0E0,0E0,0E0],"parents":[2147483647,0,0,1,1,3,3,4,4],"right_children":[2,4,-1,6,8,-1,-1,-1,-1],"split_conditions":[1E0,1E0,9.85351E0,1E0,1E0,-2.1692324E0,-3.2368112E0,6.6604733E-1,-3.208025E0],"split_indices":[4,2,0,6,6,0,0,0,0],"split_type":[0,0,0,0,0,0,0,0,0],"sum_hessian":[1E3,8.48E2,1.52E2,6.12E2,2.36E2,5.07E2,1.05E2,1.8E2,5.6E1],"tree_param":{"num_deleted":"0","num_feature":"11","num_nodes":"9","size_leaf_vector":"1"}},{"base_weights":[3.8101051E-3,-1.59886E1,8.8745985E0,-2.122521E1,-2.376656E0,-1.9527361E0,-2.9161832E0,5.998107E-1,-2.8928506E0],"categories":[],"categories_nodes":[],"categories_segments":[],"categories_sizes":[],"default_left":[0,0,0,0,0,0,0,0,0],"id":2,"left_children":[1,3,-1,5,7,-1,-1,-1,-1],"loss_changes":[1.4220394E6,6.0466625E4,0E0,7.6908438E3,5.287413E4,0E0,0E0,0E0,0E0],"parents":[2147483647,0,0,1,1,3,3,4,4],"right_children":[2,4,-1,6,8,-1,-1,-1,-1],"split_conditions":[1E0,1E0,8.8745985E0,1E0,1E0,-1.9527361E0,-2.9161832E0,5.998107E-1,-2.8928506E0],"split_indices":[4,2,0,6,6,0,0,0,0],"split_type":[0,0,0,0,0,0,0,0,0],"sum_hessian":[1E3,8.48E2,1.52E2,6.12E2,2.36E2,5.07E2,1.05E2,1.8E2,5.6E1],"tree_param":{"num_deleted":"0","num_feature":"11","num_nodes":"9","size_leaf_vector":"1"}},{"base_weights":[5.1401826E-3,-1.4398176E1,7.992939E1,-1.9110632E1,-2.1486664E0,8.396954E0,6.8706245E0,-1.7966877E0,-2.9745414E0,5.4016095E-1,-2.6086407E0],"categories":[],"categories_nodes":[],"categories_segments":[],"categories_sizes":[],"default_left":[0,0,0,0,0,0,0,0,0,0,0],"id":3,"left_children":[1,3,5,7,9,-1,-1,-1,-1,-1,-1],"loss_changes":[1.1534764E6,4.8967703E4,1.1681875E3,6.9218594E3,4.297547E4,0E0,0E0,0E0,0E0,0E0,0E0],"parents":[2147483647,0,0,1,1,2,2,3,3,4,4],"right_children":[2,4,6,8,10,-1,-1,-1,-1,-1,-1],"split_conditions":[1E0,1E0,1E0,1E0,1E0,8.396954E0,6.8706245E0,-1.7966877E0,-2.9745414E0,5.4016095E-1,-2.6086407E0],"split_indices":[4,2,2,9,6,0,0,0,0,0,0],"split_type":[0,0,0,0,0,0,0,0,0,0,0],"sum_hessian":[1E3,8.48E2,1.52E2,6.12E2,2.36E2,1.07E2,4.5E1,5.55E2,5.7E1,1.8E2,5.6E1],"tree_param":{"num_deleted":"0","num_feature":"11","num_nodes":"11","size_leaf_vector":"1"}},{"base_weights":[1.3045947E-2,-1.2966414E1,7.203624E1,-1.7207352E1,-1.9425277E0,7.565034E0,6.198498E0,-1.5653158E0,-2.4493425E0,4.8644325E-1,-2.3523533E0],"categories":[],"categories_nodes":[],"categories_segments":[],"categories_sizes":[],"default_left":[0,0,0,0,0,0,0,0,0,0,0],"id":4,"left_children":[1,3,5,7,9,-1,-1,-1,-1,-1,-1],"loss_changes":[9.3669106E5,3.9658688E4,8.686875E2,6.558203E3,3.4929973E4,0E0,0E0,0E0,0E0,0E0,0E0],"parents":[2147483647,0,0,1,1,2,2,3,3,4,4],"right_children":[2,4,6,8,10,-1,-1,-1,-1,-1,-1],"split_conditions":[1E0,1E0,1E0,1E0,1E0,7.565034E0,6.198498E0,-1.5653158E0,-2.4493425E0,4.8644325E-1,-2.3523533E0],"split_indices":[4,2,2,6,6,0,0,0,0,0,0],"split_type":[0,0,0,0,0,0,0,0,0,0,0],"sum_hessian":[1E3,8.48E2,1.52E2,6.12E2,2.36E2,1.07E2,4.5E1,5.07E2,1.05E2,1.8E2,5.6E1],"tree_param":{"num_deleted":"0","num_feature":"11","num_nodes":"11","size_leaf_vector":"1"}},{"base_weights":[1.9616274E-2,-1.16767E1,6.492258E1,-1.5493167E1,-1.7561473E0,6.815535E0,5.5921226E0,-1.4443973E0,-2.5283833E0,4.3806773E-1,-2.121245E0],"categories":[],"categories_nodes":[],"categories_segments":[],"categories_sizes":[],"default_left":[0,0,0,0,0,0,0,0,0,0,0],"id":5,"left_children":[1,3,5,7,9,-1,-1,-1,-1,-1,-1],"loss_changes":[7.6064275E5,3.2117172E4,6.40875E2,5.9317344E3,2.8390703E4,0E0,0E0,0E0,0E0,0E0,0E0],"parents":[2147483647,0,0,1,1,2,2,3,3,4,4],"right_children":[2,4,6,8,10,-1,-1,-1,-1,-1,-1],"split_conditions":[1E0,1E0,1E0,1E0,1E0,6.815535E0,5.5921226E0,-1.4443973E0,-2.5283833E0,4.3806773E-1,-2.121245E0],"split_indices":[4,2,2,9,6,0,0,0,0,0,0],"split_type":[0,0,0,0,0,0,0,0,0,0,0],"sum_hessian":[1E3,8.48E2,1.52E2,6.12E2,2.36E2,1.07E2,4.5E1,5.55E2,5.7E1,1.8E2,5.6E1],"tree_param":{"num_deleted":"0","num_feature":"11","num_nodes":"11","size_leaf_vector":"1"}},{"base_weights":[2.4398996E-2,-1.0515692E1,5.851141E1,-1.3950331E1,-1.5876352E0,6.140292E0,5.045067E0,-1.2527741E0,-2.0636418E0,3.9450294E-1,-1.9128418E0],"categories":[],"categories_nodes":[],"categories_segments":[],"categories_sizes":[],"default_left":[0,0,0,0,0,0,0,0,0,0,0],"id":6,"left_children":[1,3,5,7,9,-1,-1,-1,-1,-1,-1],"loss_changes":[6.176901E5,2.6012133E4,4.6828125E2,5.5720547E3,2.3075664E4,0E0,0E0,0E0,0E0,0E0,0E0],"parents":[2147483647,0,0,1,1,2,2,3,3,4,4],"right_children":[2,4,6,8,10,-1,-1,-1,-1,-1,-1],"split_conditions":[1E0,1E0,1E0,1E0,1E0,6.140292E0,5.045067E0,-1.2527741E0,-2.0636418E0,3.9450294E-1,-1.9128418E0],"split_indices":[4,2,2,6,6,0,0,0,0,0,0],"split_type":[0,0,0,0,0,0,0,0,0,0,0],"sum_hessian":[1E3,8.48E2,1.52E2,6.12E2,2.36E2,1.07E2,4.5E1,5.07E2,1.05E2,1.8E2,5.6E1],"tree_param":{"num_deleted":"0","num_feature":"11","num_nodes":"11","size_leaf_vector":"1"}},{"base_weights":[2.8302966E-2,-9.469818E0,5.273338E1,-1.2560709E1,-1.4352793E0,5.5319486E0,4.551528E0,-1.1598523E0,-2.156787E0,-2.3353047E0,2.2247176E-1],"categories":[],"categories_nodes":[],"categories_segments":[],"categories_sizes":[],"default_left":[0,0,0,0,0,0,0,0,0,0,0],"id":7,"left_children":[1,3,5,7,9,-1,-1,-1,-1,-1,-1],"loss_changes":[5.0159916E5,2.1065938E4,3.38125E2,5.062453E3,1.906385E4,0E0,0E0,0E0,0E0,0E0,0E0],"parents":[2147483647,0,0,1,1,2,2,3,3,4,4],"right_children":[2,4,6,8,10,-1,-1,-1,-1,-1,-1],"split_conditions":[1E0,1E0,1E0,1E0,2E0,5.5319486E0,4.551528E0,-1.1598523E0,-2.156787E0,-2.3353047E0,2.2247176E-1],"split_indices":[4,2,2,9,10,0,0,0,0,0,0],"split_type":[0,0,0,0,0,0,0,0,0,0,0],"sum_hessian":[1E3,8.48E2,1.52E2,6.12E2,2.36E2,1.07E2,4.5E1,5.55E2,5.7E1,3.3E1,2.03E2],"tree_param":{"num_deleted":"0","num_feature":"11","num_nodes":"11","size_leaf_vector":"1"}},{"base_weights":[3.0121837E-2,-8.529231E0,4.7525944E1,-1.1310048E1,-1.300667E0,4.9838753E0,4.1062694E0,-1.0008005E0,-1.7443331E0,3.7977955E-1,-1.7467703E0],"categories":[],"categories_nodes":[],"categories_segments":[],"categories_sizes":[],"default_left":[0,0,0,0,0,0,0,0,0,0,0],"id":8,"left_children":[1,3,5,7,9,-1,-1,-1,-1,-1,-1],"loss_changes":[4.073454E5,1.70513E4,2.405625E2,4.7207188E3,1.9601543E4,0E0,0E0,0E0,0E0,0E0,0E0],"parents":[2147483647,0,0,1,1,2,2,3,3,4,4],"right_children":[2,4,6,8,10,-1,-1,-1,-1,-1,-1],"split_conditions":[1E0,1E0,1E0,1E0,1E0,4.9838753E0,4.1062694E0,-1.0008005E0,-1.7443331E0,3.7977955E-1,-1.7467703E0],"split_indices":[4,2,2,6,6,0,0,0,0,0,0],"split_type":[0,0,0,0,0,0,0,0,0,0,0],"sum_hessian":[1E3,8.48E2,1.52E2,6.12E2,2.36E2,1.07E2,4.5E1,5.07E2,1.05E2,1.8E2,5.6E1],"tree_param":{"num_deleted":"0","num_feature":"11","num_nodes":"11","size_leaf_vector":"1"}},{"base_weights":[3.2083422E-2,-7.6811514E0,4.2832764E1,-1.018352E1,-1.1763684E0,4.490103E0,3.7045692E1,-9.301338E-1,-1.8464724E0,-2.1455038E0,2.2091766E-1,3.2683659E0,4.4681506E0],"categories":[],"categories_nodes":[],"categories_segments":[],"categories_sizes":[],"default_left":[0,0,0,0,0,0,0,0,0,0,0,0,0],"id":9,"left_children":[1,3,5,7,9,-1,11,-1,-1,-1,-1,-1,-1],"loss_changes":[3.307908E5,1.3807508E4,1.6790625E2,4.306547E3,1.6318479E4,0E0,7.180078E1,0E0,0E0,0E0,0E0,0E0,0E0],"parents":[2147483647,0,0,1,1,2,2,3,3,4,4,6,6],"right_children":[2,4,6,8,10,-1,12,-1,-1,-1,-1,-1,-1],"split_conditions":[1E0,1E0,1E0,1E0,2E0,4.490103E0,3E0,-9.301338E-1,-1.8464724E0,-2.1455038E0,2.2091766E-1,3.2683659E0,4.4681506E0],"split_indices":[4,2,2,9,10,0,10,0,0,0,0,0,0],"split_type":[0,0,0,0,0,0,0,0,0,0,0,0,0],"sum_hessian":[1E3,8.48E2,1.52E2,6.12E2,2.36E2,1.07E2,4.5E1,5.55E2,5.7E1,3.3E1,2.03E2,3.2E1,1.3E1],"tree_param":{"num_deleted":"0","num_feature":"11","num_nodes":"13","size_leaf_vector":"1"}},{"base_weights":[3.6392964E-2,-6.9185734E0,3.86294E1,-4.9352956E0,-1.5298675E0,4.04525E1,3.350931E1,-7.978053E-1,3.6318645E-1,4.106568E0,2.318418E0,2.9514337E0,4.0532513E0],"categories":[],"categories_nodes":[],"categories_segments":[],"categories_sizes":[],"default_left":[0,0,0,0,0,0,0,0,0,0,0,0,0],"id":10,"left_children":[1,3,5,7,-1,9,11,-1,-1,-1,-1,-1,-1],"loss_changes":[2.6894875E5,1.4034934E4,7.2640625E1,1.7963613E4,0E0,1.9148438E2,9.4359375E1,0E0,0E0,0E0,0E0,0E0,0E0],"parents":[2147483647,0,0,1,1,2,2,3,3,5,5,6,6],"right_children":[2,4,6,8,-1,10,12,-1,-1,-1,-1,-1,-1],"split_conditions":[1E0,1E0,1E0,1E0,-1.5298675E0,4E0,3E0,-7.978053E-1,3.6318645E-1,4.106568E0,2.318418E0,2.9514337E0,4.0532513E0],"split_indices":[4,6,2,2,0,10,10,0,0,0,0,0,0],"split_type":[0,0,0,0,0,0,0,0,0,0,0,0,0],"sum_hessian":[1E3,8.48E2,1.52E2,6.87E2,1.61E2,1.07E2,4.5E1,5.07E2,1.8E2,1.02E2,5E0,3.2E1,1.3E1],"tree_param":{"num_deleted":"0","num_feature":"11","num_nodes":"13","size_leaf_vector":"1"}},{"base_weights":[4.420778E-2,-6.2290297E0,3.4854237E1,-4.4423976E0,-1.3778251E0,3.646674E1,3.0310656E1,-7.181818E-1,3.2706854E-1,3.6998982E0,2.1252162E0,2.6652343E0,3.676878E0],"categories":[],"categories_nodes":[],"categories_segments":[],"categories_sizes":[],"default_left":[0,0,0,0,0,0,0,0,0,0,0,0,0],"id":11,"left_children":[1,3,5,7,-1,9,11,-1,-1,-1,-1,-1,-1],"loss_changes":[2.1880705E5,1.1389832E4,1.5625E1,1.4560502E4,0E0,8.825E1,1.0681641E2,0E0,0E0,0E0,0E0,0E0,0E0],"parents":[2147483647,0,0,1,1,2,2,3,3,5,5,6,6],"right_children":[2,4,6,8,-1,10,12,-1,-1,-1,-1,-1,-1],"split_conditions":[1E0,1E0,1E0,1E0,-1.3778251E0,4E0,3E0,-7.181818E-1,3.2706854E-1,3.6998982E0,2.1252162E0,2.6652343E0,3.676878E0],"split_indices":[4,6,2,2,0,10,10,0,0,0,0,0,0],"split_type":[0,0,0,0,0,0,0,0,0,0,0,0,0],"sum_hessian":[1E3,8.48E2,1.52E2,6.87E2,1.61E2,1.07E2,4.5E1,5.07E2,1.8E2,1.02E2,5E0,3.2E1,1.3E1],"tree_param":{"num_deleted":"0","num_feature":"11","num_nodes":"13","size_leaf_vector":"1"}},{"base_weights":[5.0174784E-2,-5.60821E0,3.1448336E0,-3.9987261E0,-1.2408932E0,-6.46505E-1,2.945424E-1],"categories":[],"categories_nodes":[],"categories_segments":[],"categories_sizes":[],"default_left":[0,0,0,0,0,0,0],"id":12,"left_children":[1,3,-1,5,-1,-1,-1],"loss_changes":[1.7801692E5,9.243242E3,0E0,1.1802089E4,0E0,0E0,0E0],"parents":[2147483647,0,0,1,1,3,3],"right_children":[2,4,-1,6,-1,-1,-1],"split_conditions":[1E0,1E0,3.1448336E0,1E0,-1.2408932E0,-6.46505E-1,2.945424E-1],"split_indices":[4,6,0,2,0,0,0],"split_type":[0,0,0,0,0,0,0],"sum_hessian":[1E3,8.48E2,1.52E2,6.87E2,1.61E2,5.07E2,1.8E2],"tree_param":{"num_deleted":"0","num_feature":"11","num_nodes":"7","size_leaf_vector":"1"}},{"base_weights":[4.6707176E-2,-5.0492654E0,2.8324055E1,-3.5993652E0,-1.1175698E0,2.9758286E1,2.4340988E1,-5.819817E-1,2.652507E-1,3.02207E0,1.6860455E0,2.101833E0,3.043433E0],"categories":[],"categories_nodes":[],"categories_segments":[],"categories_sizes":[],"default_left":[0,0,0,0,0,0,0,0,0,0,0,0,0],"id":13,"left_children":[1,3,5,7,-1,9,11,-1,-1,-1,-1,-1,-1],"loss_changes":[1.443877E5,7.501199E3,1.496875E2,9.56624E3,0E0,1.3459375E2,2.9164258E2,0E0,0E0,0E0,0E0,0E0,0E0],"parents":[2147483647,0,0,1,1,2,2,3,3,5,5,6,6],"right_children":[2,4,6,8,-1,10,12,-1,-1,-1,-1,-1,-1],"split_conditions":[1E0,1E0,1E0,1E0,-1.1175698E0,4E0,3E0,-5.819817E-1,2.652507E-1,3.02207E0,1.6860455E0,2.101833E0,3.043433E0],"split_indices":[4,6,2,2,0,10,10,0,0,0,0,0,0],"split_type":[0,0,0,0,0,0,0,0,0,0,0,0,0],"sum_hessian":[1E3,8.48E2,1.52E2,6.87E2,1.61E2,1.07E2,4.5E1,5.07E2,1.8E2,1.02E2,5E0,3.2E1,1.3E1],"tree_param":{"num_deleted":"0","num_feature":"11","num_nodes":"13","size_leaf_vector":"1"}},{"base_weights":[5.0446954E-2,-4.5460286E0,2.555605E1,-3.2398894E0,-1.0065026E0,2.6826048E1,2.2018745E1,-5.238981E-1,2.3887213E-1,2.722797E0,1.5455419E0,1.8980192E0,2.7608283E0],"categories":[],"categories_nodes":[],"categories_segments":[],"categories_sizes":[],"default_left":[0,0,0,0,0,0,0,0,0,0,0,0,0],"id":14,"left_children":[1,3,5,7,-1,9,11,-1,-1,-1,-1,-1,-1],"loss_changes":[1.1746929E5,6.0874746E3,9.666406E1,7.753965E3,0E0,7.274219E1,2.572578E2,0E0,0E0,0E0,0E0,0E0,0E0],"parents":[2147483647,0,0,1,1,2,2,3,3,5,5,6,6],"right_children":[2,4,6,8,-1,10,12,-1,-1,-1,-1,-1,-1],"split_conditions":[1E0,1E0,1E0,1E0,-1.0065026E0,4E0,3E0,-5.238981E-1,2.3887213E-1,2.722797E0,1.5455419E0,1.8980192E0,2.7608283E0],"split_indices":[4,6,2,2,0,10,10,0,0,0,0,0,0],"split_type":[0,0,0,0,0,0,0,0,0,0,0,0,0],"sum_hessian":[1E3,8.48E2,1.52E2,6.87E2,1.61E2,1.07E2,4.5E1,5.07E2,1.8E2,1.02E2,5E0,3.2E1,1.3E1],"tree_param":{"num_deleted":"0","num_feature":"11","num_nodes":"13","size_leaf_vector":"1"}},{"base_weights":[5.3030256E-2,-4.0929465E0,2.305879E1,-3.4034138E0,-1.3438065E0,2.418296E1,1.9918152E1,-1.9445583E-1,-9.0647376E-1,2.4531603E0,1.416747E0,1.7139691E0,2.5044658E0],"categories":[],"categories_nodes":[],"categories_segments":[],"categories_sizes":[],"default_left":[0,0,0,0,0,0,0,0,0,0,0,0,0],"id":15,"left_children":[1,3,5,7,-1,9,11,-1,-1,-1,-1,-1,-1],"loss_changes":[9.55711E4,5.4250195E3,5.8507812E1,6.523544E3,0E0,2.95625E1,2.2595703E2,0E0,0E0,0E0,0E0,0E0,0E0],"parents":[2147483647,0,0,1,1,2,2,3,3,5,5,6,6],"right_children":[2,4,6,8,-1,10,12,-1,-1,-1,-1,-1,-1],"split_conditions":[1E0,1E0,1E0,1E0,-1.3438065E0,4E0,3E0,-1.9445583E-1,-9.0647376E-1,2.4531603E0,1.416747E0,1.7139691E0,2.5044658E0],"split_indices":[4,9,2,6,0,10,10,0,0,0,0,0,0],"split_type":[0,0,0,0,0,0,0,0,0,0,0,0,0],"sum_hessian":[1E3,8.48E2,1.52E2,7.91E2,5.7E1,1.07E2,4.5E1,6.3E2,1.61E2,1.02E2,5E0,3.2E1,1.3E1],"tree_param":{"num_deleted":"0","num_feature":"11","num_nodes":"13","size_leaf_vector":"1"}},{"base_weights":[5.3365618E-2,-3.6865315E0,2.080578E1,-3.0644627E0,-1.2117428E0,2.1800503E1,1.8018044E1,-1.7504111E-1,-8.163859E-1,2.2102265E0,1.2986846E0,1.5477662E0,2.2719085E0],"categories":[],"categories_nodes":[],"categories_segments":[],"categories_sizes":[],"default_left":[0,0,0,0,0,0,0,0,0,0,0,0,0],"id":16,"left_children":[1,3,5,7,-1,9,11,-1,-1,-1,-1,-1,-1],"loss_changes":[7.776621E4,4.4155293E3,3.146875E1,5.292799E3,0E0,2.03125E-1,1.9771387E2,0E0,0E0,0E0,0E0,0E0,0E0],"parents":[2147483647,0,0,1,1,2,2,3,3,5,5,6,6],"right_children":[2,4,6,8,-1,10,12,-1,-1,-1,-1,-1,-1],"split_conditions":[1E0,1E0,1E0,1E0,-1.2117428E0,4E0,3E0,-1.7504111E-1,-8.163859E-1,2.2102265E0,1.2986846E0,1.5477662E0,2.2719085E0],"split_indices":[4,9,2,6,0,10,10,0,0,0,0,0,0],"split_type":[0,0,0,0,0,0,0,0,0,0,0,0,0],"sum_hessian":[1E3,8.48E2,1.52E2,7.91E2,5.7E1,1.07E2,4.5E1,6.3E2,1.61E2,1.02E2,5E0,3.2E1,1.3E1],"tree_param":{"num_deleted":"0","num_feature":"11","num_nodes":"13","size_leaf_vector":"1"}},{"base_weights":[5.3149987E-2,-3.3204732E0,1.8773104E1,-2.759268E0,-1.0926577E0,1.7671635E1,2.1100118E0,-1.5756473E-1,-7.3525125E-1,1.9008276E0,1.3976797E0],"categories":[],"categories_nodes":[],"categories_segments":[],"categories_sizes":[],"default_left":[0,0,0,0,0,0,0,0,0,0,0],"id":17,"left_children":[1,3,5,7,-1,9,-1,-1,-1,-1,-1],"loss_changes":[6.3279566E4,3.593878E3,1.9285156E1,4.2942495E3,0E0,2.7757812E2,0E0,0E0,0E0,0E0,0E0],"parents":[2147483647,0,0,1,1,2,2,3,3,5,5],"right_children":[2,4,6,8,-1,10,-1,-1,-1,-1,-1],"split_conditions":[1E0,1E0,3E0,1E0,-1.0926577E0,1E0,2.1100118E0,-1.5756473E-1,-7.3525125E-1,1.9008276E0,1.3976797E0],"split_indices":[4,9,10,6,0,2,0,0,0,0,0],"split_type":[0,0,0,0,0,0,0,0,0,0,0],"sum_hessian":[1E3,8.48E2,1.52E2,7.91E2,5.7E1,1.09E2,4.3E1,6.3E2,1.61E2,7.7E1,3.2E1],"tree_param":{"num_deleted":"0","num_feature":"11","num_nodes":"11","size_leaf_vector":"1"}},{"base_weights":[5.1254112E-2,-2.9907644E0,1.6931139E1,-4.244867E0,2.6558816E-1,1.5934453E1,1.903806E0,-3.6522365E-1,-9.8527586E-1,-2.0306208E0,3.692919E-1,1.7131814E0,1.2621468E0],"categories":[],"categories_nodes":[],"categories_segments":[],"categories_sizes":[],"default_left":[0,0,0,0,0,0,0,0,0,0,0,0,0],"id":18,"left_children":[1,3,5,7,9,11,-1,-1,-1,-1,-1,-1,-1],"loss_changes":[5.1450914E4,3.4682734E3,1.7929688E1,2.0012646E3,1.6784994E4,2.2012305E2,0E0,0E0,0E0,0E0,0E0,0E0,0E0],"parents":[2147483647,0,0,1,1,2,2,3,3,4,4,5,5],"right_children":[2,4,6,8,10,12,-1,-1,-1,-1,-1,-1,-1],"split_conditions":[1E0,1E0,3E0,1E0,2E0,1E0,1.903806E0,-3.6522365E-1,-9.8527586E-1,-2.0306208E0,3.692919E-1,1.7131814E0,1.2621468E0],"split_indices":[4,2,10,9,10,2,0,0,0,0,0,0,0],"split_type":[0,0,0,0,0,0,0,0,0,0,0,0,0],"sum_hessian":[1E3,8.48E2,1.52E2,6.12E2,2.36E2,1.09E2,4.3E1,5.55E2,5.7E1,3.3E1,2.03E2,7.7E1,3.2E1],"tree_param":{"num_deleted":"0","num_feature":"11","num_nodes":"13","size_leaf_vector":"1"}},{"base_weights":[4.7993615E-2,-2.6952362E0,1.5269916E1,-1.7924304E0,-6.512737E0,1.4368057E1,1.7177519E0,-3.4058052E-1,2.7456185E-1,-5.783914E-1,-7.753834E-1,1.5440596E0,1.1397569E0],"categories":[],"categories_nodes":[],"categories_segments":[],"categories_sizes":[],"default_left":[0,0,0,0,0,0,0,0,0,0,0,0,0],"id":19,"left_children":[1,3,5,7,9,11,-1,-1,-1,-1,-1,-1,-1],"loss_changes":[4.184014E4,2.914372E3,1.6410156E1,5.0465938E3,1.0168799E2,1.7447266E2,0E0,0E0,0E0,0E0,0E0,0E0,0E0],"parents":[2147483647,0,0,1,1,2,2,3,3,4,4,5,5],"right_children":[2,4,6,8,10,12,-1,-1,-1,-1,-1,-1,-1],"split_conditions":[1E0,1E0,3E0,1E0,1E0,1E0,1.7177519E0,-3.4058052E-1,2.7456185E-1,-5.783914E-1,-7.753834E-1,1.5440596E0,1.1397569E0],"split_indices":[4,6,10,2,2,2,0,0,0,0,0,0,0],"split_type":[0,0,0,0,0,0,0,0,0,0,0,0,0],"sum_hessian":[1E3,8.48E2,1.52E2,6.87E2,1.61E2,1.09E2,4.3E1,5.07E2,1.8E2,1.05E2,5.6E1,7.7E1,3.2E1],"tree_param":{"num_deleted":"0","num_feature":"11","num_nodes":"13","size_leaf_vector":"1"}},{"base_weights":[4.617296E-2,-2.4273853E0,1.3771694E1,-1.6132839E0,-5.86982E0,1.2955655E1,1.54988E0,-3.0658957E-1,2.4725726E-1,-5.210979E-1,-6.992054E-1,1.3916339E0,1.0292352E0],"categories":[],"categories_nodes":[],"categories_segments":[],"categories_sizes":[],"default_left":[0,0,0,0,0,0,0,0,0,0,0,0,0],"id":20,"left_children":[1,3,5,7,9,11,-1,-1,-1,-1,-1,-1,-1],"loss_changes":[3.4018258E4,2.3698457E3,1.4839844E1,4.090973E3,8.334277E1,1.3821289E2,0E0,0E0,0E0,0E0,0E0,0E0,0E0],"parents":[2147483647,0,0,1,1,2,2,3,3,4,4,5,5],"right_children":[2,4,6,8,10,12,-1,-1,-1,-1,-1,-1,-1],"split_conditions":[1E0,1E0,3E0,1E0,1E0,1E0,1.54988E0,-3.0658957E-1,2.4725726E-1,-5.210979E-1,-6.992054E-1,1.3916339E0,1.0292352E0],"split_indices":[4,6,10,2,2,2,0,0,0,0,0,0,0],"split_type":[0,0,0,0,0,0,0,0,0,0,0,0,0],"sum_hessian":[1E3,8.48E2,1.52E2,6.87E2,1.61E2,1.09E2,4.3E1,5.07E2,1.8E2,1.05E2,5.6E1,7.7E1,3.2E1],"tree_param":{"num_deleted":"0","num_feature":"11","num_nodes":"13","size_leaf_vector":"1"}},{"base_weights":[4.424401E-2,-2.1861541E0,1.2420478E1,-1.7394373E0,-8.2484573E-1,1.1682098E1,1.3984144E0,-8.250307E-2,-5.2903706E-1,1.2542548E0,9.294305E-1],"categories":[],"categories_nodes":[],"categories_segments":[],"categories_sizes":[],"default_left":[0,0,0,0,0,0,0,0,0,0,0],"id":21,"left_children":[1,3,5,7,-1,9,-1,-1,-1,-1,-1],"loss_changes":[2.7658688E4,2.2848567E3,1.3285156E1,2.5672573E3,0E0,1.0942969E2,0E0,0E0,0E0,0E0,0E0],"parents":[2147483647,0,0,1,1,2,2,3,3,5,5],"right_children":[2,4,6,8,-1,10,-1,-1,-1,-1,-1],"split_conditions":[1E0,1E0,3E0,1E0,-8.2484573E-1,1E0,1.3984144E0,-8.250307E-2,-5.2903706E-1,1.2542548E0,9.294305E-1],"split_indices":[4,9,10,6,0,2,0,0,0,0,0],"split_type":[0,0,0,0,0,0,0,0,0,0,0],"sum_hessian":[1E3,8.48E2,1.52E2,7.91E2,5.7E1,1.09E2,4.3E1,6.3E2,1.61E2,7.7E1,3.2E1],"tree_param":{"num_deleted":"0","num_feature":"11","num_nodes":"11","size_leaf_vector":"1"}},{"base_weights":[4.1963257E-2,-1.9692308E0,1.1201844E1,-1.566266E0,-7.4378335E-1,1.0533739E1,1.2617519E0,-3.6555332E-1,3.7908263E-3,1.1304373E0,8.3930415E-1],"categories":[],"categories_nodes":[],"categories_segments":[],"categories_sizes":[],"default_left":[0,0,0,0,0,0,0,0,0,0,0],"id":22,"left_children":[1,3,5,7,-1,9,-1,-1,-1,-1,-1],"loss_changes":[2.2489191E4,1.8592534E3,1.1800781E1,2.654565E3,0E0,8.658887E1,0E0,0E0,0E0,0E0,0E0],"parents":[2147483647,0,0,1,1,2,2,3,3,5,5],"right_children":[2,4,6,8,-1,10,-1,-1,-1,-1,-1],"split_conditions":[1E0,1E0,3E0,2E0,-7.4378335E-1,1E0,1.2617519E0,-3.6555332E-1,3.7908263E-3,1.1304373E0,8.3930415E-1],"split_indices":[4,9,10,10,0,2,0,0,0,0,0],"split_type":[0,0,0,0,0,0,0,0,0,0,0],"sum_hessian":[1E3,8.48E2,1.52E2,7.91E2,5.7E1,1.09E2,4.3E1,3.43E2,4.48E2,7.7E1,3.2E1],"tree_param":{"num_deleted":"0","num_feature":"11","num_nodes":"11","size_leaf_vector":"1"}},{"base_weights":[3.989118E-2,-1.77361E0,1.0102784E1,-1.0658715E0,-4.7683663E0,9.498277E0,1.1384445E0,-3.2910427E-1,1.1559397E-1,-4.1745058E-1,-5.789084E-1,1.0188432E0,7.579173E-1],"categories":[],"categories_nodes":[],"categories_segments":[],"categories_sizes":[],"default_left":[0,0,0,0,0,0,0,0,0,0,0,0,0],"id":23,"left_children":[1,3,5,7,9,11,-1,-1,-1,-1,-1,-1,-1],"loss_changes":[1.8285236E4,1.7943767E3,1.040625E1,3.4052144E3,7.403223E1,6.847363E1,0E0,0E0,0E0,0E0,0E0,0E0,0E0],"parents":[2147483647,0,0,1,1,2,2,3,3,4,4,5,5],"right_children":[2,4,6,8,10,12,-1,-1,-1,-1,-1,-1,-1],"split_conditions":[1E0,1E0,3E0,2E0,1E0,1E0,1.1384445E0,-3.2910427E-1,1.1559397E-1,-4.1745058E-1,-5.789084E-1,1.0188432E0,7.579173E-1],"split_indices":[4,6,10,10,2,2,0,0,0,0,0,0,0],"split_type":[0,0,0,0,0,0,0,0,0,0,0,0,0],"sum_hessian":[1E3,8.48E2,1.52E2,6.87E2,1.61E2,1.09E2,4.3E1,3.43E2,3.44E2,1.05E2,5.6E1,7.7E1,3.2E1],"tree_param":{"num_deleted":"0","num_feature":"11","num_nodes":"13","size_leaf_vector":"1"}},{"base_weights":[3.760538E-2,-1.5976744E0,9.111559E0,-1.2131792E0,-6.8204755E-1,8.5646E0,1.0271876E1,-4.1935615E-2,-4.2976806E-1,9.18265E-1,6.844221E-1,1.0914638E0,6.995024E-1],"categories":[],"categories_nodes":[],"categories_segments":[],"categories_sizes":[],"default_left":[0,0,0,0,0,0,0,0,0,0,0,0,0],"id":24,"left_children":[1,3,5,7,-1,9,11,-1,-1,-1,-1,-1,-1],"loss_changes":[1.4867848E4,1.6966375E3,9.125977E0,1.9374481E3,0E0,5.4112793E1,1.6326172E1,0E0,0E0,0E0,0E0,0E0,0E0],"parents":[2147483647,0,0,1,1,2,2,3,3,5,5,6,6],"right_children":[2,4,6,8,-1,10,12,-1,-1,-1,-1,-1,-1],"split_conditions":[1E0,1E0,3E0,1E0,-6.8204755E-1,1E0,4E0,-4.1935615E-2,-4.2976806E-1,9.18265E-1,6.844221E-1,1.0914638E0,6.995024E-1],"split_indices":[4,9,10,6,0,2,10,0,0,0,0,0,0],"split_type":[0,0,0,0,0,0,0,0,0,0,0,0,0],"sum_hessian":[1E3,8.48E2,1.52E2,7.91E2,5.7E1,1.09E2,4.3E1,6.3E2,1.61E2,7.7E1,3.2E1,3.4E1,9E0],"tree_param":{"num_deleted":"0","num_feature":"11","num_nodes":"13","size_leaf_vector":"1"}},{"base_weights":[3.6082752E-2,-1.4392663E0,8.222588E0,-2.2499964E0,6.6375816E-1,7.7227154E0,9.285393E0,-1.8390952E-1,-6.150187E-1,-1.8046776E0,3.7789267E-1,8.2761633E-1,6.1805433E-1,9.854361E-1,6.365466E-1],"categories":[],"categories_nodes":[],"categories_segments":[],"categories_sizes":[],"default_left":[0,0,0,0,0,0,0,0,0,0,0,0,0,0,0],"id":25,"left_children":[1,3,5,7,9,11,13,-1,-1,-1,-1,-1,-1,-1,-1],"loss_changes":[1.2101865E4,1.4490258E3,9.576172E0,9.7107886E2,1.3882091E4,4.273535E1,1.0371582E1,0E0,0E0,0E0,0E0,0E0,0E0,0E0,0E0],"parents":[2147483647,0,0,1,1,2,2,3,3,4,4,5,5,6,6],"right_children":[2,4,6,8,10,12,14,-1,-1,-1,-1,-1,-1,-1,-1],"split_conditions":[1E0,1E0,3E0,1E0,2E0,1E0,4E0,-1.8390952E-1,-6.150187E-1,-1.8046776E0,3.7789267E-1,8.2761633E-1,6.1805433E-1,9.854361E-1,6.365466E-1],"split_indices":[4,2,10,9,10,2,10,0,0,0,0,0,0,0,0],"split_type":[0,0,0,0,0,0,0,0,0,0,0,0,0,0,0],"sum_hessian":[1E3,8.48E2,1.52E2,6.12E2,2.36E2,1.09E2,4.3E1,5.55E2,5.7E1,3.3E1,2.03E2,7.7E1,3.2E1,3.4E1,9E0],"tree_param":{"num_deleted":"0","num_feature":"11","num_nodes":"15","size_leaf_vector":"1"}},{"base_weights":[3.3315312E-2,-1.2979606E0,7.4203744E0,-6.8762434E-1,-3.8819945E0,6.9635816E0,8.39371E0,-2.5822267E-1,1.2034794E-1,-3.1531057E-1,-5.169367E-1,7.459153E-1,5.581215E-1,8.8970727E-1,5.792571E-1],"categories":[],"categories_nodes":[],"categories_segments":[],"categories_sizes":[],"default_left":[0,0,0,0,0,0,0,0,0,0,0,0,0,0,0],"id":26,"left_children":[1,3,5,7,9,11,13,-1,-1,-1,-1,-1,-1,-1,-1],"loss_changes":[9.85368E3,1.3363137E3,9.576172E0,2.4681355E3,1.3571362E2,3.3725098E1,6.073242E0,0E0,0E0,0E0,0E0,0E0,0E0,0E0,0E0],"parents":[2147483647,0,0,1,1,2,2,3,3,4,4,5,5,6,6],"right_children":[2,4,6,8,10,12,14,-1,-1,-1,-1,-1,-1,-1,-1],"split_conditions":[1E0,1E0,3E0,2E0,1E0,1E0,4E0,-2.5822267E-1,1.2034794E-1,-3.1531057E-1,-5.169367E-1,7.459153E-1,5.581215E-1,8.8970727E-1,5.792571E-1],"split_indices":[4,6,10,10,2,2,10,0,0,0,0,0,0,0,0],"split_type":[0,0,0,0,0,0,0,0,0,0,0,0,0,0,0],"sum_hessian":[1E3,8.48E2,1.52E2,6.87E2,1.61E2,1.09E2,4.3E1,3.43E2,3.44E2,1.05E2,5.6E1,7.7E1,3.2E1,3.4E1,9E0],"tree_param":{"num_deleted":"0","num_feature":"11","num_nodes":"15","size_leaf_vector":"1"}},{"base_weights":[3.178542E-2,-1.169307E0,6.696463E0,-8.3867055E-1,-5.664045E-1,6.279082E0,7.587724E0,-1.5435817E-2,-3.4989324E-1,6.722805E-1,5.0400066E-1,8.032784E-1,5.2712417E-1],"categories":[],"categories_nodes":[],"categories_segments":[],"categories_sizes":[],"default_left":[0,0,0,0,0,0,0,0,0,0,0,0,0],"id":27,"left_children":[1,3,5,7,-1,9,11,-1,-1,-1,-1,-1,-1],"loss_changes":[8.0207295E3,1.2569692E3,9.271484E0,1.4412563E3,0E0,2.6595703E1,3.0200195E0,0E0,0E0,0E0,0E0,0E0,0E0],"parents":[2147483647,0,0,1,1,2,2,3,3,5,5,6,6],"right_children":[2,4,6,8,-1,10,12,-1,-1,-1,-1,-1,-1],"split_conditions":[1E0,1E0,3E0,1E0,-5.664045E-1,1E0,4E0,-1.5435817E-2,-3.4989324E-1,6.722805E-1,5.0400066E-1,8.032784E-1,5.2712417E-1],"split_indices":[4,9,10,6,0,2,10,0,0,0,0,0,0],"split_type":[0,0,0,0,0,0,0,0,0,0,0,0,0],"sum_hessian":[1E3,8.48E2,1.52E2,7.91E2,5.7E1,1.09E2,4.3E1,6.3E2,1.61E2,7.7E1,3.2E1,3.4E1,9E0],"tree_param":{"num_deleted":"0","num_feature":"11","num_nodes":"13","size_leaf_vector":"1"}},{"base_weights":[3.0179536E-2,-1.0534738E0,6.043196E0,-1.7564493E0,7.6921576E-1,5.6618633E0,6.859183E0,-1.40373E-1,-5.1074064E-1,-1.6029568E0,3.5652423E-1,6.059137E-1,4.5512816E-1,7.252452E-1,4.7968245E-1],"categories":[],"categories_nodes":[],"categories_segments":[],"categories_sizes":[],"default_left":[0,0,0,0,0,0,0,0,0,0,0,0,0,0,0],"id":28,"left_children":[1,3,5,7,9,11,13,-1,-1,-1,-1,-1,-1,-1,-1],"loss_changes":[6.5289087E3,1.0891798E3,8.771973E0,7.1736414E2,1.1189003E4,2.095581E1,8.977051E-1,0E0,0E0,0E0,0E0,0E0,0E0,0E0,0E0],"parents":[2147483647,0,0,1,1,2,2,3,3,4,4,5,5,6,6],"right_children":[2,4,6,8,10,12,14,-1,-1,-1,-1,-1,-1,-1,-1],"split_conditions":[1E0,1E0,3E0,1E0,2E0,1E0,4E0,-1.40373E-1,-5.1074064E-1,-1.6029568E0,3.5652423E-1,6.059137E-1,4.5512816E-1,7.252452E-1,4.7968245E-1],"split_indices":[4,2,10,9,10,2,10,0,0,0,0,0,0,0,0],"split_type":[0,0,0,0,0,0,0,0,0,0,0,0,0,0,0],"sum_hessian":[1E3,8.48E2,1.52E2,6.12E2,2.36E2,1.09E2,4.3E1,5.55E2,5.7E1,3.3E1,2.03E2,7.7E1,3.2E1,3.4E1,9E0],"tree_param":{"num_deleted":"0","num_feature":"11","num_nodes":"15","size_leaf_vector":"1"}},{"base_weights":[2.752973E-2,-9.5036167E-1,5.453688E0,-4.2316368E-1,-3.1834593E0,5.1053257E0,6.200647E-1,-1.4174025E-1,2.3696344E-1,-2.3551284E-1,-4.668014E-1,5.4609936E-1,4.1099492E-1],"categories":[],"categories_nodes":[],"categories_segments":[],"categories_sizes":[],"default_left":[0,0,0,0,0,0,0,0,0,0,0,0,0],"id":29,"left_children":[1,3,5,7,9,11,-1,-1,-1,-1,-1,-1,-1],"loss_changes":[5.316683E3,9.981675E2,8.155762E0,1.9137339E3,1.8821802E2,1.6498291E1,0E0,0E0,0E0,0E0,0E0,0E0,0E0],"parents":[2147483647,0,0,1,1,2,2,3,3,4,4,5,5],"right_children":[2,4,6,8,10,12,-1,-1,-1,-1,-1,-1,-1],"split_conditions":[1E0,1E0,3E0,1E0,1E0,1E0,6.200647E-1,-1.4174025E-1,2.3696344E-1,-2.3551284E-1,-4.668014E-1,5.4609936E-1,4.1099492E-1],"split_indices":[4,6,10,2,2,2,0,0,0,0,0,0,0],"split_type":[0,0,0,0,0,0,0,0,0,0,0,0,0],"sum_hessian":[1E3,8.48E2,1.52E2,6.87E2,1.61E2,1.09E2,4.3E1,5.07E2,1.8E2,1.05E2,5.6E1,7.7E1,3.2E1],"tree_param":{"num_deleted":"0","num_feature":"11","num_nodes":"13","size_leaf_vector":"1"}},{"base_weights":[2.5745736E-2,-8.5604054E-1,4.918627E0,-3.8070893E-1,-2.8694487E0,4.6034956E0,5.594668E0,-1.9240929E-1,1.159305E-1,-2.1218374E-1,-4.2094022E-1,4.9218985E-1,3.711408E-1,5.9455675E-1,3.8070527E-1],"categories":[],"categories_nodes":[],"categories_segments":[],"categories_sizes":[],"default_left":[0,0,0,0,0,0,0,0,0,0,0,0,0,0,0],"id":30,"left_children":[1,3,5,7,9,11,13,-1,-1,-1,-1,-1,-1,-1,-1],"loss_changes":[4.3230005E3,8.114317E2,6.840332E0,1.6374916E3,1.5335413E2,1.2977539E1,4.964966E0,0E0,0E0,0E0,0E0,0E0,0E0,0E0,0E0],"parents":[2147483647,0,0,1,1,2,2,3,3,4,4,5,5,6,6],"right_children":[2,4,6,8,10,12,14,-1,-1,-1,-1,-1,-1,-1,-1],"split_conditions":[1E0,1E0,3E0,2E0,1E0,1E0,4E0,-1.9240929E-1,1.159305E-1,-2.1218374E-1,-4.2094022E-1,4.9218985E-1,3.711408E-1,5.9455675E-1,3.8070527E-1],"split_indices":[4,6,10,10,2,2,10,0,0,0,0,0,0,0,0],"split_type":[0,0,0,0,0,0,0,0,0,0,0,0,0,0,0],"sum_hessian":[1E3,8.48E2,1.52E2,6.87E2,1.61E2,1.09E2,4.3E1,3.43E2,3.44E2,1.05E2,5.6E1,7.7E1,3.2E1,3.4E1,9E0],"tree_param":{"num_deleted":"0","num_feature":"11","num_nodes":"15","size_leaf_vector":"1"}},{"base_weights":[2.4299461E-2,-7.7127194E-1,4.438782E0,-4.9136835E-1,-4.5801064E-1,4.1509967E0,5.057364E0,-1.7322429E-1,4.604183E-2,4.436021E-1,3.3515152E-1,5.367996E-1,3.4644166E-1],"categories":[],"categories_nodes":[],"categories_segments":[],"categories_sizes":[],"default_left":[0,0,0,0,0,0,0,0,0,0,0,0,0],"id":31,"left_children":[1,3,5,7,-1,9,11,-1,-1,-1,-1,-1,-1],"loss_changes":[3.518972E3,9.02874E2,6.2436523E0,9.3618744E2,0E0,1.0198486E1,3.1750488E0,0E0,0E0,0E0,0E0,0E0,0E0],"parents":[2147483647,0,0,1,1,2,2,3,3,5,5,6,6],"right_children":[2,4,6,8,-1,10,12,-1,-1,-1,-1,-1,-1],"split_conditions":[1E0,1E0,3E0,2E0,-4.5801064E-1,1E0,4E0,-1.7322429E-1,4.604183E-2,4.436021E-1,3.3515152E-1,5.367996E-1,3.4644166E-1],"split_indices":[4,9,10,10,0,2,10,0,0,0,0,0,0],"split_type":[0,0,0,0,0,0,0,0,0,0,0,0,0],"sum_hessian":[1E3,8.48E2,1.52E2,7.91E2,5.7E1,1.09E2,4.3E1,3.43E2,4.48E2,7.7E1,3.2E1,3.4E1,9E0],"tree_param":{"num_deleted":"0","num_feature":"11","num_nodes":"13","size_leaf_vector":"1"}},{"base_weights":[2.2944901E-2,-6.948345E-1,4.005767E0,-2.3764971E-1,-2.6321695E0,3.7429779E0,4.571699E0,-1.0590732E-1,2.069095E-1,-1.9572629E-1,-3.841081E-1,3.9981046E-1,3.0265272E-1,4.846529E-1,3.1526247E-1],"categories":[],"categories_nodes":[],"categories_segments":[],"categories_sizes":[],"default_left":[0,0,0,0,0,0,0,0,0,0,0,0,0,0,0],"id":32,"left_children":[1,3,5,7,9,11,13,-1,-1,-1,-1,-1,-1,-1,-1],"loss_changes":[2.8644292E3,7.513508E2,5.642578E0,1.3058235E3,1.246582E2,8.0061035E0,1.8809204E0,0E0,0E0,0E0,0E0,0E0,0E0,0E0,0E0],"parents":[2147483647,0,0,1,1,2,2,3,3,4,4,5,5,6,6],"right_children":[2,4,6,8,10,12,14,-1,-1,-1,-1,-1,-1,-1,-1],"split_conditions":[1E0,1E0,3E0,1E0,1E0,1E0,4E0,-1.0590732E-1,2.069095E-1,-1.9572629E-1,-3.841081E-1,3.9981046E-1,3.0265272E-1,4.846529E-1,3.1526247E-1],"split_indices":[4,6,10,2,2,2,10,0,0,0,0,0,0,0,0],"split_type":[0,0,0,0,0,0,0,0,0,0,0,0,0,0,0],"sum_hessian":[1E3,8.48E2,1.52E2,6.87E2,1.61E2,1.09E2,4.3E1,5.07E2,1.8E2,1.05E2,5.6E1,7.7E1,3.2E1,3.4E1,9E0],"tree_param":{"num_deleted":"0","num_feature":"11","num_nodes":"15","size_leaf_vector":"1"}},{"base_weights":[2.1672953E-2,-6.2591493E-1,3.615009E0,-3.76135E-1,-4.0259108E-1,3.3750641E0,4.132712E0,1.3700671E-2,-2.3725319E-1,3.6034197E-1,2.7330408E-1,4.375727E-1,2.868889E-1],"categories":[],"categories_nodes":[],"categories_segments":[],"categories_sizes":[],"default_left":[0,0,0,0,0,0,0,0,0,0,0,0,0],"id":33,"left_children":[1,3,5,7,-1,9,11,-1,-1,-1,-1,-1,-1],"loss_changes":[2.3315903E3,7.194995E2,5.057617E0,8.116771E2,0E0,6.2788086E0,9.6014404E-1,0E0,0E0,0E0,0E0,0E0,0E0],"parents":[2147483647,0,0,1,1,2,2,3,3,5,5,6,6],"right_children":[2,4,6,8,-1,10,12,-1,-1,-1,-1,-1,-1],"split_conditions":[1E0,1E0,3E0,1E0,-4.0259108E-1,1E0,4E0,1.3700671E-2,-2.3725319E-1,3.6034197E-1,2.7330408E-1,4.375727E-1,2.868889E-1],"split_indices":[4,9,10,6,0,2,10,0,0,0,0,0,0],"split_type":[0,0,0,0,0,0,0,0,0,0,0,0,0],"sum_hessian":[1E3,8.48E2,1.52E2,7.91E2,5.7E1,1.09E2,4.3E1,6.3E2,1.61E2,7.7E1,3.2E1,3.4E1,9E0],"tree_param":{"num_deleted":"0","num_feature":"11","num_nodes":"13","size_leaf_vector":"1"}},{"base_weights":[2.0237088E-2,-5.640611E-1,3.262387E0,-3.3880398E-1,-3.630261E-1,3.0433233E0,3.7359014E0,-1.4975925E-1,5.4975282E-2,3.247703E-1,2.4680221E-1,3.9506525E-1,2.6106828E-1],"categories":[],"categories_nodes":[],"categories_segments":[],"categories_sizes":[],"default_left":[0,0,0,0,0,0,0,0,0,0,0,0,0],"id":34,"left_children":[1,3,5,7,-1,9,11,-1,-1,-1,-1,-1,-1],"loss_changes":[1.8981171E3,5.8516034E2,4.5010986E0,8.1630554E2,0E0,4.918396E0,3.1829834E-1,0E0,0E0,0E0,0E0,0E0,0E0],"parents":[2147483647,0,0,1,1,2,2,3,3,5,5,6,6],"right_children":[2,4,6,8,-1,10,12,-1,-1,-1,-1,-1,-1],"split_conditions":[1E0,1E0,3E0,2E0,-3.630261E-1,1E0,4E0,-1.4975925E-1,5.4975282E-2,3.247703E-1,2.4680221E-1,3.9506525E-1,2.6106828E-1],"split_indices":[4,9,10,10,0,2,10,0,0,0,0,0,0],"split_type":[0,0,0,0,0,0,0,0,0,0,0,0,0],"sum_hessian":[1E3,8.48E2,1.52E2,7.91E2,5.7E1,1.09E2,4.3E1,3.43E2,4.48E2,7.7E1,3.2E1,3.4E1,9E0],"tree_param":{"num_deleted":"0","num_feature":"11","num_nodes":"13","size_leaf_vector":"1"}},{"base_weights":[1.8983057E-2,-5.081941E-1,2.9441755E0,-1.1112406E-1,-2.1913793E0,2.7441905E0,3.3772245E-1,-1.3482688E-1,1.1227568E-1,-1.5828249E-1,-3.2846317E-1,2.9270986E-1,2.2287051E-1],"categories":[],"categories_nodes":[],"categories_segments":[],"categories_sizes":[],"default_left":[0,0,0,0,0,0,0,0,0,0,0,0,0],"id":35,"left_children":[1,3,5,7,9,11,-1,-1,-1,-1,-1,-1,-1],"loss_changes":[1.5451329E3,5.671792E2,3.982544E0,1.0517382E3,1.0258014E2,3.8479004E0,0E0,0E0,0E0,0E0,0E0,0E0,0E0],"parents":[2147483647,0,0,1,1,2,2,3,3,4,4,5,5],"right_children":[2,4,6,8,10,12,-1,-1,-1,-1,-1,-1,-1],"split_conditions":[1E0,1E0,3E0,2E0,1E0,1E0,3.3772245E-1,-1.3482688E-1,1.1227568E-1,-1.5828249E-1,-3.2846317E-1,2.9270986E-1,2.2287051E-1],"split_indices":[4,6,10,10,2,2,0,0,0,0,0,0,0],"split_type":[0,0,0,0,0,0,0,0,0,0,0,0,0],"sum_hessian":[1E3,8.48E2,1.52E2,6.87E2,1.61E2,1.09E2,4.3E1,3.43E2,3.44E2,1.05E2,5.6E1,7.7E1,3.2E1],"tree_param":{"num_deleted":"0","num_feature":"11","num_nodes":"13","size_leaf_vector":"1"}},{"base_weights":[1.742851E-2,-4.5797452E-1,2.6553354E0,-2.4312879E-1,-3.383834E-1,2.4744592E0,3.0471773E0,-3.9227586E-2,4.9948502E-1,2.6381418E-1,2.012589E-1,3.2388014E-1,2.071776E-1],"categories":[],"categories_nodes":[],"categories_segments":[],"categories_sizes":[],"default_left":[0,0,0,0,0,0,0,0,0,0,0,0,0],"id":36,"left_children":[1,3,5,7,-1,9,11,-1,-1,-1,-1,-1,-1],"loss_changes":[1.2565391E3,5.328658E2,3.303711E0,6.20693E2,0E0,3.0065308E0,1.5139465E0,0E0,0E0,0E0,0E0,0E0,0E0],"parents":[2147483647,0,0,1,1,2,2,3,3,5,5,6,6],"right_children":[2,4,6,8,-1,10,12,-1,-1,-1,-1,-1,-1],"split_conditions":[1E0,1E0,3E0,4E0,-3.383834E-1,1E0,4E0,-3.9227586E-2,4.9948502E-1,2.6381418E-1,2.012589E-1,3.2388014E-1,2.071776E-1],"split_indices":[4,9,10,10,0,2,10,0,0,0,0,0,0],"split_type":[0,0,0,0,0,0,0,0,0,0,0,0,0],"sum_hessian":[1E3,8.48E2,1.52E2,7.91E2,5.7E1,1.09E2,4.3E1,7.7E2,2.1E1,7.7E1,3.2E1,3.4E1,9E0],"tree_param":{"num_deleted":"0","num_feature":"11","num_nodes":"13","size_leaf_vector":"1"}},{"base_weights":[1.6802829E-2,-4.120333E-1,2.396313E0,-4.4701867E-2,-1.9695146E0,2.2312434E0,2.7545254E0,-2.1823313E-2,7.7556163E-1,-1.4227538E-1,-2.951745E-1,2.377715E-1,1.8174244E-1,2.3692468E-1,3.410891E-1],"categories":[],"categories_nodes":[],"categories_segments":[],"categories_sizes":[],"default_left":[0,0,0,0,0,0,0,0,0,0,0,0,0,0,0],"id":37,"left_children":[1,3,5,7,9,11,13,-1,-1,-1,-1,-1,-1,-1,-1],"loss_changes":[1.0224277E3,4.856349E2,2.900879E0,9.329686E2,8.280176E1,2.3461304E0,3.0456238E0,0E0,0E0,0E0,0E0,0E0,0E0,0E0,0E0],"parents":[2147483647,0,0,1,1,2,2,3,3,4,4,5,5,6,6],"right_children":[2,4,6,8,10,12,14,-1,-1,-1,-1,-1,-1,-1,-1],"split_conditions":[1E0,1E0,3E0,4E0,1E0,1E0,1E0,-2.1823313E-2,7.7556163E-1,-1.4227538E-1,-2.951745E-1,2.377715E-1,1.8174244E-1,2.3692468E-1,3.410891E-1],"split_indices":[4,6,10,10,2,2,2,0,0,0,0,0,0,0,0],"split_type":[0,0,0,0,0,0,0,0,0,0,0,0,0,0,0],"sum_hessian":[1E3,8.48E2,1.52E2,6.87E2,1.61E2,1.09E2,4.3E1,6.73E2,1.4E1,1.05E2,5.6E1,7.7E1,3.2E1,3E1,1.3E1],"tree_param":{"num_deleted":"0","num_feature":"11","num_nodes":"15","size_leaf_vector":"1"}},{"base_weights":[1.6434696E-2,-3.7045702E-1,2.163197E0,-1.7221627E-1,-3.0710816E-1,2.011927E0,2.4922087E0,-1.1529595E-1,5.795607E-2,2.1429856E-1,1.6411845E-1,2.1399663E-1,3.09416E-1],"categories":[],"categories_nodes":[],"categories_segments":[],"categories_sizes":[],"default_left":[0,0,0,0,0,0,0,0,0,0,0,0,0],"id":38,"left_children":[1,3,5,7,-1,9,11,-1,-1,-1,-1,-1,-1],"loss_changes":[8.3219653E2,4.5400357E2,2.600647E0,5.8460986E2,0E0,1.8277588E0,2.7080383E0,0E0,0E0,0E0,0E0,0E0,0E0],"parents":[2147483647,0,0,1,1,2,2,3,3,5,5,6,6],"right_children":[2,4,6,8,-1,10,12,-1,-1,-1,-1,-1,-1],"split_conditions":[1E0,1E0,3E0,2E0,-3.0710816E-1,1E0,1E0,-1.1529595E-1,5.795607E-2,2.1429856E-1,1.6411845E-1,2.1399663E-1,3.09416E-1],"split_indices":[4,9,10,10,0,2,2,0,0,0,0,0,0],"split_type":[0,0,0,0,0,0,0,0,0,0,0,0,0],"sum_hessian":[1E3,8.48E2,1.52E2,7.91E2,5.7E1,1.09E2,4.3E1,3.43E2,4.48E2,7.7E1,3.2E1,3E1,1.3E1],"tree_param":{"num_deleted":"0","num_feature":"11","num_nodes":"13","size_leaf_vector":"1"}},{"base_weights":[1.532803E-2,-3.3384106E-1,1.952774E0,1.9611297E-2,-1.8328619E0,1.8141758E0,2.2548883E0,-1.0379992E-1,1.0740995E-1,-1.3392301E-1,-2.7186885E-1,1.9314386E-1,1.4820345E-1,2.4348168E-1,1.3996491E-1],"categories":[],"categories_nodes":[],"categories_segments":[],"categories_sizes":[],"default_left":[0,0,0,0,0,0,0,0,0,0,0,0,0,0,0],"id":39,"left_children":[1,3,5,7,9,11,13,-1,-1,-1,-1,-1,-1,-1,-1],"loss_changes":[6.7782465E2,4.498637E2,2.3157349E0,7.683984E2,6.719714E1,1.421814E0,3.3629303E0,0E0,0E0,0E0,0E0,0E0,0E0,0E0,0E0],"parents":[2147483647,0,0,1,1,2,2,3,3,4,4,5,5,6,6],"right_children":[2,4,6,8,10,12,14,-1,-1,-1,-1,-1,-1,-1,-1],"split_conditions":[1E0,1E0,3E0,2E0,1E0,1E0,4E0,-1.0379992E-1,1.0740995E-1,-1.3392301E-1,-2.7186885E-1,1.9314386E-1,1.4820345E-1,2.4348168E-1,1.3996491E-1],"split_indices":[4,6,10,10,2,2,10,0,0,0,0,0,0,0,0],"split_type":[0,0,0,0,0,0,0,0,0,0,0,0,0,0,0],"sum_hessian":[1E3,8.48E2,1.52E2,6.87E2,1.61E2,1.09E2,4.3E1,3.43E2,3.44E2,1.05E2,5.6E1,7.7E1,3.2E1,3.4E1,9E0],"tree_param":{"num_deleted":"0","num_feature":"11","num_nodes":"15","size_leaf_vector":"1"}},{"base_weights":[1.4117007E-2,-3.0093074E-1,1.7622309E0,-1.1205843E-1,-2.8748265E-1,1.6358585E0,2.038111E0,2.8349731E-2,-1.6520807E-1,1.740769E-1,1.338317E-1,1.7139457E-1,2.6103267E-1],"categories":[],"categories_nodes":[],"categories_segments":[],"categories_sizes":[],"default_left":[0,0,0,0,0,0,0,0,0,0,0,0,0],"id":40,"left_children":[1,3,5,7,-1,9,11,-1,-1,-1,-1,-1,-1],"loss_changes":[5.5182043E2,4.124087E2,2.000061E0,4.8292673E2,0E0,1.1039734E0,3.6876984E0,0E0,0E0,0E0,0E0,0E0,0E0],"parents":[2147483647,0,0,1,1,2,2,3,3,5,5,6,6],"right_children":[2,4,6,8,-1,10,12,-1,-1,-1,-1,-1,-1],"split_conditions":[1E0,1E0,3E0,1E0,-2.8748265E-1,1E0,1E0,2.8349731E-2,-1.6520807E-1,1.740769E-1,1.338317E-1,1.7139457E-1,2.6103267E-1],"split_indices":[4,9,10,6,0,2,2,0,0,0,0,0,0],"split_type":[0,0,0,0,0,0,0,0,0,0,0,0,0],"sum_hessian":[1E3,8.48E2,1.52E2,7.91E2,5.7E1,1.09E2,4.3E1,6.3E2,1.61E2,7.7E1,3.2E1,3E1,1.3E1],"tree_param":{"num_deleted":"0","num_feature":"11","num_nodes":"13","size_leaf_vector":"1"}},{"base_weights":[1.3021177E-2,-9.627675E-1,5.2314013E-1,4.7025505E-2,-1.4042392E0,-9.01149E-1,2.866254E0,-1.7816429E-1,1.5774693E-1,4.3740222E-1,-2.28928E-1],"categories":[],"categories_nodes":[],"categories_segments":[],"categories_sizes":[],"default_left":[0,0,0,0,0,0,0,0,0,0,0],"id":41,"left_children":[1,3,5,-1,-1,7,9,-1,-1,-1,-1],"loss_changes":[4.9876974E2,6.4543315E3,2.1985078E3,0E0,0E0,8.975978E2,1.9455773E3,0E0,0E0,0E0,0E0],"parents":[2147483647,0,0,1,1,2,2,5,5,6,6],"right_children":[2,4,6,-1,-1,8,10,-1,-1,-1,-1],"split_conditions":[2E0,1E0,1E0,4.7025505E-2,-1.4042392E0,1E0,1E0,-1.7816429E-1,1.5774693E-1,4.3740222E-1,-2.28928E-1],"split_indices":[10,2,2,0,0,4,6,0,0,0,0],"split_type":[0,0,0,0,0,0,0,0,0,0,0],"sum_hessian":[1E3,3.43E2,6.57E2,3.1E2,3.3E1,4.09E2,2.48E2,3.02E2,1.07E2,1.92E2,5.6E1],"tree_param":{"num_deleted":"0","num_feature":"11","num_nodes":"11","size_leaf_vector":"1"}},{"base_weights":[1.0551011E-2,-8.704363E-1,4.7111192E-1,4.233805E-2,-1.2679454E0,-8.110837E-1,2.5804658E0,-1.604067E-1,1.4211844E-1,3.9388856E-1,-2.064368E-1],"categories":[],"categories_nodes":[],"categories_segments":[],"categories_sizes":[],"default_left":[0,0,0,0,0,0,0,0,0,0,0],"id":42,"left_children":[1,3,5,-1,-1,7,9,-1,-1,-1,-1],"loss_changes":[4.065641E2,5.2612427E3,1.7817225E3,0E0,0E0,7.280415E2,1.5792305E3,0E0,0E0,0E0,0E0],"parents":[2147483647,0,0,1,1,2,2,5,5,6,6],"right_children":[2,4,6,-1,-1,8,10,-1,-1,-1,-1],"split_conditions":[2E0,1E0,1E0,4.233805E-2,-1.2679454E0,1E0,1E0,-1.604067E-1,1.4211844E-1,3.9388856E-1,-2.064368E-1],"split_indices":[10,2,2,0,0,4,6,0,0,0,0],"split_type":[0,0,0,0,0,0,0,0,0,0,0],"sum_hessian":[1E3,3.43E2,6.57E2,3.1E2,3.3E1,4.09E2,2.48E2,3.02E2,1.07E2,1.92E2,5.6E1],"tree_param":{"num_deleted":"0","num_feature":"11","num_nodes":"11","size_leaf_vector":"1"}},{"base_weights":[8.440134E-3,-7.8695476E-1,4.2425686E-1,3.811793E-2,-1.14488E0,-7.3002064E-1,2.3231704E0,-1.4441898E-1,1.28038E-1,3.5470363E-1,-1.8615532E-1],"categories":[],"categories_nodes":[],"categories_segments":[],"categories_sizes":[],"default_left":[0,0,0,0,0,0,0,0,0,0,0],"id":43,"left_children":[1,3,5,-1,-1,7,9,-1,-1,-1,-1],"loss_changes":[3.3140308E2,4.2886997E3,1.4439486E3,0E0,0E0,5.905132E2,1.2818663E3,0E0,0E0,0E0,0E0],"parents":[2147483647,0,0,1,1,2,2,5,5,6,6],"right_children":[2,4,6,-1,-1,8,10,-1,-1,-1,-1],"split_conditions":[2E0,1E0,1E0,3.811793E-2,-1.14488E0,1E0,1E0,-1.4441898E-1,1.28038E-1,3.5470363E-1,-1.8615532E-1],"split_indices":[10,2,2,0,0,4,6,0,0,0,0],"split_type":[0,0,0,0,0,0,0,0,0,0,0],"sum_hessian":[1E3,3.43E2,6.57E2,3.1E2,3.3E1,4.09E2,2.48E2,3.02E2,1.07E2,1.92E2,5.6E1],"tree_param":{"num_deleted":"0","num_feature":"11","num_nodes":"11","size_leaf_vector":"1"}},{"base_weights":[6.64262E-3,1.3715279E-1,-2.1176374E-1,-7.1147704E-1,6.226628E-1,3.431834E-2,-1.0337592E0,-4.15215E-2,2.091531E-1],"categories":[],"categories_nodes":[],"categories_segments":[],"categories_sizes":[],"default_left":[0,0,0,0,0,0,0,0,0],"id":44,"left_children":[1,3,-1,5,7,-1,-1,-1,-1],"loss_changes":[2.778078E2,3.8938828E2,0E0,3.495933E3,9.170963E2,0E0,0E0,0E0,0E0],"parents":[2147483647,0,0,1,1,3,3,4,4],"right_children":[2,4,-1,6,8,-1,-1,-1,-1],"split_conditions":[1E0,2E0,-2.1176374E-1,1E0,1E0,3.431834E-2,-1.0337592E0,-4.15215E-2,2.091531E-1],"split_indices":[9,10,0,2,2,0,0,0,0],"split_type":[0,0,0,0,0,0,0,0,0],"sum_hessian":[1E3,9.43E2,5.7E1,3.43E2,6E2,3.1E2,3.3E1,3.52E2,2.48E2],"tree_param":{"num_deleted":"0","num_feature":"11","num_nodes":"9","size_leaf_vector":"1"}},{"base_weights":[4.9355305E-3,1.2255603E-1,-1.9095246E-1,-6.432352E-1,5.606752E-1,3.0897474E-2,-9.334237E-1,-3.738119E-2,1.8832186E-1],"categories":[],"categories_nodes":[],"categories_segments":[],"categories_sizes":[],"default_left":[0,0,0,0,0,0,0,0,0],"id":45,"left_children":[1,3,-1,5,7,-1,-1,-1,-1],"loss_changes":[2.2563896E2,3.1708005E2,0E0,2.8497104E3,7.4347974E2,0E0,0E0,0E0,0E0],"parents":[2147483647,0,0,1,1,3,3,4,4],"right_children":[2,4,-1,6,8,-1,-1,-1,-1],"split_conditions":[1E0,2E0,-1.9095246E-1,1E0,1E0,3.0897474E-2,-9.334237E-1,-3.738119E-2,1.8832186E-1],"split_indices":[9,10,0,2,2,0,0,0,0],"split_type":[0,0,0,0,0,0,0,0,0],"sum_hessian":[1E3,9.43E2,5.7E1,3.43E2,6E2,3.1E2,3.3E1,3.52E2,2.48E2],"tree_param":{"num_deleted":"0","num_feature":"11","num_nodes":"9","size_leaf_vector":"1"}},{"base_weights":[3.5010653E-3,2.0594987E-1,-1.0462551E0,-5.815349E-1,7.505954E-1,-4.8632908E-1,-2.0691657E-1,2.7817706E-2,-8.4282666E-1,-5.4791566E-2,2.7987573E-1,-4.411362E-2,-9.847996E-2],"categories":[],"categories_nodes":[],"categories_segments":[],"categories_sizes":[],"default_left":[0,0,0,0,0,0,0,0,0,0,0,0,0],"id":46,"left_children":[1,3,5,7,9,11,-1,-1,-1,-1,-1,-1,-1],"loss_changes":[2.1294989E2,3.6071252E2,9.177989E1,2.3229438E3,1.3233352E3,1.9534626E0,0E0,0E0,0E0,0E0,0E0,0E0,0E0],"parents":[2147483647,0,0,1,1,2,2,3,3,4,4,5,5],"right_children":[2,4,6,8,10,12,-1,-1,-1,-1,-1,-1,-1],"split_conditions":[1E0,2E0,1E0,1E0,1E0,4E0,-2.0691657E-1,2.7817706E-2,-8.4282666E-1,-5.4791566E-2,2.7987573E-1,-4.411362E-2,-9.847996E-2],"split_indices":[6,10,2,2,2,10,0,0,0,0,0,0,0],"split_type":[0,0,0,0,0,0,0,0,0,0,0,0,0],"sum_hessian":[1E3,8.39E2,1.61E2,3.43E2,4.96E2,1.05E2,5.6E1,3.1E2,3.3E1,3.04E2,1.92E2,9.8E1,7E0],"tree_param":{"num_deleted":"0","num_feature":"11","num_nodes":"13","size_leaf_vector":"1"}},{"base_weights":[2.2130043E-3,1.8465322E-1,-9.43787E-1,8.086388E-2,3.7101219E0,-4.390414E-1,-1.8658791E-1,-5.2574974E-2,5.2093606E-2,-2.744906E-1,7.1091926E-1,-3.9746817E-2,-8.986298E-2],"categories":[],"categories_nodes":[],"categories_segments":[],"categories_sizes":[],"default_left":[0,0,0,0,0,0,0,0,0,0,0,0,0],"id":47,"left_children":[1,3,5,7,9,11,-1,-1,-1,-1,-1,-1,-1],"loss_changes":[1.7293532E2,3.070611E2,7.457915E1,2.1837515E2,5.4610034E2,1.6681213E0,0E0,0E0,0E0,0E0,0E0,0E0,0E0],"parents":[2147483647,0,0,1,1,2,2,3,3,4,4,5,5],"right_children":[2,4,6,8,10,12,-1,-1,-1,-1,-1,-1,-1],"split_conditions":[1E0,4E0,1E0,2E0,1E0,4E0,-1.8658791E-1,-5.2574974E-2,5.2093606E-2,-2.744906E-1,7.1091926E-1,-3.9746817E-2,-8.986298E-2],"split_indices":[6,10,2,10,2,10,0,0,0,0,0,0,0],"split_type":[0,0,0,0,0,0,0,0,0,0,0,0,0],"sum_hessian":[1E3,8.39E2,1.61E2,8.16E2,2.3E1,1.05E2,5.6E1,3.43E2,4.73E2,8E0,1.5E1,9.8E1,7E0],"tree_param":{"num_deleted":"0","num_feature":"11","num_nodes":"13","size_leaf_vector":"1"}},{"base_weights":[2.1110864E-3,1.0683031E-1,-1.7023209E-1,-4.7332844E-1,4.3872344E-1,3.0285481E-2,-7.559201E-1,-3.0300433E-2,1.4884873E-1],"categories":[],"categories_nodes":[],"categories_segments":[],"categories_sizes":[],"default_left":[0,0,0,0,0,0,0,0,0],"id":48,"left_children":[1,3,-1,5,7,-1,-1,-1,-1],"loss_changes":[1.7884712E2,1.8197554E2,0E0,1.8942671E3,4.6841296E2,0E0,0E0,0E0,0E0],"parents":[2147483647,0,0,1,1,3,3,4,4],"right_children":[2,4,-1,6,8,-1,-1,-1,-1],"split_conditions":[1E0,2E0,-1.7023209E-1,1E0,1E0,3.0285481E-2,-7.559201E-1,-3.0300433E-2,1.4884873E-1],"split_indices":[9,10,0,2,2,0,0,0,0],"split_type":[0,0,0,0,0,0,0,0,0],"sum_hessian":[1E3,9.43E2,5.7E1,3.43E2,6E2,3.1E2,3.3E1,3.52E2,2.48E2],"tree_param":{"num_deleted":"0","num_feature":"11","num_nodes":"9","size_leaf_vector":"1"}},{"base_weights":[1.1238378E-3,1.7166582E-1,-8.831749E-1,7.979775E-2,3.2918553E0,-3.6634552E-1,-1.828802E-1,-4.2810444E-2,4.4823352E-2,-2.4273348E-1,6.303159E-1,-3.281286E-2,-7.9348676E-2],"categories":[],"categories_nodes":[],"categories_segments":[],"categories_sizes":[],"default_left":[0,0,0,0,0,0,0,0,0,0,0,0,0],"id":49,"left_children":[1,3,5,7,9,11,-1,-1,-1,-1,-1,-1,-1],"loss_changes":[1.5111247E2,2.405198E2,7.850394E1,1.5307657E2,4.286331E2,1.4699802E0,0E0,0E0,0E0,0E0,0E0,0E0,0E0],"parents":[2147483647,0,0,1,1,2,2,3,3,4,4,5,5],"right_children":[2,4,6,8,10,12,-1,-1,-1,-1,-1,-1,-1],"split_conditions":[1E0,4E0,1E0,2E0,1E0,4E0,-1.828802E-1,-4.2810444E-2,4.4823352E-2,-2.4273348E-1,6.303159E-1,-3.281286E-2,-7.9348676E-2],"split_indices":[6,10,2,10,2,10,0,0,0,0,0,0,0],"split_type":[0,0,0,0,0,0,0,0,0,0,0,0,0],"sum_hessian":[1E3,8.39E2,1.61E2,8.16E2,2.3E1,1.05E2,5.6E1,3.43E2,4.73E2,8E0,1.5E1,9.8E1,7E0],"tree_param":{"num_deleted":"0","num_feature":"11","num_nodes":"13","size_leaf_vector":"1"}},{"base_weights":[1.1051082E-3,9.7277366E-2,-1.5642004E-1,2.8210953E-1,-7.966786E-1,-3.8541853E-2,8.03354E-2,-3.3076912E-2,-1.6491298E-1],"categories":[],"categories_nodes":[],"categories_segments":[],"categories_sizes":[],"default_left":[0,0,0,0,0,0,0,0,0],"id":50,"left_children":[1,3,-1,5,7,-1,-1,-1,-1],"loss_changes":[1.5084167E2,1.5620358E2,0E0,2.7275076E2,6.3795273E1,0E0,0E0,0E0,0E0],"parents":[2147483647,0,0,1,1,3,3,4,4],"right_children":[2,4,-1,6,8,-1,-1,-1,-1],"split_conditions":[1E0,1E0,-1.5642004E-1,2E0,1E0,-3.8541853E-2,8.03354E-2,-3.3076912E-2,-1.6491298E-1],"split_indices":[9,6,0,10,2,0,0,0,0],"split_type":[0,0,0,0,0,0,0,0,0],"sum_hessian":[1E3,9.43E2,5.7E1,7.82E2,1.61E2,3.43E2,4.39E2,1.05E2,5.6E1],"tree_param":{"num_deleted":"0","num_feature":"11","num_nodes":"9","size_leaf_vector":"1"}},{"base_weights":[6.822451E-4,8.7384105E-2,-1.410477E-1,2.5395185E-1,-7.1823275E-1,1.6246388E-2,3.565922E-1,-2.9800419E-2,-1.48711E-1],"categories":[],"categories_nodes":[],"categories_segments":[],"categories_sizes":[],"default_left":[0,0,0,0,0,0,0,0,0],"id":51,"left_children":[1,3,-1,5,7,-1,-1,-1,-1],"loss_changes":[1.2259573E2,1.2685755E2,0E0,2.3667393E2,5.1899704E1,0E0,0E0,0E0,0E0],"parents":[2147483647,0,0,1,1,3,3,4,4],"right_children":[2,4,-1,6,8,-1,-1,-1,-1],"split_conditions":[1E0,1E0,-1.410477E-1,4E0,1E0,1.6246388E-2,3.565922E-1,-2.9800419E-2,-1.48711E-1],"split_indices":[9,6,0,10,2,0,0,0,0],"split_type":[0,0,0,0,0,0,0,0,0],"sum_hessian":[1E3,9.43E2,5.7E1,7.82E2,1.61E2,7.62E2,2E1,1.05E2,5.6E1],"tree_param":{"num_deleted":"0","num_feature":"11","num_nodes":"9","size_leaf_vector":"1"}},{"base_weights":[6.662804E-4,-1.5332896E-1,6.674293E-1,-8.3761565E-2,-1.3402969E-1,-1.4295922E-1,1.9750408E0,-3.6318827E-2,1.415465E-2,-6.0187496E-2,1.1495773E-1,2.5796518E-1,-1.2629855E-1],"categories":[],"categories_nodes":[],"categories_segments":[],"categories_sizes":[],"default_left":[0,0,0,0,0,0,0,0,0,0,0,0,0],"id":52,"left_children":[1,3,5,7,-1,9,11,-1,-1,-1,-1,-1,-1],"loss_changes":[1.0288334E2,6.710318E1,1.9950095E2,4.8528366E1,0E0,7.009225E1,1.4421585E2,0E0,0E0,0E0,0E0,0E0,0E0],"parents":[2147483647,0,0,1,1,2,2,3,3,5,5,6,6],"right_children":[2,4,6,8,-1,10,12,-1,-1,-1,-1,-1,-1],"split_conditions":[3E0,1E0,1E0,2E0,-1.3402969E-1,1E0,1E0,-3.6318827E-2,1.415465E-2,-6.0187496E-2,1.1495773E-1,2.5796518E-1,-1.2629855E-1],"split_indices":[10,9,2,10,0,4,6,0,0,0,0,0,0],"split_type":[0,0,0,0,0,0,0,0,0,0,0,0,0],"sum_hessian":[1E3,8.13E2,1.87E2,7.69E2,4.4E1,1.16E2,7.1E1,3.43E2,4.26E2,8.6E1,3E1,6E1,1.1E1],"tree_param":{"num_deleted":"0","num_feature":"11","num_nodes":"13","size_leaf_vector":"1"}},{"base_weights":[6.294334E-4,-1.3818844E-1,6.0167795E-1,-7.541473E-2,-1.2092455E-1,-1.281954E-1,1.7793655E0,3.1530596E-3,-6.492912E-2,-5.423789E-2,1.03832595E-1,9.871032E-2,3.9374074E-1],"categories":[],"categories_nodes":[],"categories_segments":[],"categories_sizes":[],"default_left":[0,0,0,0,0,0,0,0,0,0,0,0,0],"id":53,"left_children":[1,3,5,7,-1,9,11,-1,-1,-1,-1,-1,-1],"loss_changes":[8.360286E1,5.463746E1,1.618259E2,4.7278E1,0E0,5.7092167E1,1.19214294E2,0E0,0E0,0E0,0E0,0E0,0E0],"parents":[2147483647,0,0,1,1,2,2,3,3,5,5,6,6],"right_children":[2,4,6,8,-1,10,12,-1,-1,-1,-1,-1,-1],"split_conditions":[3E0,1E0,1E0,1E0,-1.2092455E-1,1E0,4E0,3.1530596E-3,-6.492912E-2,-5.423789E-2,1.03832595E-1,9.871032E-2,3.9374074E-1],"split_indices":[10,9,2,6,0,4,10,0,0,0,0,0,0],"split_type":[0,0,0,0,0,0,0,0,0,0,0,0,0],"sum_hessian":[1E3,8.13E2,1.87E2,7.69E2,4.4E1,1.16E2,7.1E1,6.49E2,1.2E2,8.6E1,3E1,5.3E1,1.8E1],"tree_param":{"num_deleted":"0","num_feature":"11","num_nodes":"13","size_leaf_vector":"1"}},{"base_weights":[9.247413E-4,6.5665364E-2,-1.05280064E-1,-3.301177E-1,2.9209417E-1,3.7062373E-2,-6.7301315E-1,-3.357753E-2,1.18103325E-1],"categories":[],"categories_nodes":[],"categories_segments":[],"categories_sizes":[],"default_left":[0,0,0,0,0,0,0,0,0],"id":54,"left_children":[1,3,-1,5,7,-1,-1,-1,-1],"loss_changes":[6.835619E1,8.469458E1,0E0,1.5452501E3,3.3583734E2,0E0,0E0,0E0,0E0],"parents":[2147483647,0,0,1,1,3,3,4,4],"right_children":[2,4,-1,6,8,-1,-1,-1,-1],"split_conditions":[1E0,2E0,-1.05280064E-1,1E0,1E0,3.7062373E-2,-6.7301315E-1,-3.357753E-2,1.18103325E-1],"split_indices":[9,10,0,2,2,0,0,0,0],"split_type":[0,0,0,0,0,0,0,0,0],"sum_hessian":[1E3,9.43E2,5.7E1,3.43E2,6E2,3.1E2,3.3E1,3.52E2,2.48E2],"tree_param":{"num_deleted":"0","num_feature":"11","num_nodes":"9","size_leaf_vector":"1"}},{"base_weights":[1.7713691E-4,1.1811696E-1,-6.1136377E-1,5.8001053E-2,2.1596413E0,-1.6691445E-1,-1.427158E-1,-2.9895404E-2,3.169347E-2,-2.384816E-1,4.5809206E-1,-1.3511755E-2,-5.3953696E-2],"categories":[],"categories_nodes":[],"categories_segments":[],"categories_sizes":[],"default_left":[0,0,0,0,0,0,0,0,0,0,0,0,0],"id":55,"left_children":[1,3,5,7,9,11,-1,-1,-1,-1,-1,-1,-1],"loss_changes":[7.226937E1,1.02966324E2,5.849962E1,7.560816E1,2.750063E2,1.1830127E0,0E0,0E0,0E0,0E0,0E0,0E0,0E0],"parents":[2147483647,0,0,1,1,2,2,3,3,4,4,5,5],"right_children":[2,4,6,8,10,12,-1,-1,-1,-1,-1,-1,-1],"split_conditions":[1E0,4E0,1E0,2E0,1E0,4E0,-1.427158E-1,-2.9895404E-2,3.169347E-2,-2.384816E-1,4.5809206E-1,-1.3511755E-2,-5.3953696E-2],"split_indices":[6,10,2,10,2,10,0,0,0,0,0,0,0],"split_type":[0,0,0,0,0,0,0,0,0,0,0,0,0],"sum_hessian":[1E3,8.39E2,1.61E2,8.16E2,2.3E1,1.05E2,5.6E1,3.43E2,4.73E2,8E0,1.5E1,9.8E1,7E0],"tree_param":{"num_deleted":"0","num_feature":"11","num_nodes":"13","size_leaf_vector":"1"}},{"base_weights":[1.7087134E-4,1.06569126E-1,-5.515248E-1,5.220348E-2,1.952826E0,-1.5085956E-1,-1.2869458E-1,1.25786755E-2,-9.695464E-2,-2.1728335E-1,4.1514578E-1,-1.2174237E-2,-4.923275E-2],"categories":[],"categories_nodes":[],"categories_segments":[],"categories_sizes":[],"default_left":[0,0,0,0,0,0,0,0,0,0,0,0,0],"id":56,"left_children":[1,3,5,7,9,11,-1,-1,-1,-1,-1,-1,-1],"loss_changes":[5.8816936E1,8.421134E1,4.7540386E1,6.154704E1,2.2671976E2,9.9397755E-1,0E0,0E0,0E0,0E0,0E0,0E0,0E0],"parents":[2147483647,0,0,1,1,2,2,3,3,4,4,5,5],"right_children":[2,4,6,8,10,12,-1,-1,-1,-1,-1,-1,-1],"split_conditions":[1E0,4E0,1E0,1E0,1E0,4E0,-1.2869458E-1,1.25786755E-2,-9.695464E-2,-2.1728335E-1,4.1514578E-1,-1.2174237E-2,-4.923275E-2],"split_indices":[6,10,2,9,2,10,0,0,0,0,0,0,0],"split_type":[0,0,0,0,0,0,0,0,0,0,0,0,0],"sum_hessian":[1E3,8.39E2,1.61E2,8.16E2,2.3E1,1.05E2,5.6E1,7.62E2,5.4E1,8E0,1.5E1,9.8E1,7E0],"tree_param":{"num_deleted":"0","num_feature":"11","num_nodes":"13","size_leaf_vector":"1"}},{"base_weights":[7.8128054E-5,-1.0958957E-1,4.749155E-1,-1.9539616E-1,4.4134897E-1,-5.145974E-2,1.3236792E0,-1.454807E-2,-9.2425674E-2,1.0897391E-1,-1.10458374E-1,-4.2843137E-2,1.0081529E-1,1.792721E-1,-1.17092274E-1],"categories":[],"categories_nodes":[],"categories_segments":[],"categories_sizes":[],"default_left":[0,0,0,0,0,0,0,0,0,0,0,0,0,0,0],"id":57,"left_children":[1,3,5,7,9,11,13,-1,-1,-1,-1,-1,-1,-1,-1],"loss_changes":[5.2178436E1,3.8567406E1,8.406053E1,2.5514431E1,1.11464134E2,4.716686E1,8.634434E1,0E0,0E0,0E0,0E0,0E0,0E0,0E0,0E0],"parents":[2147483647,0,0,1,1,2,2,3,3,4,4,5,5,6,6],"right_children":[2,4,6,8,10,12,14,-1,-1,-1,-1,-1,-1,-1,-1],"split_conditions":[3E0,1E0,1E0,1E0,1E0,1E0,1E0,-1.454807E-2,-9.2425674E-2,1.0897391E-1,-1.10458374E-1,-4.2843137E-2,1.0081529E-1,1.792721E-1,-1.17092274E-1],"split_indices":[10,4,2,9,2,4,6,0,0,0,0,0,0,0,0],"split_type":[0,0,0,0,0,0,0,0,0,0,0,0,0,0,0],"sum_hessian":[1E3,8.13E2,1.87E2,7.04E2,1.09E2,1.16E2,7.1E1,6.6E2,4.4E1,7.7E1,3.2E1,8.6E1,3E1,6E1,1.1E1],"tree_param":{"num_deleted":"0","num_feature":"11","num_nodes":"15","size_leaf_vector":"1"}},{"base_weights":[8.142042E-5,9.091054E-2,-4.708849E-1,-2.671825E-1,3.3858275E-1,-1.13934174E-1,-1.1264268E-1,3.6544286E-2,-6.045985E-1,-4.9560383E-2,1.6551027E-1,-8.87165E-3,-4.1176118E-2],"categories":[],"categories_nodes":[],"categories_segments":[],"categories_sizes":[],"default_left":[0,0,0,0,0,0,0,0,0,0,0,0,0],"id":58,"left_children":[1,3,5,7,9,11,-1,-1,-1,-1,-1,-1,-1],"loss_changes":[4.286304E1,7.458981E1,3.7779037E1,1.2598105E3,5.466372E2,7.595835E-1,0E0,0E0,0E0,0E0,0E0,0E0,0E0],"parents":[2147483647,0,0,1,1,2,2,3,3,4,4,5,5],"right_children":[2,4,6,8,10,12,-1,-1,-1,-1,-1,-1,-1],"split_conditions":[1E0,2E0,1E0,1E0,1E0,4E0,-1.1264268E-1,3.6544286E-2,-6.045985E-1,-4.9560383E-2,1.6551027E-1,-8.87165E-3,-4.1176118E-2],"split_indices":[6,10,2,2,2,10,0,0,0,0,0,0,0],"split_type":[0,0,0,0,0,0,0,0,0,0,0,0,0],"sum_hessian":[1E3,8.39E2,1.61E2,3.43E2,4.96E2,1.05E2,5.6E1,3.1E2,3.3E1,3.04E2,1.92E2,9.8E1,7E0],"tree_param":{"num_deleted":"0","num_feature":"11","num_nodes":"13","size_leaf_vector":"1"}},{"base_weights":[-5.413663E-4,-9.469358E-2,4.0712056E-1,-1.6920862E-1,3.8374093E-1,-5.181539E-3,1.071457E0,-1.2700136E-2,-7.854261E-2,1.0310831E-1,-1.15796916E-1,-3.485213E-2,9.58552E-2,1.6056365E-1,-1.2562606E-1],"categories":[],"categories_nodes":[],"categories_segments":[],"categories_sizes":[],"default_left":[0,0,0,0,0,0,0,0,0,0,0,0,0,0,0],"id":59,"left_children":[1,3,5,7,9,11,13,-1,-1,-1,-1,-1,-1,-1,-1],"loss_changes":[3.8459206E1,2.9084492E1,5.1500122E1,1.8236488E1,1.109755E2,3.9047974E1,9.154326E1,0E0,0E0,0E0,0E0,0E0,0E0,0E0,0E0],"parents":[2147483647,0,0,1,1,2,2,3,3,4,4,5,5,6,6],"right_children":[2,4,6,8,10,12,14,-1,-1,-1,-1,-1,-1,-1,-1],"split_conditions":[3E0,1E0,1E0,1E0,1E0,1E0,1E0,-1.2700136E-2,-7.854261E-2,1.0310831E-1,-1.15796916E-1,-3.485213E-2,9.58552E-2,1.6056365E-1,-1.2562606E-1],"split_indices":[10,4,2,9,2,4,4,0,0,0,0,0,0,0,0],"split_type":[0,0,0,0,0,0,0,0,0,0,0,0,0,0,0],"sum_hessian":[1E3,8.13E2,1.87E2,7.04E2,1.09E2,1.16E2,7.1E1,6.6E2,4.4E1,7.7E1,3.2E1,8.6E1,3E1,5.8E1,1.3E1],"tree_param":{"num_deleted":"0","num_feature":"11","num_nodes":"15","size_leaf_vector":"1"}},{"base_weights":[-4.94561E-4,8.03801E-2,-4.198416E-1,-2.2945197E-1,2.9466954E-1,-8.416331E-2,-1.0367198E0,3.4167565E-2,-5.446841E-1,-4.598945E-2,1.4855884E-1,-6.221635E-3,-3.452366E-2,-9.706963E-2,-1.6688576E-1],"categories":[],"categories_nodes":[],"categories_segments":[],"categories_sizes":[],"default_left":[0,0,0,0,0,0,0,0,0,0,0,0,0,0,0],"id":60,"left_children":[1,3,5,7,9,11,13,-1,-1,-1,-1,-1,-1,-1,-1],"loss_changes":[3.3982212E1,5.583835E1,3.345851E1,1.0269106E3,4.4729962E2,5.8587575E-1,7.5899506E-1,0E0,0E0,0E0,0E0,0E0,0E0,0E0,0E0],"parents":[2147483647,0,0,1,1,2,2,3,3,4,4,5,5,6,6],"right_children":[2,4,6,8,10,12,14,-1,-1,-1,-1,-1,-1,-1,-1],"split_conditions":[1E0,2E0,1E0,1E0,1E0,4E0,4E0,3.4167565E-2,-5.446841E-1,-4.598945E-2,1.4855884E-1,-6.221635E-3,-3.452366E-2,-9.706963E-2,-1.6688576E-1],"split_indices":[6,10,2,2,2,10,10,0,0,0,0,0,0,0,0],"split_type":[0,0,0,0,0,0,0,0,0,0,0,0,0,0,0],"sum_hessian":[1E3,8.39E2,1.61E2,3.43E2,4.96E2,1.05E2,5.6E1,3.1E2,3.3E1,3.04E2,1.92E2,9.8E1,7E0,5.3E1,3E0],"tree_param":{"num_deleted":"0","num_feature":"11","num_nodes":"15","size_leaf_vector":"1"}},{"base_weights":[-1.1572201E-3,-8.2116246E-2,3.493843E-1,-1.4696175E-1,3.3423102E-1,3.2951187E-2,8.5873556E-1,-1.1156321E-2,-6.636613E-2,9.747017E-2,-1.1897371E-1,-2.8004427E-2,9.102949E-2,1.3510975E-1,-1.2775563E-1],"categories":[],"categories_nodes":[],"categories_segments":[],"categories_sizes":[],"default_left":[0,0,0,0,0,0,0,0,0,0,0,0,0,0,0],"id":61,"left_children":[1,3,5,7,9,11,13,-1,-1,-1,-1,-1,-1,-1,-1],"loss_changes":[2.843657E1,2.2025694E1,3.0272718E1,1.2820699E1,1.08525894E2,3.2383656E1,7.745776E1,0E0,0E0,0E0,0E0,0E0,0E0,0E0,0E0],"parents":[2147483647,0,0,1,1,2,2,3,3,4,4,5,5,6,6],"right_children":[2,4,6,8,10,12,14,-1,-1,-1,-1,-1,-1,-1,-1],"split_conditions":[3E0,1E0,1E0,1E0,1E0,1E0,1E0,-1.1156321E-2,-6.636613E-2,9.747017E-2,-1.1897371E-1,-2.8004427E-2,9.102949E-2,1.3510975E-1,-1.2775563E-1],"split_indices":[10,4,2,9,2,4,4,0,0,0,0,0,0,0,0],"split_type":[0,0,0,0,0,0,0,0,0,0,0,0,0,0,0],"sum_hessian":[1E3,8.13E2,1.87E2,7.04E2,1.09E2,1.16E2,7.1E1,6.6E2,4.4E1,7.7E1,3.2E1,8.6E1,3E1,5.8E1,1.3E1],"tree_param":{"num_deleted":"0","num_feature":"11","num_nodes":"15","size_leaf_vector":"1"}},{"base_weights":[-1.0703865E-3,7.1135096E-2,-3.754626E-1,-1.9686776E-1,2.5649095E-1,-6.031206E-2,-9.549449E-1,3.187376E-2,-4.9073502E-1,-4.2935364E-2,1.3390096E-1,-4.1099824E-3,-2.9052446E-2,-8.861437E-2,-1.6450256E-1],"categories":[],"categories_nodes":[],"categories_segments":[],"categories_sizes":[],"default_left":[0,0,0,0,0,0,0,0,0,0,0,0,0,0,0],"id":62,"left_children":[1,3,5,7,9,11,13,-1,-1,-1,-1,-1,-1,-1,-1],"loss_changes":[2.7086912E1,4.1778248E1,2.9527517E1,8.370541E2,3.6956735E2,4.5688635E-1,1.2485428E0,0E0,0E0,0E0,0E0,0E0,0E0,0E0,0E0],"parents":[2147483647,0,0,1,1,2,2,3,3,4,4,5,5,6,6],"right_children":[2,4,6,8,10,12,14,-1,-1,-1,-1,-1,-1,-1,-1],"split_conditions":[1E0,2E0,1E0,1E0,1E0,4E0,4E0,3.187376E-2,-4.9073502E-1,-4.2935364E-2,1.3390096E-1,-4.1099824E-3,-2.9052446E-2,-8.861437E-2,-1.6450256E-1],"split_indices":[6,10,2,2,2,10,10,0,0,0,0,0,0,0,0],"split_type":[0,0,0,0,0,0,0,0,0,0,0,0,0,0,0],"sum_hessian":[1E3,8.39E2,1.61E2,3.43E2,4.96E2,1.05E2,5.6E1,3.1E2,3.3E1,3.04E2,1.92E2,9.8E1,7E0,5.3E1,3E0],"tree_param":{"num_deleted":"0","num_feature":"11","num_nodes":"15","size_leaf_vector":"1"}},{"base_weights":[-1.6163092E-3,6.358426E-2,-3.3968338E-1,2.7775884E-2,1.2799119E0,-5.4593593E-2,-8.6389095E-1,-1.7851502E-2,1.7743051E-2,-1.9811945E-1,3.0342898E-1,-3.7031241E-3,-2.6510352E-2,-7.991702E-2,-1.5216486E-1],"categories":[],"categories_nodes":[],"categories_segments":[],"categories_sizes":[],"default_left":[0,0,0,0,0,0,0,0,0,0,0,0,0,0,0],"id":63,"left_children":[1,3,5,7,9,11,13,-1,-1,-1,-1,-1,-1,-1,-1],"loss_changes":[2.2085808E1,3.6550415E1,2.4163128E1,2.5254414E1,1.4332059E2,3.820701E-1,1.2104645E0,0E0,0E0,0E0,0E0,0E0,0E0,0E0,0E0],"parents":[2147483647,0,0,1,1,2,2,3,3,4,4,5,5,6,6],"right_children":[2,4,6,8,10,12,14,-1,-1,-1,-1,-1,-1,-1,-1],"split_conditions":[1E0,4E0,1E0,2E0,1E0,4E0,4E0,-1.7851502E-2,1.7743051E-2,-1.9811945E-1,3.0342898E-1,-3.7031241E-3,-2.6510352E-2,-7.991702E-2,-1.5216486E-1],"split_indices":[6,10,2,10,2,10,10,0,0,0,0,0,0,0,0],"split_type":[0,0,0,0,0,0,0,0,0,0,0,0,0,0,0],"sum_hessian":[1E3,8.39E2,1.61E2,8.16E2,2.3E1,1.05E2,5.6E1,3.43E2,4.73E2,8E0,1.5E1,9.8E1,7E0,5.3E1,3E0],"tree_param":{"num_deleted":"0","num_feature":"11","num_nodes":"15","size_leaf_vector":"1"}},{"base_weights":[-1.611999E-3,-6.655564E-2,2.7958873E-1,-1.1961796E-1,2.7413067E-1,4.5081022E-1,-3.2634342E-1,-2.096422E-2,1.4609374E-2,9.033475E-2,-1.22141615E-1,1.20692095E-2,9.142441E-2,-8.082249E-3,-9.334105E-2],"categories":[],"categories_nodes":[],"categories_segments":[],"categories_sizes":[],"default_left":[0,0,0,0,0,0,0,0,0,0,0,0,0,0,0],"id":64,"left_children":[1,3,5,7,9,11,13,-1,-1,-1,-1,-1,-1,-1,-1],"loss_changes":[1.8299068E1,1.4747961E1,1.9651857E1,1.6894577E1,1.0461592E2,2.2378885E1,6.1845613E0,0E0,0E0,0E0,0E0,0E0,0E0,0E0,0E0],"parents":[2147483647,0,0,1,1,2,2,3,3,4,4,5,5,6,6],"right_children":[2,4,6,8,10,12,14,-1,-1,-1,-1,-1,-1,-1,-1],"split_conditions":[3E0,1E0,1E0,1E0,1E0,1E0,1E0,-2.096422E-2,1.4609374E-2,9.033475E-2,-1.22141615E-1,1.20692095E-2,9.142441E-2,-8.082249E-3,-9.334105E-2],"split_indices":[10,4,6,2,2,2,2,0,0,0,0,0,0,0,0],"split_type":[0,0,0,0,0,0,0,0,0,0,0,0,0,0,0],"sum_hessian":[1E3,8.13E2,1.87E2,7.04E2,1.09E2,1.46E2,4.1E1,5.26E2,1.78E2,7.7E1,3.2E1,8.6E1,6E1,3E1,1.1E1],"tree_param":{"num_deleted":"0","num_feature":"11","num_nodes":"15","size_leaf_vector":"1"}},{"base_weights":[-1.4868794E-3,5.48996E-2,-2.9385203E-1,2.4274437E-2,1.0951438E0,-3.229876E-2,-7.750941E-1,6.4351507E-3,-5.3214516E-2,-1.8158163E-1,2.6641124E-1,-1.5605929E-3,-2.3483519E-2,-7.190794E-2,-1.3375193E-1],"categories":[],"categories_nodes":[],"categories_segments":[],"categories_sizes":[],"default_left":[0,0,0,0,0,0,0,0,0,0,0,0,0,0,0],"id":65,"left_children":[1,3,5,7,9,11,13,-1,-1,-1,-1,-1,-1,-1,-1],"loss_changes":[1.651806E1,2.673384E1,2.0365978E1,1.8253073E1,1.1445046E2,3.547112E-1,8.3395004E-1,0E0,0E0,0E0,0E0,0E0,0E0,0E0,0E0],"parents":[2147483647,0,0,1,1,2,2,3,3,4,4,5,5,6,6],"right_children":[2,4,6,8,10,12,14,-1,-1,-1,-1,-1,-1,-1,-1],"split_conditions":[1E0,4E0,1E0,1E0,1E0,4E0,4E0,6.4351507E-3,-5.3214516E-2,-1.8158163E-1,2.6641124E-1,-1.5605929E-3,-2.3483519E-2,-7.190794E-2,-1.3375193E-1],"split_indices":[6,10,2,9,2,10,10,0,0,0,0,0,0,0,0],"split_type":[0,0,0,0,0,0,0,0,0,0,0,0,0,0,0],"sum_hessian":[1E3,8.39E2,1.61E2,8.16E2,2.3E1,1.05E2,5.6E1,7.62E2,5.4E1,8E0,1.5E1,9.8E1,7E0,5.3E1,3E0],"tree_param":{"num_deleted":"0","num_feature":"11","num_nodes":"15","size_leaf_vector":"1"}},{"base_weights":[-1.5314493E-3,-5.808288E-2,2.4333236E-1,-1.04517855E-1,2.4005114E-1,3.8780198E-1,-2.6810497E-1,-1.8902322E-2,1.4486116E-2,8.078169E-2,-1.109215E-1,1.2654379E-2,7.540587E-2,-6.65404E-3,-7.664714E-2],"categories":[],"categories_nodes":[],"categories_segments":[],"categories_sizes":[],"default_left":[0,0,0,0,0,0,0,0,0,0,0,0,0,0,0],"id":66,"left_children":[1,3,5,7,9,11,13,-1,-1,-1,-1,-1,-1,-1,-1],"loss_changes":[1.3875379E1,1.1293981E1,1.3994759E1,1.4884456E1,8.516344E1,1.3970655E1,4.168026E0,0E0,0E0,0E0,0E0,0E0,0E0,0E0,0E0],"parents":[2147483647,0,0,1,1,2,2,3,3,4,4,5,5,6,6],"right_children":[2,4,6,8,10,12,14,-1,-1,-1,-1,-1,-1,-1,-1],"split_conditions":[3E0,1E0,1E0,1E0,1E0,1E0,1E0,-1.8902322E-2,1.4486116E-2,8.078169E-2,-1.109215E-1,1.2654379E-2,7.540587E-2,-6.65404E-3,-7.664714E-2],"split_indices":[10,4,6,2,2,2,2,0,0,0,0,0,0,0,0],"split_type":[0,0,0,0,0,0,0,0,0,0,0,0,0,0,0],"sum_hessian":[1E3,8.13E2,1.87E2,7.04E2,1.09E2,1.46E2,4.1E1,5.26E2,1.78E2,7.7E1,3.2E1,8.6E1,6E1,3E1,1.1E1],"tree_param":{"num_deleted":"0","num_feature":"11","num_nodes":"15","size_leaf_vector":"1"}},{"base_weights":[-1.4080189E-3,4.744805E-2,-2.547271E-1,2.123472E-2,9.3781656E-1,-1.4047575E-2,-6.9783765E-1,-1.339985E-2,1.3384863E-2,-1.6656572E-1,2.343657E-1,1.8048046E-4,-2.0846484E-2,-6.4921975E-2,-1.17971994E-1],"categories":[],"categories_nodes":[],"categories_segments":[],"categories_sizes":[],"default_left":[0,0,0,0,0,0,0,0,0,0,0,0,0,0,0],"id":67,"left_children":[1,3,5,7,9,11,13,-1,-1,-1,-1,-1,-1,-1,-1],"loss_changes":[1.2400638E1,1.9585289E1,1.7267113E1,1.4300255E1,9.174538E1,3.270657E-1,5.695057E-1,0E0,0E0,0E0,0E0,0E0,0E0,0E0,0E0],"parents":[2147483647,0,0,1,1,2,2,3,3,4,4,5,5,6,6],"right_children":[2,4,6,8,10,12,14,-1,-1,-1,-1,-1,-1,-1,-1],"split_conditions":[1E0,4E0,1E0,2E0,1E0,4E0,4E0,-1.339985E-2,1.3384863E-2,-1.6656572E-1,2.343657E-1,1.8048046E-4,-2.0846484E-2,-6.4921975E-2,-1.17971994E-1],"split_indices":[6,10,2,10,2,10,10,0,0,0,0,0,0,0,0],"split_type":[0,0,0,0,0,0,0,0,0,0,0,0,0,0,0],"sum_hessian":[1E3,8.39E2,1.61E2,8.16E2,2.3E1,1.05E2,5.6E1,3.43E2,4.73E2,8E0,1.5E1,9.8E1,7E0,5.3E1,3E0],"tree_param":{"num_deleted":"0","num_feature":"11","num_nodes":"15","size_leaf_vector":"1"}},{"base_weights":[-1.4029469E-3,2.6261719E-2,-4.5164505E-1,7.935356E-2,-2.3051098E-1,-4.8021857E-2,5.4151863E-3,-1.206384E-2,2.3553057E-2,-1.283779E-3,-6.3126266E-2],"categories":[],"categories_nodes":[],"categories_segments":[],"categories_sizes":[],"default_left":[0,0,0,0,0,0,0,0,0,0,0],"id":68,"left_children":[1,3,5,7,9,-1,-1,-1,-1,-1,-1],"loss_changes":[1.2480116E1,1.2887406E1,8.642416E-1,2.448475E1,1.4123626E1,0E0,0E0,0E0,0E0,0E0,0E0],"parents":[2147483647,0,0,1,1,2,2,3,3,4,4],"right_children":[2,4,6,8,10,-1,-1,-1,-1,-1,-1],"split_conditions":[1E0,1E0,4E0,2E0,1E0,-4.8021857E-2,5.4151863E-3,-1.206384E-2,2.3553057E-2,-1.283779E-3,-6.3126266E-2],"split_indices":[9,6,10,10,2,0,0,0,0,0,0],"split_type":[0,0,0,0,0,0,0,0,0,0,0],"sum_hessian":[1E3,9.43E2,5.7E1,7.82E2,1.61E2,5.4E1,3E0,3.43E2,4.39E2,1.05E2,5.6E1],"tree_param":{"num_deleted":"0","num_feature":"11","num_nodes":"11","size_leaf_vector":"1"}},{"base_weights":[-1.3590147E-3,2.3578504E-2,-4.072152E-1,7.14317E-2,-2.0785747E-1,-4.3306988E-2,5.0090463E-3,-1.0860957E-2,2.120289E-2,-1.1566018E-3,-5.692441E-2],"categories":[],"categories_nodes":[],"categories_segments":[],"categories_sizes":[],"default_left":[0,0,0,0,0,0,0,0,0,0,0],"id":69,"left_children":[1,3,5,7,9,-1,-1,-1,-1,-1,-1],"loss_changes":[1.0140769E1,1.0469601E1,7.0745564E-1,1.9843342E1,1.1485226E1,0E0,0E0,0E0,0E0,0E0,0E0],"parents":[2147483647,0,0,1,1,2,2,3,3,4,4],"right_children":[2,4,6,8,10,-1,-1,-1,-1,-1,-1],"split_conditions":[1E0,1E0,4E0,2E0,1E0,-4.3306988E-2,5.0090463E-3,-1.0860957E-2,2.120289E-2,-1.1566018E-3,-5.692441E-2],"split_indices":[9,6,10,10,2,0,0,0,0,0,0],"split_type":[0,0,0,0,0,0,0,0,0,0,0],"sum_hessian":[1E3,9.43E2,5.7E1,7.82E2,1.61E2,5.4E1,3E0,3.43E2,4.39E2,1.05E2,5.6E1],"tree_param":{"num_deleted":"0","num_feature":"11","num_nodes":"11","size_leaf_vector":"1"}},{"base_weights":[-1.3099964E-3,2.116909E-2,-3.671539E-1,6.4300545E-2,-1.8743029E-1,-3.9055023E-2,4.633376E-3,-9.778054E-3,1.9087236E-2,-1.0420361E-3,-5.1331844E-2],"categories":[],"categories_nodes":[],"categories_segments":[],"categories_sizes":[],"default_left":[0,0,0,0,0,0,0,0,0,0,0],"id":70,"left_children":[1,3,5,7,9,-1,-1,-1,-1,-1,-1],"loss_changes":[8.239834E0,8.505404E0,5.791917E-1,1.608183E1,9.339691E0,0E0,0E0,0E0,0E0,0E0,0E0],"parents":[2147483647,0,0,1,1,2,2,3,3,4,4],"right_children":[2,4,6,8,10,-1,-1,-1,-1,-1,-1],"split_conditions":[1E0,1E0,4E0,2E0,1E0,-3.9055023E-2,4.633376E-3,-9.778054E-3,1.9087236E-2,-1.0420361E-3,-5.1331844E-2],"split_indices":[9,6,10,10,2,0,0,0,0,0,0],"split_type":[0,0,0,0,0,0,0,0,0,0,0],"sum_hessian":[1E3,9.43E2,5.7E1,7.82E2,1.61E2,5.4E1,3E0,3.43E2,4.39E2,1.05E2,5.6E1],"tree_param":{"num_deleted":"0","num_feature":"11","num_nodes":"11","size_leaf_vector":"1"}},{"base_weights":[-1.2564758E-3,-4.2231992E-2,1.7616548E-1,-2.3096344E-2,-3.6872573E-2,2.7436754E-1,-1.717362E-1,-5.0075497E-3,1.3923381E-2,7.824569E-3,5.495845E-2,-5.8271484E-3,-4.86203E-2],"categories":[],"categories_nodes":[],"categories_segments":[],"categories_sizes":[],"default_left":[0,0,0,0,0,0,0,0,0,0,0,0,0],"id":71,"left_children":[1,3,5,7,-1,9,11,-1,-1,-1,-1,-1,-1],"loss_changes":[7.284666E0,5.0770855E0,6.470076E0,3.3792107E0,0E0,7.8914795E0,1.4702654E0,0E0,0E0,0E0,0E0,0E0,0E0],"parents":[2147483647,0,0,1,1,2,2,3,3,5,5,6,6],"right_children":[2,4,6,8,-1,10,12,-1,-1,-1,-1,-1,-1],"split_conditions":[3E0,1E0,1E0,1E0,-3.6872573E-2,1E0,4E0,-5.0075497E-3,1.3923381E-2,7.824569E-3,5.495845E-2,-5.8271484E-3,-4.86203E-2],"split_indices":[10,9,6,4,0,2,10,0,0,0,0,0,0],"split_type":[0,0,0,0,0,0,0,0,0,0,0,0,0],"sum_hessian":[1E3,8.13E2,1.87E2,7.69E2,4.4E1,1.46E2,4.1E1,6.6E2,1.09E2,8.6E1,6E1,3.1E1,1E1],"tree_param":{"num_deleted":"0","num_feature":"11","num_nodes":"13","size_leaf_vector":"1"}},{"base_weights":[-1.1499419E-3,-3.804239E-2,1.5859261E-1,-2.077434E-2,-3.326725E-2,2.4735707E-1,-1.5585898E-1,5.4917205E-4,-1.6170133E-2,1.4714531E-2,7.548113E-2,-3.6855284E-3,-4.5029696E-2],"categories":[],"categories_nodes":[],"categories_segments":[],"categories_sizes":[],"default_left":[0,0,0,0,0,0,0,0,0,0,0,0,0],"id":72,"left_children":[1,3,5,7,-1,9,11,-1,-1,-1,-1,-1,-1],"loss_changes":[5.9052196E0,4.134465E0,5.286032E0,2.8511176E0,0E0,7.3643064E0,1.4550507E0,0E0,0E0,0E0,0E0,0E0,0E0],"parents":[2147483647,0,0,1,1,2,2,3,3,5,5,6,6],"right_children":[2,4,6,8,-1,10,12,-1,-1,-1,-1,-1,-1],"split_conditions":[3E0,1E0,1E0,1E0,-3.326725E-2,4E0,1E0,5.4917205E-4,-1.6170133E-2,1.4714531E-2,7.548113E-2,-3.6855284E-3,-4.5029696E-2],"split_indices":[10,9,6,6,0,10,2,0,0,0,0,0,0],"split_type":[0,0,0,0,0,0,0,0,0,0,0,0,0],"sum_hessian":[1E3,8.13E2,1.87E2,7.69E2,4.4E1,1.46E2,4.1E1,6.49E2,1.2E2,1.23E2,2.3E1,3E1,1.1E1],"tree_param":{"num_deleted":"0","num_feature":"11","num_nodes":"13","size_leaf_vector":"1"}},{"base_weights":[-1.0423101E-3,1.6467853E-2,-2.8601733E-1,-8.358548E-2,7.3708914E-2,-3.0019134E-2,-1.9620687E-3,3.8847994E-2,-4.3991375E-1,-3.4599677E-2,6.684174E-2],"categories":[],"categories_nodes":[],"categories_segments":[],"categories_sizes":[],"default_left":[0,0,0,0,0,0,0,0,0,0,0],"id":73,"left_children":[1,3,5,7,9,-1,-1,-1,-1,-1,-1],"loss_changes":[4.9996595E0,5.412599E0,2.1311188E-1,7.025136E2,1.5024237E2,0E0,0E0,0E0,0E0,0E0,0E0],"parents":[2147483647,0,0,1,1,2,2,3,3,4,4],"right_children":[2,4,6,8,10,-1,-1,-1,-1,-1,-1],"split_conditions":[1E0,2E0,4E0,1E0,1E0,-3.0019134E-2,-1.9620687E-3,3.8847994E-2,-4.3991375E-1,-3.4599677E-2,6.684174E-2],"split_indices":[9,10,10,2,2,0,0,0,0,0,0],"split_type":[0,0,0,0,0,0,0,0,0,0,0],"sum_hessian":[1E3,9.43E2,5.7E1,3.43E2,6E2,5.4E1,3E0,3.1E2,3.3E1,3.52E2,2.48E2],"tree_param":{"num_deleted":"0","num_feature":"11","num_nodes":"11","size_leaf_vector":"1"}},{"base_weights":[-1.3382133E-3,-3.3586327E-2,1.3829638E-1,-5.9012543E-2,1.2967792E-1,2.1521884E-1,-1.3422503E-1,-1.4375535E-2,1.9081132E-2,6.717062E-2,-1.1554094E-1,1.2968977E-2,6.481516E-2,1.9496487E-5,-4.7029123E-2],"categories":[],"categories_nodes":[],"categories_segments":[],"categories_sizes":[],"default_left":[0,0,0,0,0,0,0,0,0,0,0,0,0,0,0],"id":74,"left_children":[1,3,5,7,9,11,13,-1,-1,-1,-1,-1,-1,-1,-1],"loss_changes":[4.5121E0,3.386723E0,3.9699352E0,1.4952827E1,7.7396996E1,5.359107E0,1.8974004E0,0E0,0E0,0E0,0E0,0E0,0E0,0E0,0E0],"parents":[2147483647,0,0,1,1,2,2,3,3,4,4,5,5,6,6],"right_children":[2,4,6,8,10,12,14,-1,-1,-1,-1,-1,-1,-1,-1],"split_conditions":[3E0,1E0,1E0,1E0,1E0,4E0,1E0,-1.4375535E-2,1.9081132E-2,6.717062E-2,-1.1554094E-1,1.2968977E-2,6.481516E-2,1.9496487E-5,-4.7029123E-2],"split_indices":[10,4,6,2,2,10,2,0,0,0,0,0,0,0,0],"split_type":[0,0,0,0,0,0,0,0,0,0,0,0,0,0,0],"sum_hessian":[1E3,8.13E2,1.87E2,7.04E2,1.09E2,1.46E2,4.1E1,5.26E2,1.78E2,7.7E1,3.2E1,1.23E2,2.3E1,3E1,1.1E1],"tree_param":{"num_deleted":"0","num_feature":"11","num_nodes":"15","size_leaf_vector":"1"}},{"base_weights":[-1.2172529E-3,1.4232242E-2,-2.526501E-1,4.6455674E-2,-1.416022E-1,-2.6157573E-2,-6.676033E-3,2.888978E-3,6.82471E-2,5.55534E-3,-5.057582E-2],"categories":[],"categories_nodes":[],"categories_segments":[],"categories_sizes":[],"default_left":[0,0,0,0,0,0,0,0,0,0,0],"id":75,"left_children":[1,3,5,7,9,-1,-1,-1,-1,-1,-1],"loss_changes":[3.891991E0,4.7468934E0,7.8769684E-2,8.728098E0,1.1658949E1,0E0,0E0,0E0,0E0,0E0,0E0],"parents":[2147483647,0,0,1,1,2,2,3,3,4,4],"right_children":[2,4,6,8,10,-1,-1,-1,-1,-1,-1],"split_conditions":[1E0,1E0,4E0,4E0,1E0,-2.6157573E-2,-6.676033E-3,2.888978E-3,6.82471E-2,5.55534E-3,-5.057582E-2],"split_indices":[9,6,10,10,2,0,0,0,0,0,0],"split_type":[0,0,0,0,0,0,0,0,0,0,0],"sum_hessian":[1E3,9.43E2,5.7E1,7.82E2,1.61E2,5.4E1,3E0,7.62E2,2E1,1.05E2,5.6E1],"tree_param":{"num_deleted":"0","num_feature":"11","num_nodes":"11","size_leaf_vector":"1"}},{"base_weights":[-1.1017495E-3,-2.8886126E-2,1.1920455E-1,-5.1047903E-2,1.1341331E-1,1.8463607E-1,-1.1264397E-1,-1.3024543E-2,1.8240541E-2,6.0255118E-2,-1.04616754E-1,2.8313754E-2,-5.238186E-3,-1.0167718E-3,-4.0051635E-2],"categories":[],"categories_nodes":[],"categories_segments":[],"categories_sizes":[],"default_left":[0,0,0,0,0,0,0,0,0,0,0,0,0,0,0],"id":76,"left_children":[1,3,5,7,9,11,13,-1,-1,-1,-1,-1,-1,-1,-1],"loss_changes":[3.3494215E0,2.5728266E0,2.8727956E0,1.3058449E1,6.302181E1,3.446784E0,1.2349312E0,0E0,0E0,0E0,0E0,0E0,0E0,0E0,0E0],"parents":[2147483647,0,0,1,1,2,2,3,3,4,4,5,5,6,6],"right_children":[2,4,6,8,10,12,14,-1,-1,-1,-1,-1,-1,-1,-1],"split_conditions":[3E0,1E0,1E0,1E0,1E0,1E0,4E0,-1.3024543E-2,1.8240541E-2,6.0255118E-2,-1.04616754E-1,2.8313754E-2,-5.238186E-3,-1.0167718E-3,-4.0051635E-2],"split_indices":[10,4,6,2,2,4,10,0,0,0,0,0,0,0,0],"split_type":[0,0,0,0,0,0,0,0,0,0,0,0,0,0,0],"sum_hessian":[1E3,8.13E2,1.87E2,7.04E2,1.09E2,1.46E2,4.1E1,5.26E2,1.78E2,7.7E1,3.2E1,1.03E2,4.3E1,3.1E1,1E1],"tree_param":{"num_deleted":"0","num_feature":"11","num_nodes":"15","size_leaf_vector":"1"}},{"base_weights":[-1.0488178E-3,1.2676162E-2,-2.2441661E-1,4.0956408E-2,-1.2408995E-1,-2.3062197E-2,-8.298859E-3,2.5381814E-3,6.048831E-2,6.2131477E-3,-4.6821944E-2],"categories":[],"categories_nodes":[],"categories_segments":[],"categories_sizes":[],"default_left":[0,0,0,0,0,0,0,0,0,0,0],"id":77,"left_children":[1,3,5,7,9,-1,-1,-1,-1,-1,-1],"loss_changes":[3.071629E0,3.6562662E0,3.176236E-2,6.861682E0,1.0410746E1,0E0,0E0,0E0,0E0,0E0,0E0],"parents":[2147483647,0,0,1,1,2,2,3,3,4,4],"right_children":[2,4,6,8,10,-1,-1,-1,-1,-1,-1],"split_conditions":[1E0,1E0,4E0,4E0,1E0,-2.3062197E-2,-8.298859E-3,2.5381814E-3,6.048831E-2,6.2131477E-3,-4.6821944E-2],"split_indices":[9,6,10,10,2,0,0,0,0,0,0],"split_type":[0,0,0,0,0,0,0,0,0,0,0],"sum_hessian":[1E3,9.43E2,5.7E1,7.82E2,1.61E2,5.4E1,3E0,7.62E2,2E1,1.05E2,5.6E1],"tree_param":{"num_deleted":"0","num_feature":"11","num_nodes":"11","size_leaf_vector":"1"}},{"base_weights":[-9.5216226E-4,1.1433043E-2,-2.0251563E-1,3.6942165E-2,-1.1193162E-1,-2.0797906E-2,-7.6764436E-3,-1.8923063E-3,1.7471144E-2,5.59769E-3,-4.2221885E-2],"categories":[],"categories_nodes":[],"categories_segments":[],"categories_sizes":[],"default_left":[0,0,0,0,0,0,0,0,0,0,0],"id":78,"left_children":[1,3,5,7,9,-1,-1,-1,-1,-1,-1],"loss_changes":[2.501217E0,2.9748313E0,2.3882389E-2,6.0296745E0,8.463814E0,0E0,0E0,0E0,0E0,0E0,0E0],"parents":[2147483647,0,0,1,1,2,2,3,3,4,4],"right_children":[2,4,6,8,10,-1,-1,-1,-1,-1,-1],"split_conditions":[1E0,1E0,4E0,1E0,1E0,-2.0797906E-2,-7.6764436E-3,-1.8923063E-3,1.7471144E-2,5.59769E-3,-4.2221885E-2],"split_indices":[9,6,10,2,2,0,0,0,0,0,0],"split_type":[0,0,0,0,0,0,0,0,0,0,0],"sum_hessian":[1E3,9.43E2,5.7E1,7.82E2,1.61E2,5.4E1,3E0,5.57E2,2.25E2,1.05E2,5.6E1],"tree_param":{"num_deleted":"0","num_feature":"11","num_nodes":"11","size_leaf_vector":"1"}},{"base_weights":[-9.0656616E-4,-2.427994E-2,1.0029999E-1,-4.2918753E-2,9.539864E-2,1.5326701E-1,-8.747267E-2,-1.1576318E-2,1.7178476E-2,5.4243412E-2,-9.641215E-2,2.4433518E-2,-6.546836E-3,4.5892075E-4,-3.4733698E-2],"categories":[],"categories_nodes":[],"categories_segments":[],"categories_sizes":[],"default_left":[0,0,0,0,0,0,0,0,0,0,0,0,0,0,0],"id":79,"left_children":[1,3,5,7,9,11,13,-1,-1,-1,-1,-1,-1,-1,-1],"loss_changes":[2.3703396E0,1.8198571E0,1.8832093E0,1.1046054E1,5.262371E1,2.9442108E0,1.0063851E0,0E0,0E0,0E0,0E0,0E0,0E0,0E0,0E0],"parents":[2147483647,0,0,1,1,2,2,3,3,4,4,5,5,6,6],"right_children":[2,4,6,8,10,12,14,-1,-1,-1,-1,-1,-1,-1,-1],"split_conditions":[3E0,1E0,1E0,1E0,1E0,1E0,4E0,-1.1576318E-2,1.7178476E-2,5.4243412E-2,-9.641215E-2,2.4433518E-2,-6.546836E-3,4.5892075E-4,-3.4733698E-2],"split_indices":[10,4,6,2,2,4,10,0,0,0,0,0,0,0,0],"split_type":[0,0,0,0,0,0,0,0,0,0,0,0,0,0,0],"sum_hessian":[1E3,8.13E2,1.87E2,7.04E2,1.09E2,1.46E2,4.1E1,5.26E2,1.78E2,7.7E1,3.2E1,1.03E2,4.3E1,3.1E1,1E1],"tree_param":{"num_deleted":"0","num_feature":"11","num_nodes":"15","size_leaf_vector":"1"}},{"base_weights":[-8.693033E-4,1.0103696E-2,-1.7944935E-1,-1.355147E-2,1.14128694E-1,-1.8274058E-1,-8.933238E-3,-3.0009954E-3,8.547225E-3,1.7397959E-2,-7.954149E-3,-1.6422039E-2,-2.4189232E-2],"categories":[],"categories_nodes":[],"categories_segments":[],"categories_sizes":[],"default_left":[0,0,0,0,0,0,0,0,0,0,0,0,0],"id":80,"left_children":[1,3,5,7,9,11,-1,-1,-1,-1,-1,-1,-1],"loss_changes":[1.9633313E0,2.3244743E0,8.779764E-4,1.2574956E0,2.0423217E0,2.0529032E-2,0E0,0E0,0E0,0E0,0E0,0E0,0E0],"parents":[2147483647,0,0,1,1,2,2,3,3,4,4,5,5],"right_children":[2,4,6,8,10,12,-1,-1,-1,-1,-1,-1,-1],"split_conditions":[1E0,3E0,4E0,1E0,1E0,3E0,-8.933238E-3,-3.0009954E-3,8.547225E-3,1.7397959E-2,-7.954149E-3,-1.6422039E-2,-2.4189232E-2],"split_indices":[9,10,10,4,6,10,0,0,0,0,0,0,0],"split_type":[0,0,0,0,0,0,0,0,0,0,0,0,0],"sum_hessian":[1E3,9.43E2,5.7E1,7.69E2,1.74E2,5.4E1,3E0,6.6E2,1.09E2,1.33E2,4.1E1,4.4E1,1E1],"tree_param":{"num_deleted":"0","num_feature":"11","num_nodes":"13","size_leaf_vector":"1"}},{"base_weights":[-8.168205E-4,1.7171485E-2,-9.408447E-2,-3.243688E-2,1.5209171E-1,6.519163E-2,-3.8863152E-1,3.8807295E-2,-4.6111267E-2,-4.0443712E-1,8.90577E-2,8.751167E-3,8.368577E-4,-3.5536613E-2,-7.405569E-2],"categories":[],"categories_nodes":[],"categories_segments":[],"categories_sizes":[],"default_left":[0,0,0,0,0,0,0,0,0,0,0,0,0,0,0],"id":81,"left_children":[1,3,5,7,9,11,13,-1,-1,-1,-1,-1,-1,-1,-1],"loss_changes":[1.6810204E0,5.627198E0,7.625453E0,1.110403E2,7.039817E2,1.3370666E-1,4.0412712E-1,0E0,0E0,0E0,0E0,0E0,0E0,0E0,0E0],"parents":[2147483647,0,0,1,1,2,2,3,3,4,4,5,5,6,6],"right_children":[2,4,6,8,10,12,14,-1,-1,-1,-1,-1,-1,-1,-1],"split_conditions":[1E0,1E0,1E0,2E0,2E0,3E0,4E0,3.8807295E-2,-4.6111267E-2,-4.0443712E-1,8.90577E-2,8.751167E-3,8.368577E-4,-3.5536613E-2,-7.405569E-2],"split_indices":[6,2,2,10,10,10,10,0,0,0,0,0,0,0,0],"split_type":[0,0,0,0,0,0,0,0,0,0,0,0,0,0,0],"sum_hessian":[1E3,8.39E2,1.61E2,6.14E2,2.25E2,1.05E2,5.6E1,3.1E2,3.04E2,3.3E1,1.92E2,7.5E1,3E1,5.3E1,3E0],"tree_param":{"num_deleted":"0","num_feature":"11","num_nodes":"15","size_leaf_vector":"1"}},{"base_weights":[-1.1567095E-3,-1.9037802E-2,7.627077E-2,-3.4990553E-2,8.3377905E-2,1.2041593E-1,-7.094106E-2,-1.118297E-2,1.9142969E-2,5.2597005E-2,-9.652757E-2,-2.2571035E-2,6.2876455E-2,8.32694E-2,-2.0667802E-1],"categories":[],"categories_nodes":[],"categories_segments":[],"categories_sizes":[],"default_left":[0,0,0,0,0,0,0,0,0,0,0,0,0,0,0],"id":82,"left_children":[1,3,5,7,9,11,13,-1,-1,-1,-1,-1,-1,-1,-1],"loss_changes":[1.3873243E0,1.3328408E0,1.2302963E0,1.2286955E1,5.156155E1,2.5655077E1,8.107544E1,0E0,0E0,0E0,0E0,0E0,0E0,0E0,0E0],"parents":[2147483647,0,0,1,1,2,2,3,3,4,4,5,5,6,6],"right_children":[2,4,6,8,10,12,14,-1,-1,-1,-1,-1,-1,-1,-1],"split_conditions":[3E0,1E0,1E0,1E0,1E0,1E0,1E0,-1.118297E-2,1.9142969E-2,5.2597005E-2,-9.652757E-2,-2.2571035E-2,6.2876455E-2,8.32694E-2,-2.0667802E-1],"split_indices":[10,4,4,2,2,2,2,0,0,0,0,0,0,0,0],"split_type":[0,0,0,0,0,0,0,0,0,0,0,0,0,0,0],"sum_hessian":[1E3,8.13E2,1.87E2,7.04E2,1.09E2,1.44E2,4.3E1,5.26E2,1.78E2,7.7E1,3.2E1,8.6E1,5.8E1,3E1,1.3E1],"tree_param":{"num_deleted":"0","num_feature":"11","num_nodes":"15","size_leaf_vector":"1"}},{"base_weights":[-1.1599326E-3,1.5111477E-2,-8.552305E-2,-2.959565E-2,1.3670339E-1,7.306349E-2,-3.7893796E-1,3.6053773E-2,-4.273067E-2,-3.6704075E-1,8.066779E-2,8.105244E-3,-3.4932613E-3,-3.4575507E-2,-7.321723E-2],"categories":[],"categories_nodes":[],"categories_segments":[],"categories_sizes":[],"default_left":[0,0,0,0,0,0,0,0,0,0,0,0,0,0,0],"id":83,"left_children":[1,3,5,7,9,11,13,-1,-1,-1,-1,-1,-1,-1,-1],"loss_changes":[1.3753719E0,4.5703073E0,7.565814E0,9.5577675E1,5.7941156E2,9.428549E-2,4.1496277E-1,0E0,0E0,0E0,0E0,0E0,0E0,0E0,0E0],"parents":[2147483647,0,0,1,1,2,2,3,3,4,4,5,5,6,6],"right_children":[2,4,6,8,10,12,14,-1,-1,-1,-1,-1,-1,-1,-1],"split_conditions":[1E0,1E0,1E0,2E0,2E0,4E0,4E0,3.6053773E-2,-4.273067E-2,-3.6704075E-1,8.066779E-2,8.105244E-3,-3.4932613E-3,-3.4575507E-2,-7.321723E-2],"split_indices":[6,2,2,10,10,10,10,0,0,0,0,0,0,0,0],"split_type":[0,0,0,0,0,0,0,0,0,0,0,0,0,0,0],"sum_hessian":[1E3,8.39E2,1.61E2,6.14E2,2.25E2,1.05E2,5.6E1,3.1E2,3.04E2,3.3E1,1.92E2,9.8E1,7E0,5.3E1,3E0],"tree_param":{"num_deleted":"0","num_feature":"11","num_nodes":"15","size_leaf_vector":"1"}},{"base_weights":[-1.4411929E-3,1.3249776E-2,-7.760769E-2,-2.6648453E-2,1.2176376E-1,6.580062E-2,-3.429353E-1,3.245991E-2,-3.8471844E-2,-3.3141622E-1,7.264256E-2,7.3029026E-3,-3.1875968E-3,-3.1181991E-2,-6.772592E-2],"categories":[],"categories_nodes":[],"categories_segments":[],"categories_sizes":[],"default_left":[0,0,0,0,0,0,0,0,0,0,0,0,0,0,0],"id":84,"left_children":[1,3,5,7,9,11,13,-1,-1,-1,-1,-1,-1,-1,-1],"loss_changes":[1.1211069E0,3.640038E0,6.1866956E0,7.7474174E1,4.7193903E2,7.716876E-2,3.8176584E-1,0E0,0E0,0E0,0E0,0E0,0E0,0E0,0E0],"parents":[2147483647,0,0,1,1,2,2,3,3,4,4,5,5,6,6],"right_children":[2,4,6,8,10,12,14,-1,-1,-1,-1,-1,-1,-1,-1],"split_conditions":[1E0,1E0,1E0,2E0,2E0,4E0,4E0,3.245991E-2,-3.8471844E-2,-3.3141622E-1,7.264256E-2,7.3029026E-3,-3.1875968E-3,-3.1181991E-2,-6.772592E-2],"split_indices":[6,2,2,10,10,10,10,0,0,0,0,0,0,0,0],"split_type":[0,0,0,0,0,0,0,0,0,0,0,0,0,0,0],"sum_hessian":[1E3,8.39E2,1.61E2,6.14E2,2.25E2,1.05E2,5.6E1,3.1E2,3.04E2,3.3E1,1.92E2,9.8E1,7E0,5.3E1,3E0],"tree_param":{"num_deleted":"0","num_feature":"11","num_nodes":"15","size_leaf_vector":"1"}},{"base_weights":[-1.6569772E-3,1.1608768E-2,-7.04321E-2,-2.3994029E-2,1.08441114E-1,5.92593E-2,-3.103769E-1,2.9224405E-2,-3.463745E-2,-2.9924926E-1,6.541578E-2,7.4706003E-3,1.9478368E-3,-2.8121531E-2,-6.264646E-2],"categories":[],"categories_nodes":[],"categories_segments":[],"categories_sizes":[],"default_left":[0,0,0,0,0,0,0,0,0,0,0,0,0,0,0],"id":85,"left_children":[1,3,5,7,9,11,13,-1,-1,-1,-1,-1,-1,-1,-1],"loss_changes":[9.140831E-1,2.898504E0,5.059634E0,6.2799847E1,3.8440182E2,6.368017E-2,3.492341E-1,0E0,0E0,0E0,0E0,0E0,0E0,0E0,0E0],"parents":[2147483647,0,0,1,1,2,2,3,3,4,4,5,5,6,6],"right_children":[2,4,6,8,10,12,14,-1,-1,-1,-1,-1,-1,-1,-1],"split_conditions":[1E0,1E0,1E0,2E0,2E0,3E0,4E0,2.9224405E-2,-3.463745E-2,-2.9924926E-1,6.541578E-2,7.4706003E-3,1.9478368E-3,-2.8121531E-2,-6.264646E-2],"split_indices":[6,2,2,10,10,10,10,0,0,0,0,0,0,0,0],"split_type":[0,0,0,0,0,0,0,0,0,0,0,0,0,0,0],"sum_hessian":[1E3,8.39E2,1.61E2,6.14E2,2.25E2,1.05E2,5.6E1,3.1E2,3.04E2,3.3E1,1.92E2,7.5E1,3E1,5.3E1,3E0],"tree_param":{"num_deleted":"0","num_feature":"11","num_nodes":"15","size_leaf_vector":"1"}},{"base_weights":[-1.81123E-3,-1.5318096E-2,5.6680262E-2,-3.205497E-2,9.208929E-2,1.300484E-1,-6.333019E-2,-1.3042413E-2,2.5773613E-2,5.8839183E-2,-1.0837801E-1,-1.3304275E-2,8.642059E-2,4.1579418E-2,-2.0779736E-1],"categories":[],"categories_nodes":[],"categories_segments":[],"categories_sizes":[],"default_left":[0,0,0,0,0,0,0,0,0,0,0,0,0,0,0],"id":86,"left_children":[1,3,5,7,9,11,13,-1,-1,-1,-1,-1,-1,-1,-1],"loss_changes":[7.91695E-1,1.4662502E0,1.6635652E0,2.0130705E1,6.4832245E1,2.2713566E1,7.036307E1,0E0,0E0,0E0,0E0,0E0,0E0,0E0,0E0],"parents":[2147483647,0,0,1,1,2,2,3,3,4,4,5,5,6,6],"right_children":[2,4,6,8,10,12,14,-1,-1,-1,-1,-1,-1,-1,-1],"split_conditions":[3E0,1E0,1E0,1E0,1E0,1E0,1E0,-1.3042413E-2,2.5773613E-2,5.8839183E-2,-1.0837801E-1,-1.3304275E-2,8.642059E-2,4.1579418E-2,-2.0779736E-1],"split_indices":[10,4,2,2,2,4,4,0,0,0,0,0,0,0,0],"split_type":[0,0,0,0,0,0,0,0,0,0,0,0,0,0,0],"sum_hessian":[1E3,8.13E2,1.87E2,7.04E2,1.09E2,1.16E2,7.1E1,5.26E2,1.78E2,7.7E1,3.2E1,8.6E1,3E1,5.8E1,1.3E1],"tree_param":{"num_deleted":"0","num_feature":"11","num_nodes":"15","size_leaf_vector":"1"}},{"base_weights":[-1.759784E-3,1.0510336E-2,-6.537176E-2,-2.2410152E-2,1.0004834E-1,6.6415705E-2,-3.0930334E-1,2.7611414E-2,-3.2673355E-2,-2.7270606E-1,5.975699E-2,7.265923E-3,-1.914996E-3,-2.8125247E-2,-6.1066426E-2],"categories":[],"categories_nodes":[],"categories_segments":[],"categories_sizes":[],"default_left":[0,0,0,0,0,0,0,0,0,0,0,0,0,0,0],"id":87,"left_children":[1,3,5,7,9,11,13,-1,-1,-1,-1,-1,-1,-1,-1],"loss_changes":[7.8199416E-1,2.4782555E0,5.2283764E0,5.5961693E1,3.1950934E2,5.8019936E-2,3.1009483E-1,0E0,0E0,0E0,0E0,0E0,0E0,0E0,0E0],"parents":[2147483647,0,0,1,1,2,2,3,3,4,4,5,5,6,6],"right_children":[2,4,6,8,10,12,14,-1,-1,-1,-1,-1,-1,-1,-1],"split_conditions":[1E0,1E0,1E0,2E0,2E0,4E0,4E0,2.7611414E-2,-3.2673355E-2,-2.7270606E-1,5.975699E-2,7.265923E-3,-1.914996E-3,-2.8125247E-2,-6.1066426E-2],"split_indices":[6,2,2,10,10,10,10,0,0,0,0,0,0,0,0],"split_type":[0,0,0,0,0,0,0,0,0,0,0,0,0,0,0],"sum_hessian":[1E3,8.39E2,1.61E2,6.14E2,2.25E2,1.05E2,5.6E1,3.1E2,3.04E2,3.3E1,1.92E2,9.8E1,7E0,5.3E1,3E0],"tree_param":{"num_deleted":"0","num_feature":"11","num_nodes":"15","size_leaf_vector":"1"}},{"base_weights":[-1.8855161E-3,9.199557E-3,-5.9352033E-2,-2.0177905E-2,8.910194E-2,5.982472E-2,-2.799377E-1,-1.6036743E-2,6.394189E-2,-2.4623743E-1,5.3812314E-2,6.546682E-3,-1.7474353E-3,-2.5364801E-2,-5.6486428E-2],"categories":[],"categories_nodes":[],"categories_segments":[],"categories_sizes":[],"default_left":[0,0,0,0,0,0,0,0,0,0,0,0,0,0,0],"id":88,"left_children":[1,3,5,7,9,11,13,-1,-1,-1,-1,-1,-1,-1,-1],"loss_changes":[6.3820356E-1,1.9735546E0,4.275514E0,5.697071E1,2.602458E2,4.7373682E-2,2.836895E-1,0E0,0E0,0E0,0E0,0E0,0E0,0E0,0E0],"parents":[2147483647,0,0,1,1,2,2,3,3,4,4,5,5,6,6],"right_children":[2,4,6,8,10,12,14,-1,-1,-1,-1,-1,-1,-1,-1],"split_conditions":[1E0,1E0,1E0,1E0,2E0,4E0,4E0,-1.6036743E-2,6.394189E-2,-2.4623743E-1,5.3812314E-2,6.546682E-3,-1.7474353E-3,-2.5364801E-2,-5.6486428E-2],"split_indices":[6,2,2,4,10,10,10,0,0,0,0,0,0,0,0],"split_type":[0,0,0,0,0,0,0,0,0,0,0,0,0,0,0],"sum_hessian":[1E3,8.39E2,1.61E2,6.14E2,2.25E2,1.05E2,5.6E1,5.07E2,1.07E2,3.3E1,1.92E2,9.8E1,7E0,5.3E1,3E0],"tree_param":{"num_deleted":"0","num_feature":"11","num_nodes":"15","size_leaf_vector":"1"}},{"base_weights":[-1.9179005E-3,8.10805E-3,-5.3892467E-2,-1.8080724E-2,7.933808E-2,5.3887468E-2,-2.5337985E-1,2.6457757E-2,-3.062402E-2,-2.2233799E-1,4.8458714E-2,6.657373E-3,2.1047355E-3,-2.2875285E-2,-5.2249935E-2],"categories":[],"categories_nodes":[],"categories_segments":[],"categories_sizes":[],"default_left":[0,0,0,0,0,0,0,0,0,0,0,0,0,0,0],"id":89,"left_children":[1,3,5,7,9,11,13,-1,-1,-1,-1,-1,-1,-1,-1],"loss_changes":[5.2205247E-1,1.5683932E0,3.4967735E0,5.0173183E1,2.1197481E2,4.2760372E-2,2.5825047E-1,0E0,0E0,0E0,0E0,0E0,0E0,0E0,0E0],"parents":[2147483647,0,0,1,1,2,2,3,3,4,4,5,5,6,6],"right_children":[2,4,6,8,10,12,14,-1,-1,-1,-1,-1,-1,-1,-1],"split_conditions":[1E0,1E0,1E0,2E0,2E0,3E0,4E0,2.6457757E-2,-3.062402E-2,-2.2233799E-1,4.8458714E-2,6.657373E-3,2.1047355E-3,-2.2875285E-2,-5.2249935E-2],"split_indices":[6,2,2,10,10,10,10,0,0,0,0,0,0,0,0],"split_type":[0,0,0,0,0,0,0,0,0,0,0,0,0,0,0],"sum_hessian":[1E3,8.39E2,1.61E2,6.14E2,2.25E2,1.05E2,5.6E1,3.1E2,3.04E2,3.3E1,1.92E2,7.5E1,3E1,5.3E1,3E0],"tree_param":{"num_deleted":"0","num_feature":"11","num_nodes":"15","size_leaf_vector":"1"}},{"base_weights":[-1.9699365E-3,-8.305795E-3,1.01185575E-1,1.6930996E-2,-2.2736993E-2,1.1144728E-2,6.0973983E-2,2.3820588E-2,-2.0075814E-1,-2.4026236E-2,2.8573368E-2,3.2062128E-3,1.2523809E-2],"categories":[],"categories_nodes":[],"categories_segments":[],"categories_sizes":[],"default_left":[0,0,0,0,0,0,0,0,0,0,0,0,0],"id":90,"left_children":[1,3,5,7,9,-1,11,-1,-1,-1,-1,-1,-1],"loss_changes":[6.5507257E-1,3.4418705E-1,1.7137766E-2,1.5458118E2,4.0395866E1,0E0,2.199652E-2,0E0,0E0,0E0,0E0,0E0,0E0],"parents":[2147483647,0,0,1,1,2,2,3,3,4,4,6,6],"right_children":[2,4,6,8,10,-1,12,-1,-1,-1,-1,-1,-1],"split_conditions":[1E0,2E0,3E0,1E0,1E0,1.1144728E-2,4E0,2.3820588E-2,-2.0075814E-1,-2.4026236E-2,2.8573368E-2,3.2062128E-3,1.2523809E-2],"split_indices":[9,10,10,2,2,0,10,0,0,0,0,0,0],"split_type":[0,0,0,0,0,0,0,0,0,0,0,0,0],"sum_hessian":[1E3,9.43E2,5.7E1,3.43E2,6E2,4.4E1,1.3E1,3.1E2,3.3E1,3.52E2,2.48E2,1E1,3E0],"tree_param":{"num_deleted":"0","num_feature":"11","num_nodes":"13","size_leaf_vector":"1"}},{"base_weights":[-1.917765E-3,-7.657254E-3,9.1530435E-2,1.47231845E-2,-2.0454615E-2,1.0055031E-2,5.6000113E-2,2.1446152E-2,-1.812728E-1,-2.1630203E-2,2.572747E-2,2.9147356E-3,1.1584518E-2],"categories":[],"categories_nodes":[],"categories_segments":[],"categories_sizes":[],"default_left":[0,0,0,0,0,0,0,0,0,0,0,0,0],"id":91,"left_children":[1,3,5,7,9,-1,11,-1,-1,-1,-1,-1,-1],"loss_changes":[5.3758216E-1,2.7067268E-1,1.2956977E-2,1.259529E2,3.274558E1,0E0,1.912149E-2,0E0,0E0,0E0,0E0,0E0,0E0],"parents":[2147483647,0,0,1,1,2,2,3,3,4,4,6,6],"right_children":[2,4,6,8,10,-1,12,-1,-1,-1,-1,-1,-1],"split_conditions":[1E0,2E0,3E0,1E0,1E0,1.0055031E-2,4E0,2.1446152E-2,-1.812728E-1,-2.1630203E-2,2.572747E-2,2.9147356E-3,1.1584518E-2],"split_indices":[9,10,10,2,2,0,10,0,0,0,0,0,0],"split_type":[0,0,0,0,0,0,0,0,0,0,0,0,0],"sum_hessian":[1E3,9.43E2,5.7E1,3.43E2,6E2,4.4E1,1.3E1,3.1E2,3.3E1,3.52E2,2.48E2,1E1,3E0],"tree_param":{"num_deleted":"0","num_feature":"11","num_nodes":"13","size_leaf_vector":"1"}},{"base_weights":[-1.8562394E-3,-7.055654E-3,8.280072E-2,-1.5088736E-2,2.8330222E-2,9.071868E-3,5.143581E-2,-5.4242234E-3,8.889727E-3,2.0850647E-2,-2.3231784E-2,2.6497657E-3,1.0715678E-2],"categories":[],"categories_nodes":[],"categories_segments":[],"categories_sizes":[],"default_left":[0,0,0,0,0,0,0,0,0,0,0,0,0],"id":92,"left_children":[1,3,5,7,9,-1,11,-1,-1,-1,-1,-1,-1],"loss_changes":[4.4119105E-1,2.687667E-1,9.737909E-3,3.1398125E0,8.266893E0,0E0,1.6614687E-2,0E0,0E0,0E0,0E0,0E0,0E0],"parents":[2147483647,0,0,1,1,2,2,3,3,4,4,6,6],"right_children":[2,4,6,8,10,-1,12,-1,-1,-1,-1,-1,-1],"split_conditions":[1E0,3E0,3E0,1E0,1E0,9.071868E-3,4E0,-5.4242234E-3,8.889727E-3,2.0850647E-2,-2.3231784E-2,2.6497657E-3,1.0715678E-2],"split_indices":[9,10,10,2,2,0,10,0,0,0,0,0,0],"split_type":[0,0,0,0,0,0,0,0,0,0,0,0,0],"sum_hessian":[1E3,9.43E2,5.7E1,7.69E2,1.74E2,4.4E1,1.3E1,5.59E2,2.1E2,1.03E2,7.1E1,1E1,3E0],"tree_param":{"num_deleted":"0","num_feature":"11","num_nodes":"13","size_leaf_vector":"1"}},{"base_weights":[-1.6473517E-3,-6.34919E-3,7.490753E-2,1.6821679E-2,-1.9601153E-2,8.184846E-3,4.724688E-2,1.9849129E-2,-1.6454159E-1,-1.9699011E-2,2.3195667E-2,2.4088763E-3,9.911999E-3],"categories":[],"categories_nodes":[],"categories_segments":[],"categories_sizes":[],"default_left":[0,0,0,0,0,0,0,0,0,0,0,0,0],"id":93,"left_children":[1,3,5,7,9,-1,11,-1,-1,-1,-1,-1,-1],"loss_changes":[3.6078426E-1,2.901939E-1,7.268369E-3,1.0420704E2,2.6864464E1,0E0,1.4430292E-2,0E0,0E0,0E0,0E0,0E0,0E0],"parents":[2147483647,0,0,1,1,2,2,3,3,4,4,6,6],"right_children":[2,4,6,8,10,-1,12,-1,-1,-1,-1,-1,-1],"split_conditions":[1E0,2E0,3E0,1E0,1E0,8.184846E-3,4E0,1.9849129E-2,-1.6454159E-1,-1.9699011E-2,2.3195667E-2,2.4088763E-3,9.911999E-3],"split_indices":[9,10,10,2,2,0,10,0,0,0,0,0,0],"split_type":[0,0,0,0,0,0,0,0,0,0,0,0,0],"sum_hessian":[1E3,9.43E2,5.7E1,3.43E2,6E2,4.4E1,1.3E1,3.1E2,3.3E1,3.52E2,2.48E2,1E1,3E0],"tree_param":{"num_deleted":"0","num_feature":"11","num_nodes":"13","size_leaf_vector":"1"}},{"base_weights":[-1.6034633E-3,-5.864133E-3,6.777026E-2,-1.3477568E-2,2.7668487E-2,7.3845433E-3,4.3402176E-2,-5.105766E-3,8.632494E-3,2.0736786E-2,-2.3228154E-2,2.189878E-3,9.168598E-3],"categories":[],"categories_nodes":[],"categories_segments":[],"categories_sizes":[],"default_left":[0,0,0,0,0,0,0,0,0,0,0,0,0],"id":94,"left_children":[1,3,5,7,9,-1,11,-1,-1,-1,-1,-1,-1],"loss_changes":[2.9627147E-1,2.4137458E-1,5.381316E-3,2.8923595E0,8.222918E0,0E0,1.2527911E-2,0E0,0E0,0E0,0E0,0E0,0E0],"parents":[2147483647,0,0,1,1,2,2,3,3,4,4,6,6],"right_children":[2,4,6,8,10,-1,12,-1,-1,-1,-1,-1,-1],"split_conditions":[1E0,3E0,3E0,1E0,1E0,7.3845433E-3,4E0,-5.105766E-3,8.632494E-3,2.0736786E-2,-2.3228154E-2,2.189878E-3,9.168598E-3],"split_indices":[9,10,10,2,2,0,10,0,0,0,0,0,0],"split_type":[0,0,0,0,0,0,0,0,0,0,0,0,0],"sum_hessian":[1E3,9.43E2,5.7E1,7.69E2,1.74E2,4.4E1,1.3E1,5.59E2,2.1E2,1.03E2,7.1E1,1E1,3E0],"tree_param":{"num_deleted":"0","num_feature":"11","num_nodes":"13","size_leaf_vector":"1"}},{"base_weights":[-1.4230117E-3,5.609796E-3,-3.7880637E-2,-2.3260105E-2,8.414687E-2,1.09000824E-1,-3.1036404E-1,-1.699917E-2,6.671372E-2,4.8861854E-2,-1.5091905E-1,1.34891E-2,4.201196E-3,-3.4597564E-2,-1.4798926E-2],"categories":[],"categories_nodes":[],"categories_segments":[],"categories_sizes":[],"default_left":[0,0,0,0,0,0,0,0,0,0,0,0,0,0,0],"id":95,"left_children":[1,3,5,7,9,11,13,-1,-1,-1,-1,-1,-1,-1,-1],"loss_changes":[2.5686836E-1,1.9065375E0,6.5175176E0,6.2414818E1,1.4638533E2,1.781745E-1,2.7839756E-1,0E0,0E0,0E0,0E0,0E0,0E0,0E0,0E0],"parents":[2147483647,0,0,1,1,2,2,3,3,4,4,5,5,6,6],"right_children":[2,4,6,8,10,12,14,-1,-1,-1,-1,-1,-1,-1,-1],"split_conditions":[1E0,1E0,1E0,1E0,1E0,3E0,3E0,-1.699917E-2,6.671372E-2,4.8861854E-2,-1.5091905E-1,1.34891E-2,4.201196E-3,-3.4597564E-2,-1.4798926E-2],"split_indices":[6,2,2,4,4,10,10,0,0,0,0,0,0,0,0],"split_type":[0,0,0,0,0,0,0,0,0,0,0,0,0,0,0],"sum_hessian":[1E3,8.39E2,1.61E2,6.14E2,2.25E2,1.05E2,5.6E1,5.07E2,1.07E2,1.8E2,4.5E1,7.5E1,3E1,4.5E1,1.1E1],"tree_param":{"num_deleted":"0","num_feature":"11","num_nodes":"15","size_leaf_vector":"1"}},{"base_weights":[-1.3646658E-3,2.9122464E-2,-1.7301152E-2,2.0073872E-2,-1.5415181E-1,-1.581421E-1,2.1467513E-1,-4.28221E-2,6.0104348E-2,5.6904536E-2,-1.3615468E-1],"categories":[],"categories_nodes":[],"categories_segments":[],"categories_sizes":[],"default_left":[0,0,0,0,0,0,0,0,0,0,0],"id":96,"left_children":[1,3,5,-1,-1,7,9,-1,-1,-1,-1],"loss_changes":[4.8684743E-1,9.303376E1,2.153197E1,0E0,0E0,8.432378E1,1.3985774E2,0E0,0E0,0E0,0E0],"parents":[2147483647,0,0,1,1,2,2,5,5,6,6],"right_children":[2,4,6,-1,-1,8,10,-1,-1,-1,-1],"split_conditions":[2E0,1E0,1E0,2.0073872E-2,-1.5415181E-1,1E0,1E0,-4.28221E-2,6.0104348E-2,5.6904536E-2,-1.3615468E-1],"split_indices":[10,2,2,0,0,4,4,0,0,0,0],"split_type":[0,0,0,0,0,0,0,0,0,0,0],"sum_hessian":[1E3,3.43E2,6.57E2,3.1E2,3.3E1,4.09E2,2.48E2,3.02E2,1.07E2,2.03E2,4.5E1],"tree_param":{"num_deleted":"0","num_feature":"11","num_nodes":"11","size_leaf_vector":"1"}},{"base_weights":[-1.4236941E-3,-8.889074E-3,1.2010636E-2,2.582131E-2,-2.8741792E-2,1.8073034E-2,-1.3919E-1,-1.8499529E-2,1.9288966E-2],"categories":[],"categories_nodes":[],"categories_segments":[],"categories_sizes":[],"default_left":[0,0,0,0,0,0,0,0,0],"id":97,"left_children":[1,3,-1,5,7,-1,-1,-1,-1],"loss_changes":[9.092429E-1,6.512483E-1,0E0,7.580009E1,2.084873E1,0E0,0E0,0E0,0E0],"parents":[2147483647,0,0,1,1,3,3,4,4],"right_children":[2,4,-1,6,8,-1,-1,-1,-1],"split_conditions":[1E0,2E0,1.2010636E-2,1E0,1E0,1.8073034E-2,-1.3919E-1,-1.8499529E-2,1.9288966E-2],"split_indices":[9,10,0,2,2,0,0,0,0],"split_type":[0,0,0,0,0,0,0,0,0],"sum_hessian":[1E3,9.43E2,5.7E1,3.43E2,6E2,3.1E2,3.3E1,3.52E2,2.48E2],"tree_param":{"num_deleted":"0","num_feature":"11","num_nodes":"9","size_leaf_vector":"1"}},{"base_weights":[-1.3895406E-3,-8.127644E-3,1.0830286E-2,2.288789E-2,-2.5866771E-2,1.6271621E-2,-1.2568031E-1,-1.6654998E-2,1.7367957E-2],"categories":[],"categories_nodes":[],"categories_segments":[],"categories_sizes":[],"default_left":[0,0,0,0,0,0,0,0,0],"id":98,"left_children":[1,3,-1,5,7,-1,-1,-1,-1],"loss_changes":[7.4073815E-1,5.1996994E-1,0E0,6.175885E1,1.6900692E1,0E0,0E0,0E0,0E0],"parents":[2147483647,0,0,1,1,3,3,4,4],"right_children":[2,4,-1,6,8,-1,-1,-1,-1],"split_conditions":[1E0,2E0,1.0830286E-2,1E0,1E0,1.6271621E-2,-1.2568031E-1,-1.6654998E-2,1.7367957E-2],"split_indices":[9,10,0,2,2,0,0,0,0],"split_type":[0,0,0,0,0,0,0,0,0],"sum_hessian":[1E3,9.43E2,5.7E1,3.43E2,6E2,3.1E2,3.3E1,3.52E2,2.48E2],"tree_param":{"num_deleted":"0","num_feature":"11","num_nodes":"9","size_leaf_vector":"1"}},{"base_weights":[-1.3474461E-3,-7.429053E-3,9.765918E-3,2.0281054E-2,-2.3277385E-2,1.4649685E-2,-1.1348188E-1,-1.4993988E-2,1.563818E-2],"categories":[],"categories_nodes":[],"categories_segments":[],"categories_sizes":[],"default_left":[0,0,0,0,0,0,0,0,0],"id":99,"left_children":[1,3,-1,5,7,-1,-1,-1,-1],"loss_changes":[6.034471E-1,4.150382E-1,0E0,5.031864E1,1.3699853E1,0E0,0E0,0E0,0E0],"parents":[2147483647,0,0,1,1,3,3,4,4],"right_children":[2,4,-1,6,8,-1,-1,-1,-1],"split_conditions":[1E0,2E0,9.765918E-3,1E0,1E0,1.4649685E-2,-1.1348188E-1,-1.4993988E-2,1.563818E-2],"split_indices":[9,10,0,2,2,0,0,0,0],"split_type":[0,0,0,0,0,0,0,0,0],"sum_hessian":[1E3,9.43E2,5.7E1,3.43E2,6E2,3.1E2,3.3E1,3.52E2,2.48E2],"tree_param":{"num_deleted":"0","num_feature":"11","num_nodes":"9","size_leaf_vector":"1"}}]},"name":"gbtree"},"learner_model_param":{"base_score":"[3.98203E1]","boost_from_average":"1","num_class":"0","num_feature":"11","num_target":"1"},"objective":{"name":"reg:squarederror","reg_loss_param":{"scale_pos_weight":"1"}}},"version":[3,1,2]}